-0.00404217
-0.00404354
-0.00404128
-0.00404438
-0.00404182
-0.00404306
-0.00404182
-0.00404119
-0.00404299
-0.00404391
-0.00404254
-0.00404287
-0.00404243
-0.00404382
-0.00404225
-0.00404153
-0.00404266
-0.00404307
-0.00404114
-0.00404296
-0.00404379
-0.00404453
-0.00404253
-0.00404303
-0.00404266
-0.00404544
-0.00404334
-0.00404122
-0.00404311
-0.00404354
-0.00404364
-0.00404315
-0.00404237
-0.00404258
-0.00404401
-0.00406956
-0.00411086
-0.00411674
-0.0040499
-0.00397632
-0.00404902
-0.00401166
-0.00371594
-0.00370736
-0.00382192
-0.00402795
-0.00404847
-0.00401189
-0.00392898
-0.00403074
-0.00405476
-0.00404285
-0.0040425
-0.00404318
-0.00404396
-0.00404341
-0.00404306
-0.00404253
-0.00404287
-0.00404237
-0.0040358
-0.00404462
-0.00405378
-0.00404606
-0.00401428
-0.00307271
-0.00342183
-0.00380174
-0.00296342
-0.0028782
-0.00212505
-0.00150164
5.80633e-05
0.000910557
0.000430557
-0.00183427
-0.000181489
-0.000529988
-0.00278051
-0.00415576
-0.00409782
-0.00404158
-0.00404241
-0.00404356
-0.0040437
-0.00404298
-0.00404232
-0.00404281
-0.00404087
-0.0039702
-0.00462527
-0.00457133
-0.00408402
-0.000618575
0.000594313
0.00382957
0.000747488
0.000746703
0.00485127
0.00683027
0.00563559
0.0102375
0.0136361
0.00933449
0.00814566
0.00500424
0.00149591
-0.0031943
-0.00424916
-0.00404288
-0.0040424
-0.00404422
-0.00404519
-0.00404232
-0.00404454
-0.00402516
-0.00392512
-0.00396239
-0.00424612
-0.000600678
-0.00089718
0.00602722
-0.00329909
-0.00477054
-0.011623
-0.0151421
-0.00880496
-0.01214
-0.00114156
0.00130088
0.00388235
0.000388627
0.00291015
0.00822647
0.00454174
0.000542774
-0.00310373
-0.00429542
-0.00404222
-0.00404374
-0.00404259
-0.00404317
-0.00401078
-0.00439972
-0.00360402
-0.0074422
-0.00695564
-0.0102806
-0.0123345
-0.00257693
-0.0116392
-0.00457706
-0.0108775
-0.0173637
-0.00179676
0.000486933
-0.0104859
-0.00174407
-0.0158145
-0.00302947
0.00245516
0.00356392
0.00160284
-0.000673599
-0.00466456
-0.00658375
-0.00469389
-0.004044
-0.0040444
-0.00404146
-0.00395451
-0.00467653
-0.00394635
-0.00514137
-0.00762621
-0.0201157
-0.0176387
-0.0196126
-0.0179622
-0.0156909
-0.0269527
-0.0260784
-0.0264708
-0.0194844
-0.0255663
-0.00913525
-0.0188551
-0.0219414
-0.0162364
-0.00719464
0.00133945
-0.00307963
-0.0102173
-0.00784458
-0.00631278
-0.00294088
-0.00405967
-0.004389
-0.000990178
-0.00318462
-0.00234495
0.000113639
-0.00484556
-0.00692229
0.00101651
-0.00965769
-0.00884438
-0.00862376
-0.0297494
-0.0339749
-0.0367891
-0.0436201
-0.0265001
-0.0286768
-0.0182865
0.000249738
-0.0121177
0.00189922
-0.00447989
-0.00537416
-0.0139133
-0.010949
-0.00647255
-0.00385433
-0.00410665
-0.00346811
-0.00185362
-0.00261917
-0.00253743
-0.00387923
0.00061368
0.00926569
0.0114798
0.00640861
0.0104896
0.00400452
-0.0121976
-0.0163261
-0.0194369
-0.0231808
-0.0195631
-0.0147621
-0.00125832
0.0114162
0.0110094
0.00233555
-0.00515181
-0.0110783
-0.0148666
-0.0159507
-0.00566048
-0.00390665
-0.00405449
-0.00388811
-0.00389318
-0.00109211
0.00365733
0.00381252
0.00172199
0.00948191
0.0151724
0.0118697
0.0255882
0.00939366
0.00654122
0.00113371
0.00574129
-0.00641863
0.00424475
0.00539444
0.0010305
0.00949387
0.00908698
0.00776206
-0.00306996
0.00275074
-0.0117348
-0.013206
-0.00504516
-0.00400682
-0.00404283
-0.0041078
-0.00392159
-0.00217326
0.00658965
0.0109383
0.0102626
0.013114
0.0141684
0.00926878
0.0226464
0.0142677
0.00989219
0.00689107
0.00508381
0.000794764
0.0268399
0.0189366
0.0103448
0.014383
0.00692853
0.00682433
0.00455457
-0.00134367
-0.00497419
-0.00849792
-0.00501273
-0.00404207
-0.00404275
-0.004156
-0.00337877
-0.00186072
0.00616295
0.00974992
0.00461914
0.0143148
0.017035
0.00998893
0.0113405
-0.000219293
0.012198
0.0214024
0.00499147
0.0129016
0.0161757
0.0194917
0.0135247
0.00132377
0.0135119
0.0115631
0.00368121
-0.00516267
0.00170886
-0.00338667
-0.0055999
-0.00401341
-0.00404318
-0.00400921
-0.00352365
-0.00320898
0.00472084
0.00394868
0.00615926
0.0168478
0.00144143
0.00220295
-0.00615319
-0.00836782
-0.0101794
-0.00290363
0.0125885
0.0211011
0.0193817
0.00513132
0.00216068
0.0132607
0.0147644
0.0138421
-0.00372372
-0.00997406
-0.00215466
-0.00354627
-0.0042026
-0.00394455
-0.00404338
-0.00365339
-0.00366597
-0.00251454
0.00321956
0.00129962
-0.00212785
0.00835087
0.00350789
0.00147231
-0.0154663
-0.00879644
0.00308875
0.0136153
0.0212724
0.0249533
0.0219682
0.000556762
0.00692536
0.0179492
0.0154157
0.00437741
-0.00532388
-0.018627
-0.00730343
-0.00329463
-0.00407211
-0.00404321
-0.00404177
-0.00384502
-0.00360004
-0.00184433
0.00244645
-0.00760124
-0.0099958
0.004402
0.007182
-0.011466
-0.0187583
0.00619347
0.013178
0.0174642
0.0375943
0.0223954
0.0276363
0.0332297
0.0225267
0.0177419
-0.000785038
-0.0123638
-0.0161094
-0.0195978
-0.00756409
-0.00321285
-0.00398468
-0.00404243
-0.00404158
-0.00403283
-0.00374199
-0.000994262
0.00133644
-0.0100385
-0.00368051
0.00479762
0.000809885
-0.00900689
-8.02877e-06
0.0183505
0.014626
0.0179806
0.015292
0.0250942
0.0338642
0.0327375
0.0207413
0.00579158
-0.00916826
-0.0191721
-0.0208691
-0.0182918
-0.00438127
-0.000923353
-0.0044228
-0.00404704
-0.00404322
-0.0040426
-0.00416957
-0.000272463
0.00628884
-0.00109852
0.00804198
0.0109708
0.0211911
0.0148335
0.0163915
0.0284806
0.0138002
0.0149838
0.0194743
0.0302318
0.042154
0.0179911
-0.00429473
-0.0174504
-0.00224444
-0.0145911
-0.0169773
-0.00863611
0.00176392
0.000475131
-0.00371146
-0.00404932
-0.00404208
-0.00404284
-0.00426605
-0.00374846
-0.00012482
-0.00192328
0.0120529
0.0162781
0.0338421
0.0372116
0.0427446
0.0367673
0.0460744
0.0440323
0.0498524
0.0304586
0.0159205
0.000102512
-0.014156
-0.0295889
0.00324104
-0.0128771
-0.00937355
0.00456642
0.00924266
-0.00127641
-0.0038775
-0.00402971
-0.00404241
-0.00404212
-0.00447598
-0.00855937
-0.00962528
0.00343725
0.00198546
0.00569349
0.013698
0.0346464
0.0423808
0.0459153
0.0603674
0.0533932
0.0383468
0.0208731
0.00036294
-0.0143805
-0.013311
-0.00756454
-0.0035587
-0.00621376
0.00291999
0.0139158
0.00677584
-0.0028779
-0.00393089
-0.00398913
-0.00404361
-0.00404479
-0.00473689
-0.00938504
-0.0154607
-0.00205042
-0.00450201
-0.012727
-0.00507892
0.0235803
0.0229033
0.0273424
0.0267063
0.0192025
0.0150813
-2.14456e-05
-0.0122026
-0.0151891
-0.00621447
0.00392746
-0.00133498
0.00454665
0.00652356
0.0097173
0.000731803
-0.00342062
-0.00389888
-0.00397834
-0.00404354
-0.00404248
-0.00513296
-0.00978918
-0.0146861
-0.00684594
-0.00727918
-0.0121641
-0.0138623
-0.000376653
0.00577692
-0.0095382
-0.00278092
-0.0224861
-0.0192178
-0.0229563
-0.0237642
-0.017679
0.00975763
0.00996319
0.00571929
0.0124974
0.00584946
-0.0037355
-0.000387375
-0.00275442
-0.00345554
-0.00404461
-0.00404245
-0.00404184
-0.00536925
-0.00577054
-0.0183496
-0.0183381
-0.0113826
-0.00341416
-0.0107559
-0.0144528
-0.0134396
-0.0377345
-0.0263557
-0.0263901
-0.0304353
-0.0221256
-0.0203702
0.00667503
-0.00851251
-0.00834228
-0.00647262
-0.000957129
-0.0041281
-0.00627905
-0.00626906
-0.00399889
-0.00444266
-0.00404312
-0.00404289
-0.00404222
-0.00517596
-0.0057207
-0.0116972
-0.0139445
-0.0130514
-0.0125901
-0.0155471
-0.0289168
-0.0193646
-0.0466366
-0.0414823
-0.0376753
-0.0427536
-0.033058
-0.0171226
-0.0194988
-0.0251633
-0.0129097
-0.0137046
-0.00571681
-0.00497484
-0.00715596
-0.00499833
-0.0038095
-0.00435641
-0.0040429
-0.00404323
-0.00404287
-0.00436252
-0.00798843
-0.0155639
-0.015461
-0.0211709
-0.0207454
-0.0124987
-0.025308
-0.0305485
-0.0308341
-0.0339918
-0.0306972
-0.0297003
-0.00797265
-0.0169173
-0.0200061
-0.0156759
-0.0114557
-0.000358689
-0.000597271
-0.00476616
-0.00426075
-0.00472246
-0.00403676
-0.00412549
-0.0040423
-0.00404276
-0.00404438
-0.00404364
-0.0087666
-0.0174089
-0.0212926
-0.0189457
-0.0244994
-0.0193253
-0.00819918
-0.00371976
-0.00534878
-0.00967366
-0.00226311
0.00150977
0.00348875
0.00460334
-0.0036428
-0.00380748
-0.000176659
-0.000542791
-0.00484666
-0.00641807
-0.00324526
-0.00416173
-0.00406941
-0.00404135
-0.00404231
-0.00404316
-0.0040421
-0.00404372
-0.00413228
-0.00552052
-0.00237998
-0.00342964
-0.002093
0.00341867
0.00443466
0.0116486
0.0174489
0.0150186
0.00516848
0.0116921
0.00650152
0.00589114
0.00283783
0.00271814
0.00341408
0.00184027
-0.000880431
-0.00349761
-0.00408115
-0.00408932
-0.00404277
-0.00404421
-0.00404328
-0.00404312
-0.00404238
-0.00404433
-0.00405916
-0.00420039
-0.00200064
-0.000304013
0.000583633
0.00297044
0.0058307
0.00951833
0.0140507
0.0121929
0.0100732
0.0108412
0.00592851
0.00289627
0.00208827
0.00160303
-0.00163408
-0.00279461
-0.00223998
-0.00314261
-0.00364332
-0.00404474
-0.00404245
-0.00404312
-0.00404287
-0.00404237
-0.00404331
-0.0040442
-0.00404217
-0.00404089
-0.00402336
-0.00399979
-0.003626
-0.00334548
-0.0039651
-0.0043844
-0.00378531
-0.00273618
-0.00244763
-0.00207298
-0.00292597
-0.00385237
-0.00379721
-0.00337131
-0.00357303
-0.00384338
-0.00347496
-0.00366683
-0.00404383
-0.00404229
-0.00404443
-0.00404329
-0.00404443
-0.00276316
-0.0027639
-0.00276231
-0.00276186
-0.00276222
-0.00276411
-0.00276177
-0.00276382
-0.00276227
-0.00276269
-0.00276098
-0.00276275
-0.00276258
-0.00276228
-0.00276605
-0.00276271
-0.00276409
-0.0027625
-0.00276218
-0.00276169
-0.00276299
-0.00276223
-0.00276057
-0.00275991
-0.00276344
-0.00276289
-0.00276239
-0.00276365
-0.00276229
-0.0027638
-0.00276244
-0.00276292
-0.00276091
-0.0027639
-0.00276205
-0.00246964
-0.00180869
-0.00151344
-0.0022924
-0.00298991
-0.00257559
-0.00258195
-0.00320403
-0.00348132
-0.0043968
-0.00263583
-0.00245096
-0.00240241
-0.00230366
-0.00252318
-0.00263247
-0.0027613
-0.00276245
-0.00276419
-0.002762
-0.00276466
-0.00276345
-0.00276338
-0.00276168
-0.00276122
-0.00271513
-0.0027481
-0.00271939
-0.0024416
-0.00131538
-0.00260842
-0.0024573
-0.000864113
-0.00186444
-0.000403929
0.00322386
0.00429551
0.00440219
0.0039843
0.00300636
0.00254685
-0.000703114
-0.00225809
-0.00263131
-0.0028669
-0.0027986
-0.00276193
-0.00276217
-0.00276224
-0.00276135
-0.00276253
-0.00276345
-0.00276419
-0.00274418
-0.00296449
-0.00322128
-0.00366059
-0.00304557
-0.0060183
-0.00870194
-0.0117208
-0.00883375
-0.00831212
-0.00436378
-0.00557355
-0.0047856
-0.00140371
0.00150742
0.00398564
0.000235318
-0.00188026
-0.00356198
-0.00401663
-0.00362582
-0.00276215
-0.00276119
-0.00276269
-0.00276395
-0.00276186
-0.00276316
-0.00278569
-0.00284362
-0.00298171
-0.00206254
-0.00321247
-0.00254685
-0.00704384
0.000885718
0.00239564
0.00286029
0.0051388
-0.00196812
-0.00318386
-0.00452741
-0.00432962
-0.000939496
0.00579773
0.00313924
-0.00275253
-0.00401719
-0.00392967
-0.00374223
-0.00283764
-0.00276219
-0.0027616
-0.00276307
-0.0027616
-0.00282345
-0.00303484
-0.0033344
-0.0017556
0.000949775
0.000863809
-0.00327729
-0.00445112
0.00467571
-0.00445095
-0.00790211
-0.00698266
-0.00671484
-0.00432803
-0.00387916
-0.00541795
-0.00241438
-0.00424349
-0.00435992
-0.00485137
-0.00817442
-0.00206529
-0.00259739
-0.00238082
-0.0025509
-0.00276438
-0.00276307
-0.00276375
-0.00276177
-0.00202588
-0.00297193
1.77336e-05
0.00438378
0.00434919
0.00173743
-0.00232086
0.00302449
-0.00456626
-0.00594399
-0.00788446
-0.00653213
-0.00845233
-0.0038988
-0.0120452
-0.0112247
-0.0020253
-0.00238283
-0.000912656
-0.00213043
0.00466926
0.00233606
-0.000482069
-0.00232593
-0.00250633
-0.00273356
-0.00227436
-0.00420771
-0.00255579
0.000852627
0.00205416
0.00735763
0.00603856
-0.00498032
0.00226974
0.000648851
-0.00570109
-0.00512927
-0.00652055
-0.00815151
-0.00247638
-0.00791211
-0.00171869
-0.000314251
-0.00523963
-0.0033471
-0.000428888
-0.00180909
0.00725983
0.00669504
0.000984321
-0.000477383
-0.00194439
-0.0026447
-0.00218434
-0.0032337
-0.00168324
0.00150829
0.00495706
0.00974118
0.00273537
-0.00184309
-0.00294372
-0.000943079
-0.00261652
0.0053984
0.00159146
-0.000706084
-0.0014368
-0.00238242
-0.00639152
-0.0014319
0.00415249
-0.00260223
0.00447386
0.0114183
0.00903709
0.00757747
0.00173011
-0.0027803
-0.00393268
-0.00274386
-0.00208044
-0.0010099
-0.00134657
0.0019149
0.00661
0.00671674
0.00409581
0.000988275
-0.00439358
0.00443103
0.00540228
0.0055642
0.00254277
-0.00760079
-0.00276426
0.00720046
-0.00553938
0.000931887
0.00209931
-0.00214767
-0.000280403
0.00737087
0.000879876
0.000134897
-0.00339254
-0.00381521
-0.00294504
-0.00276207
-0.00223259
-0.00104207
0.00193978
0.000536624
0.000259995
-0.00107081
0.00355372
0.000873827
-2.09109e-05
-0.00246588
0.00154287
0.00650977
0.010368
0.0020064
0.00134636
-0.00431957
0.00117632
-0.0015427
-0.0102891
0.00251472
-0.00433431
-0.00474428
-0.00467035
-0.00401312
-0.00545739
-0.00340522
-0.00276171
-0.00276398
-0.00217565
-0.000710779
0.00362431
0.0012715
-0.00543383
0.000493688
0.000701801
0.00744137
0.00130507
-0.0102077
0.00310317
0.0075099
0.0036045
-0.00280093
-0.00762338
-0.00629341
-0.00221929
-0.00254262
0.00109722
-0.00140048
0.00119648
-0.0027174
-0.00818625
-0.00924913
-0.00620335
-0.00319305
-0.00280633
-0.0027619
-0.00227515
-0.00115709
0.00355632
-0.00230441
-0.00249893
0.000431663
0.00196206
0.00768592
-0.00273828
-0.00793816
0.000330736
0.00923241
0.00181789
-0.0100665
-0.00505232
-0.00298251
-0.00670455
-0.00321486
-0.00536193
-0.00162397
-0.00729554
-0.00202422
-0.00725093
-0.0061704
-0.00380734
-0.00356445
-0.00290787
-0.00276271
-0.00277999
-0.00208703
-0.00106228
-0.000803852
0.0038627
0.00492171
-0.00363892
-0.00467925
-0.0092882
-0.00545077
-0.00254121
0.00514832
-0.00210471
-0.00388905
0.00291094
0.0032171
0.00613167
-0.00129376
-0.00600673
2.58793e-05
-0.00759936
-0.0060557
0.00165673
-0.000249657
-0.00157526
-0.00324869
-0.00276392
-0.00276234
-0.00280666
-0.00285657
-0.00278937
-0.00352197
0.00840239
0.00922634
-0.00124064
-0.00338087
-0.00230884
-0.00293641
0.000571418
0.00145731
-0.000764148
-0.00635184
0.00648048
0.00626533
-0.00347917
-0.00494691
-0.00434669
-0.000788252
-0.00289616
-0.00100652
0.00567065
0.000718888
0.00208235
-0.00332709
-0.00276025
-0.00276259
-0.00276465
-0.00283061
-0.00332432
-0.00407802
0.000124453
0.000558574
-0.00334196
-0.00113225
0.00366394
0.00132735
0.00415113
0.0106118
-0.00554276
0.00161353
0.00881315
-0.00382031
-0.00389617
-0.00436798
-0.00695097
-0.00272989
-0.00382512
-0.000534921
0.00526098
-0.00295176
-0.00513226
-0.00542922
-0.00274556
-0.00276168
-0.0027629
-0.00272093
-0.00556508
-0.00759008
-0.00434856
-0.00250077
0.0011288
0.00298785
0.00287737
0.00362653
0.00471928
0.00114627
-0.00922301
0.00152002
-0.00355887
-0.00603588
-0.00114668
-0.00182541
-0.00247416
-0.00128768
-0.00460919
-0.00258738
0.00328312
-0.00633126
-0.0112729
-0.00503675
-0.00272961
-0.00276386
-0.00276219
-0.00257361
-0.00521932
-0.00614151
0.000564903
-0.000606316
0.000271164
0.000779192
0.00614075
0.00552301
0.010258
-0.000752138
-0.00727773
-0.000367806
0.000953247
0.00410505
-0.000578958
-0.00690407
-0.000794597
-0.00619831
-0.00402785
-0.00178598
-0.00211745
-0.0091954
-0.00806964
-0.00465833
-0.00285853
-0.00276412
-0.00276179
-0.00240621
-0.00346261
-0.00272996
0.000849448
-0.00514064
0.00490674
0.00816879
0.00789679
0.0101026
0.00349892
0.0023249
-0.00468663
0.00560031
0.00301521
-0.000471438
-0.00530418
-0.00596191
-0.00558509
-0.00180389
0.00201944
-0.00434105
-0.00909783
-0.00898044
-0.00652563
-0.00281502
-0.00300789
-0.00276332
-0.00276375
-0.00366834
-0.00176389
-0.0010334
-0.000417242
0.00385016
0.009832
0.00527776
0.00819439
0.00655307
0.00400773
0.00821738
-0.00286811
-0.000166744
0.00520901
0.00234537
-0.00328921
-0.00343721
-0.00643112
0.000811219
0.000884879
-0.00616866
-0.00459581
-0.00834714
-0.00423084
-0.00279936
-0.00288269
-0.00276294
-0.00276003
-0.00256274
-0.00261168
-0.00298671
-0.00440962
-0.00486198
0.000590361
0.00153509
-0.00228876
0.00411454
0.00625185
0.00933705
0.011109
0.00615913
0.00323313
-0.00696368
0.0011719
-0.00389445
-0.00604117
0.00110557
0.000131521
-0.00653824
-0.00628135
-0.010006
-0.00259065
-0.0027415
-0.00276365
-0.00276201
-0.0027618
-0.00247041
-0.00320766
-0.00129194
-0.00133452
-0.00563491
-0.00685183
-0.00655841
-0.00463055
-0.00286614
0.00250093
-0.00392053
-0.00447536
-0.00376875
-0.00680779
-0.000605918
-0.00524364
0.00287993
-0.00471326
9.65394e-05
0.00156622
-0.00363681
-0.0102473
-0.00695114
-0.00217584
-0.00246744
-0.00276111
-0.00276175
-0.00276359
-0.00218359
-0.00248974
-0.006114
-0.0011606
-0.00329682
-0.0117981
-0.00982101
-0.00686733
-0.0107
-0.00730465
-0.00269249
-0.00592419
-0.010776
-0.000488001
0.000644841
-0.00272242
-0.00038513
-0.00185391
0.00232186
0.00212947
-0.0055003
-0.0084146
-0.00525722
-0.00291033
-0.00253427
-0.00276396
-0.0027632
-0.00276163
-0.00251915
-0.00119052
-0.00354596
-0.00261243
-0.000878798
-0.00213293
-0.0042633
-0.00135891
0.00215874
-0.00278327
-0.00347113
-0.00230773
-0.00427017
-0.00960291
-0.00609972
-0.000297763
0.00310786
-0.000544638
-0.00244624
-0.00344433
-0.00621585
-0.00706972
-0.00325875
-0.00284519
-0.00281744
-0.00276187
-0.00276281
-0.00276219
-0.00276165
-0.00166544
-0.00130368
-0.00181902
-0.00174367
0.00158079
-0.00347994
-0.000913586
-0.0078109
-0.00165519
-0.00680143
-0.0080068
0.00147386
0.00254556
-0.00266568
-0.00189671
-0.00350534
-0.00732679
-0.0109355
-0.00864105
-0.0078436
-0.0054725
-0.00291734
-0.00281044
-0.00276177
-0.00276296
-0.00276346
-0.00276331
-0.00276337
-0.00275489
-0.00232091
-0.00190331
-0.00108749
0.0033669
0.00178296
0.00486361
-0.000639696
-0.00299712
-0.00886032
-0.00274359
0.00560816
0.00415531
-0.00519829
-0.0114561
-0.0156103
-0.0128882
-0.0135848
-0.0121018
-0.00712792
-0.00369479
-0.00294492
-0.00276215
-0.00276412
-0.0027625
-0.00276137
-0.00276252
-0.00276169
-0.00283757
-0.0032092
-0.00183606
-0.0035372
-0.00374982
-0.00509657
-0.00616793
-0.00129578
-0.00435941
-0.00527192
-0.00572139
-0.0108371
-0.00658158
-0.00228163
-0.00347782
-0.00247265
-0.000304109
-0.00448683
-0.00471167
-0.00473159
-0.00344337
-0.00276153
-0.00276289
-0.00276415
-0.00276105
-0.00276345
-0.00276304
-0.00276208
-0.00276417
-0.00276324
-0.00263801
-0.00251791
-0.00299844
-0.00361764
-0.00293301
-0.0017363
-0.00163786
-0.00220695
-0.00197425
-0.00384627
-0.00415626
-0.00167262
-0.00130171
-0.0023715
-0.00309454
-0.00315648
-0.00225169
-0.00238859
-0.00276307
-0.00276128
-0.00276163
-0.00276164
-0.00276407
-0.000202793
-0.000204986
-0.000204951
-0.000204849
-0.000203263
-0.000206651
-0.000203838
-0.000204637
-0.00020652
-0.000204652
-0.000206589
-0.000206205
-0.000202997
-0.000206228
-0.000204612
-0.00020566
-0.000205686
-0.000205334
-0.000205003
-0.00020467
-0.00020422
-0.00020516
-0.000206059
-0.000206891
-0.000204343
-0.000205978
-0.000205788
-0.000202836
-0.000204495
-0.00020537
-0.000204075
-0.000203581
-0.000205017
-0.00020682
-0.000204851
-0.00047735
-0.00116999
-0.00155838
-0.000859057
-0.000662801
-0.000471597
-0.000539005
-0.000351153
0.000131009
0.00314386
4.72719e-05
-0.000614612
-0.000532211
-0.000743809
-0.00042272
-0.000276601
-0.000205888
-0.000204934
-0.000203577
-0.00020466
-0.000206618
-0.000204571
-0.000205829
-0.000203431
-0.000205256
-0.000227153
-0.000242195
-0.00036005
-0.000490088
-0.00144339
-0.00336127
-0.00173918
-0.000376013
0.00165449
4.18687e-05
-0.00590164
-0.008394
-0.00360212
-0.00410724
-0.00624891
-0.00592015
-0.00339629
-0.00257288
-0.00130551
-0.000865911
-0.00051257
-0.000205876
-0.000203549
-0.000206621
-0.000206361
-0.000205195
-0.000205347
-0.000203402
-0.00020802
0.00012606
0.000533836
0.00145025
-0.000861345
-6.94504e-05
0.0017172
0.00378545
0.00122485
-0.00206246
-0.00437463
-0.000415699
-0.00292462
-0.00965643
-0.0147307
-0.0115303
-0.00625459
-0.00397535
-0.00127223
0.00109442
0.00174803
-0.000205041
-0.000206223
-0.000204283
-0.000205484
-0.000204519
-0.000204791
-0.00011399
-3.52626e-06
-0.000756282
-0.00259354
-0.0029264
-0.00449492
0.000471089
-0.00600145
0.000515743
0.00256889
-0.000237417
-0.00182841
-0.00437753
0.000582377
0.0061427
0.00589294
-0.00152268
-0.00169087
-0.000298781
0.0028505
0.00367507
0.00561039
0.000520396
-0.000203755
-0.000204189
-0.000206022
-0.000204598
-9.66603e-05
-0.000608192
-0.000222616
-0.0045105
-0.0102743
-0.00942789
0.00187609
0.00217102
-0.00281565
0.000344685
-0.00332207
-0.00518207
0.00571651
-0.00288795
-0.00472382
0.00820684
0.0068604
0.00172204
0.00688661
0.0035914
0.00235929
-0.0021931
0.00483843
0.000738754
-6.17186e-05
-0.000169156
-0.000205081
-0.000205251
-9.69184e-05
-0.00153014
-0.000212442
-0.00256014
-0.011494
-0.00809889
0.00568672
0.00487047
-0.00101444
0.00119162
-0.000287718
-0.0113675
0.000214824
-0.00114628
-0.00185791
-0.00465172
-0.00485077
0.000232695
-0.00233923
-0.0052485
-0.00270702
0.00016221
0.00652709
0.00118909
-0.000717317
-0.000768718
-0.00016477
-0.00039882
0.00207761
-0.00129932
-0.00292089
0.00451695
0.00367809
0.008982
0.0217086
0.00903858
0.00906636
0.0101436
0.00195183
0.00524177
-0.00406996
-0.000716504
0.00600646
-0.00341234
-0.00181098
0.00379593
-0.00546695
-0.00317278
-0.010427
-0.0014686
0.00679608
0.0089861
-0.000610492
-0.00134402
-4.41872e-05
0.000711096
0.00228898
-0.00225911
-0.00115944
0.00958768
0.0111242
0.0176179
0.0239503
0.0164337
0.00256969
0.00414074
7.91876e-05
0.0016172
-3.69255e-05
0.00402526
-0.00112739
0.000742213
0.00970047
0.00441125
-0.000502386
-0.00398527
-0.012136
-0.00339289
0.0182398
0.0150592
0.00260766
0.000583363
-0.00017791
0.000157095
0.00139062
-5.45542e-05
0.0060871
0.0139505
0.0137732
0.0162617
0.0178098
0.00549418
-0.00289537
0.013527
-0.00209223
0.00484656
0.000712096
-0.00912391
-0.00818116
0.00331542
0.00234877
-0.000114985
-0.00650557
-0.00137003
-0.0117618
0.00258834
0.0195466
0.0134256
0.00347441
-1.42846e-05
-0.000203802
-0.000200091
0.00101365
0.00411648
0.01166
0.0157937
0.0103391
0.00697634
0.0064062
-0.00203615
0.0104999
0.00648355
0.00838436
0.0117546
0.0109247
0.000847835
-0.000749088
-0.00415519
-0.00570843
0.00505079
0.0103335
0.00329021
-0.00296997
0.00144304
0.00969458
0.0113353
0.00192719
-0.000206544
-0.000205705
2.08614e-05
0.00201235
0.00633815
0.0137665
0.0135454
0.00731567
4.24279e-05
-0.000858137
-0.0187375
-0.00683926
-0.000757752
0.010199
0.0159373
0.00381294
0.0104927
0.00461387
-0.00124589
0.00640827
0.00306549
-0.00114414
-0.00728138
-0.00745929
-0.00623777
0.00201972
0.00839305
0.00177446
-0.000107552
-0.000204828
0.000485276
0.00168436
0.00464868
0.00960345
0.00552727
0.00430711
-0.00247468
-0.0144099
-0.0119769
-0.0133102
-0.00487728
-0.00778799
0.00777064
0.0161796
0.00672884
-2.86648e-06
-0.00355658
0.012372
0.008982
0.0136537
0.00142074
-0.00151728
-0.00697321
-0.00342605
0.00475041
0.00176907
0.000123761
-0.000205379
0.00106371
0.00118207
0.00323967
0.00478864
-0.00328326
-0.00284497
-0.00610107
-0.00744749
-0.00446626
-0.011232
0.00521644
-0.00274244
0.00513878
-5.39475e-05
-0.000521757
-0.0037606
-0.00417096
0.00381766
0.00715023
0.00397704
0.00707669
-0.00162579
-0.0108294
-0.00340624
0.000896292
0.000522964
-0.000204501
-0.000203913
0.000399798
0.00111276
0.00411779
0.00578202
-0.0116205
-0.0129748
-0.0118834
-0.00871921
-0.00794249
-0.0070518
-0.00374159
0.00156489
-0.00464986
0.0015215
0.00256725
0.00499168
0.00426312
0.00224319
0.00418348
-0.00914941
-0.00878279
-0.00802437
-0.0110224
0.00178467
1.98494e-05
0.000398768
-0.000205163
-0.000205204
-0.000173369
0.00071491
0.00452079
0.00562885
-0.0129675
-0.0124537
-0.00837129
-0.0141333
-0.00931155
-0.00646446
-0.00975959
-0.00862261
0.00265984
0.00860913
0.00105998
-0.00449998
-0.000790395
0.00414297
0.00445414
-0.000977475
-0.00694379
-0.0215524
-0.00994084
0.00325614
0.0039113
0.00216425
-0.000201738
-0.000205063
-0.000204333
-0.00150529
0.00130306
0.0023581
-0.0102404
-0.0198627
-0.01851
-0.0140297
-0.0151459
-0.0107233
-0.0121088
-0.00955917
0.00876368
0.00784669
0.00914914
-0.0019773
-0.00107831
-0.00901942
-0.00147045
0.00425113
-0.00222671
-0.00782658
-0.00537162
0.0103901
0.0072157
0.00359878
-0.000201131
-0.000204586
-0.000204822
-0.00262633
-0.00103794
-0.00194325
-0.0117451
-0.018065
-0.0178268
-0.0145855
-0.0126947
-0.00614278
-0.00763813
-0.00657592
-0.000190431
-0.000299009
-0.00268507
-0.00450157
0.00193431
-0.00145413
-0.0160021
0.00278452
-0.00207122
-0.00859938
0.00226206
0.0137868
0.00364405
0.00341079
-3.94116e-05
-0.000207115
-0.000204638
-0.000574815
-0.00555322
-0.00547537
-0.00617785
-0.0114425
-0.0223559
-0.0230033
-0.0187426
-0.0106594
-0.0079201
-0.00615753
0.00446914
-0.00636708
-0.0041188
-0.00828764
-0.00654679
0.00808341
-0.00620399
0.00456485
-0.00530138
-0.00205271
0.008181
0.00551124
0.00423347
0.00127154
5.54723e-05
-0.000204142
-0.000205017
0.00571813
0.00104714
-0.00181014
-0.0124103
-0.0131721
-0.0178116
-0.0194779
-0.0101281
-0.0135996
-0.00918549
-0.0105688
-0.0051222
-0.00358091
-5.45731e-05
-0.0122763
-0.00817031
0.0118358
0.00513406
0.00559155
0.0053637
0.00166744
0.00171327
0.00226609
0.00126489
-2.61256e-05
-7.0525e-05
-0.000203612
-0.000205571
0.00243265
-0.000889493
0.000866426
-0.00816474
-0.000394506
-0.00128062
-0.00418982
-0.0034082
-0.0091128
-0.00592778
-0.00677308
0.000271149
-0.00456829
-0.00139983
0.00246991
-0.00522934
-0.00960497
-0.00143786
0.00442809
-0.00352423
-0.00142981
0.00483331
0.00452271
-0.000104842
0.000217767
-0.000202899
-0.000204858
-0.000204131
-8.54422e-05
-0.00113845
-0.00153357
0.00362384
0.00552101
0.00936603
0.00746245
0.00161079
-0.00517225
0.000342982
0.00299822
0.00554185
0.0102997
0.0136179
0.00391023
0.000352
-0.0123971
-0.000853214
0.00067773
9.42466e-06
0.00584991
0.0108408
0.00665462
0.000199589
0.000136856
-0.000203223
-0.000205283
-0.000204605
-0.000518388
-0.000860404
0.00118391
0.00300288
0.0125199
0.0197229
0.00582194
0.00704194
0.00228991
0.00324485
0.00253956
0.00657911
0.00461298
-0.00407686
0.00338715
-0.00869615
0.00263659
-0.00405365
-0.00658248
0.005721
0.0123294
0.0061213
0.00259627
0.000392848
-0.000147016
-0.000206166
-0.000204572
-0.000203713
-0.000273624
-0.00183239
-0.00382571
-0.00119097
0.00732403
0.0107452
0.0192456
0.0123657
0.0120005
0.00989752
0.0128249
0.000865934
0.00400546
0.00866183
0.00090887
0.00229078
-0.00351249
-0.00571746
0.0066438
0.00809742
0.00545833
0.00350111
0.000131773
0.000224602
0.000197389
-0.000204047
-0.000206076
-0.000203313
-0.000205764
-0.00289022
-0.00722928
-0.00707279
-0.00209343
-0.00016345
0.00809582
0.0169151
0.0145928
0.00412455
-0.000243384
0.000539535
0.00576789
0.00876115
0.00465726
0.00852311
0.0046533
0.00954979
0.00864255
0.00191479
-0.00113941
-0.00235877
-2.06934e-05
-7.44667e-05
-0.000204143
-0.000206513
-0.000203606
-0.000203405
-0.00020556
-0.00023845
-0.00179779
-0.00217608
-0.0007326
0.00341595
0.00860316
0.0111463
0.0112535
0.0115828
0.00602876
0.00289729
0.00868109
0.00409925
0.00308625
0.00281366
-0.00307817
0.000814424
-0.00210659
-0.00321682
-0.0033145
-0.00233076
-0.000714542
-0.000205253
-0.000205066
-0.000204348
-0.000205399
-0.000204537
-0.000203885
-0.000239383
-0.00061193
-0.000582074
0.00161993
0.00537291
0.00742676
0.00892777
0.0129398
0.0124814
0.0125648
0.0104879
0.00595537
0.00636226
0.00675906
0.00404391
0.00270278
0.00324675
0.000499942
0.000607119
-0.000144835
0.000133098
-0.000207134
-0.000203683
-0.000204484
-0.00020483
-0.000204499
-0.000205793
-0.000204618
-0.000205977
-0.000204787
0.000441493
0.000997313
0.00184338
0.00140721
0.000272006
0.000856681
0.00157023
0.00272102
0.00270538
0.00143515
-2.67535e-05
7.16521e-05
0.000453425
-0.000809749
-4.04282e-05
0.00029439
-2.99509e-05
-0.000160348
-0.000206391
-0.000205777
-0.000204371
-0.00020415
-0.00020466
0.00367412
0.00367344
0.00367388
0.00367394
0.00367432
0.00367402
0.00367411
0.00367405
0.00367224
0.00367362
0.00367466
0.00367364
0.00367369
0.00367333
0.00367353
0.00367451
0.00367428
0.00367511
0.00367365
0.00367488
0.00367382
0.00367332
0.00367298
0.00367555
0.00367494
0.00367311
0.00367664
0.00367526
0.00367356
0.00367393
0.00367492
0.0036746
0.0036729
0.00367459
0.00367485
0.00368007
0.00366098
0.00362157
0.00354995
0.00359208
0.00367361
0.00360328
0.00320604
0.00335816
0.00283586
0.00354784
0.00374175
0.0037812
0.0038509
0.00375974
0.00371414
0.00367434
0.003674
0.00367424
0.00367409
0.00367274
0.00367406
0.0036727
0.00367446
0.00367354
0.00369715
0.00367937
0.00368665
0.00369027
0.00359551
0.00300661
0.00273893
0.00331219
0.00252173
0.00221756
0.00328511
0.00367597
0.00213413
0.00277891
0.0036842
0.00409887
0.00476607
0.00486491
0.00423925
0.0036606
0.00367133
0.00367299
0.00367476
0.00367413
0.00367439
0.00367476
0.00367531
0.00367443
0.00368023
0.00375592
0.00381141
0.00374856
0.0034181
0.00249715
0.000170338
-0.00183548
-0.00290959
-0.00279985
-0.000843651
-0.000961163
-0.00150647
0.00110801
0.00273706
0.0040898
0.00359182
0.00303031
0.00361406
0.00264118
0.00295752
0.00367473
0.00367374
0.00367433
0.00367437
0.0036733
0.00367451
0.00363264
0.00346519
0.00355694
0.00380831
0.0030988
0.000413175
-0.000137019
-0.000353845
-0.0024914
-0.0026767
0.000193931
-0.00216091
-0.00179561
-0.00224002
-0.0047731
-0.00462876
0.000376224
0.000250764
0.00201682
0.00144277
0.00272105
0.00262669
0.0029469
0.00367512
0.00367419
0.00367432
0.00367321
0.00365243
0.00348694
0.00273609
0.00198343
0.00314154
0.000924147
-0.00372034
-0.00401159
-0.00230982
-0.00451133
-0.00351959
-4.7453e-05
0.00284351
0.00607664
0.00429718
0.0021035
-0.00123024
-0.000114053
-0.000683819
0.00220863
0.000629935
0.00397492
0.00114646
0.000654658
0.00331281
0.00366092
0.00367505
0.00367525
0.00365501
0.00346802
0.00217496
0.00142357
0.00225066
0.00189305
-0.00534239
-0.00668768
-0.000504099
-0.00365142
-0.00179693
-0.00252316
-0.0080065
-0.00629325
-8.53694e-06
0.00368667
1.66228e-06
0.000395691
0.00132545
0.00469958
0.00406475
0.00345536
-0.00172427
-0.0021001
0.00202017
0.00315948
0.00367175
0.00380155
0.00339476
0.00336388
0.00358854
0.00158996
0.000877414
0.000150494
-0.00522895
-0.00186082
0.000598328
-0.00329081
0.00146531
0.000267351
-0.00195903
0.00291617
0.00735909
0.00826726
0.00593462
0.00392222
-0.000594691
0.000777344
0.000609232
0.00325514
-0.00159574
-0.00406883
0.00272504
0.00387378
0.00366713
0.00393592
0.00343394
0.00315098
0.00186894
-0.000853443
-0.00128543
-0.00564371
-0.00742873
-0.0078698
-0.000339066
-0.00323426
-0.0022969
-0.000437911
0.00311889
0.00351193
0.00531972
0.000123637
0.000390777
-0.00119574
-0.00569541
-0.00465829
0.00332433
0.00610111
-0.00149969
-0.00570325
0.00140627
0.00323615
0.00367344
0.00400632
0.00393812
0.00300539
0.00061972
-0.00125092
-0.00316806
-0.00726497
-0.0111364
-0.00776303
-0.00086586
-0.00742292
-0.00322508
0.00374576
0.00237152
-0.00107889
-0.00231721
-0.0111124
-0.0057789
0.00374783
-0.00313205
-0.00258077
0.00682083
0.00901652
-0.000262594
-0.00436492
0.00133181
0.00339134
0.00367343
0.00428238
0.00396119
0.00230451
-0.00148511
-0.00254559
-0.0060657
-0.00588217
-0.00571492
-0.00282079
-0.0064425
-0.00815377
-0.000523693
-0.000608906
-0.00514867
-0.0153952
-0.01711
-0.0086891
-0.00248627
0.00239504
0.000324788
-0.00143834
0.00346327
0.00949467
0.00438482
-0.00230878
0.00248622
0.00367346
0.00367358
0.00381993
0.00376471
0.00163904
-0.000784549
-0.00232821
-0.00269395
-0.00405694
-0.00474626
-0.00129511
-0.00342922
-0.0023609
-0.00379779
-0.00192802
-0.0182958
-0.0282974
-0.0286313
-0.0170047
-0.00637279
0.00259394
0.00439429
0.00386056
0.00699139
0.00913638
0.00690045
0.000445216
0.00256781
0.00365674
0.00367534
0.00366227
0.00389818
0.00245573
-0.001137
-0.000151179
0.000856206
-0.00157316
-0.000390799
-0.00164315
0.00314446
-0.00216742
-0.00436719
-0.0120061
-0.0286209
-0.0274461
-0.0274065
-0.0205565
-0.00899043
-0.00053285
-0.000267687
-0.00294045
0.00298619
0.00825253
0.00443829
0.00215068
0.00358429
0.00360636
0.0036757
0.00368218
0.00423812
0.00232025
-0.00105954
0.00360521
0.00220647
-0.00316865
-0.0015011
-0.000154747
0.00539846
-0.00707197
-0.00770469
-0.0194552
-0.0271059
-0.0274155
-0.0220963
-0.0131125
-0.0019678
-0.00178044
-0.00101294
-0.00258792
0.00568981
0.00740274
0.00223195
0.0026026
0.00356892
0.0036731
0.00367488
0.00367897
0.00372502
0.00227687
0.000330136
0.0100559
0.0071001
0.0064239
0.00111772
0.00209639
0.00451592
0.00334015
-0.0102902
-0.0226312
-0.0276424
-0.0256451
-0.0214738
-0.0100978
0.00197509
0.00207945
0.00106801
-0.00160916
0.00324115
0.00458881
-3.72678e-05
0.00322816
0.00362514
0.00367402
0.00367473
0.00367448
0.00368365
0.00202004
0.00260688
0.00890648
0.00496678
0.00862571
0.00814513
0.00273377
0.0017809
-0.00037393
-0.00931242
-0.0246434
-0.0285777
-0.0198202
-0.0157174
-0.00935763
-0.00140526
0.00237003
0.00191372
-0.0047104
0.00102857
0.00198941
-0.000246909
0.00163763
0.00322374
0.00367513
0.00367532
0.00367399
0.00344199
0.000631637
0.000188659
0.00450748
0.0106862
0.0134384
0.011464
0.00412132
-0.00368908
-0.00879425
-0.0228069
-0.0291931
-0.0263738
-0.019526
-0.0126976
-0.00903426
0.00306752
0.00470317
-0.00139284
-0.00563927
-0.000602277
0.00432435
-0.000813749
0.000781328
0.0035233
0.0036756
0.00367486
0.00367451
0.00336644
-0.000305049
0.000503978
0.00520838
0.0131921
0.00696725
0.0043666
0.00700793
-0.00356315
-0.0102644
-0.0216518
-0.028038
-0.0224731
-0.0199231
-0.0153491
-0.00758425
-0.000639486
0.00250187
-0.00457752
-0.00763824
0.00257796
0.00297251
-0.00053829
0.00156419
0.00374123
0.00370346
0.00367399
0.00367356
0.00303699
-0.00197018
-0.00260063
0.00898969
0.0121755
0.011897
0.00460881
-0.00148665
-0.00707717
-0.0147843
-0.020449
-0.0270142
-0.0183461
-0.0167009
-0.0153833
-0.00673562
-0.00457159
-0.000155912
-0.00752662
-0.00129389
0.000867262
-0.00136789
0.0016086
0.00220241
0.0036625
0.00359007
0.00367483
0.00367205
0.000801947
-0.0031575
-0.00366372
0.00702798
0.00919638
0.0102918
0.00138259
0.000482739
-0.00840329
-0.010859
-0.0154461
-0.023724
-0.0156881
-0.00974066
-0.00528171
-0.00524847
-0.00636972
-0.00269563
-0.00557833
-0.00135204
-0.00351451
0.000541915
0.000768987
0.00361092
0.0037045
0.00360963
0.0036765
0.00367309
0.00185024
-0.00236425
-0.00121584
0.0039453
0.00459473
0.00549982
-0.00157306
-0.00115534
0.000139006
-0.00557237
-0.00359959
-0.00625738
-0.00485589
-0.000799937
-0.00406454
-0.00494384
-0.00178217
-0.00535873
-0.00500145
9.59891e-05
-0.000227323
0.000222717
0.000218132
0.00444085
0.00411064
0.00367239
0.00367348
0.00367364
0.00274861
0.00082349
0.00100062
0.0051503
0.00371083
0.00599937
0.00279644
0.00211959
0.00498581
0.00155878
-0.00527744
-0.00638584
0.000596207
0.0040952
0.0018737
-0.00450795
-0.00355097
-0.00677031
-0.00109836
0.00118419
-0.000262909
-0.00113225
0.0014991
0.00396125
0.0040574
0.00367566
0.00367309
0.0036747
0.00340399
0.00294203
0.000343771
0.00649056
0.00770155
-0.000103166
0.00202963
0.00616703
0.00674312
0.00303714
0.00743499
0.011348
0.0106314
0.00640321
-0.000986698
-0.00526171
-0.0060558
-0.0018552
0.000849694
0.000458341
0.000215186
-0.000281059
0.00196991
0.00377189
0.0038393
0.00367387
0.00367236
0.00367362
0.00363105
0.00329418
0.00116211
0.0036379
0.003156
0.000401559
-0.000666562
0.000262431
0.00731242
0.0101586
0.0135671
0.00975322
0.00240526
-0.0044641
-0.00874929
-0.00685964
-0.00181586
-0.00165501
-0.00233227
0.000470606
0.00153092
0.00219955
0.0036347
0.00370498
0.0035283
0.00367338
0.00367323
0.00367313
0.00367353
0.00307565
0.00172269
0.00207382
0.00203604
0.00141662
-0.00225181
-0.000532112
-0.000884498
0.00311542
0.00447353
0.00419251
0.000786887
-0.000899839
-0.00199362
-0.00360124
-0.00272163
-0.00195755
-0.00203724
0.000775681
0.00247352
0.00386663
0.00389683
0.00369709
0.00367366
0.0036735
0.00367354
0.00367468
0.00367393
0.00363965
0.00343927
0.00299874
0.00258668
0.00216433
0.000332028
-0.000851363
-0.0040268
-0.00277273
-0.00373553
-0.00447086
-0.00493567
-0.00241336
-0.00220018
-0.00223482
-0.000761861
-0.000109379
0.000381945
0.00143425
0.00281188
0.00354654
0.00360728
0.00367564
0.00367342
0.00367345
0.00367411
0.00367397
0.00367586
0.00368804
0.00384011
0.00353511
0.00331437
0.00228916
0.0018906
0.00179387
0.000535758
0.000455365
0.00054195
-0.000430228
0.000690811
0.00143386
0.00223799
0.00248798
0.00225084
0.00120191
0.0015588
0.00248226
0.00288695
0.00329579
0.00367479
0.00367326
0.00367553
0.00367604
0.00367394
0.00367436
0.00367355
0.00367421
0.00367415
0.00357994
0.00344581
0.00297505
0.00273785
0.00314819
0.0030243
0.00288871
0.00199092
0.00174782
0.00236541
0.00295259
0.00264618
0.00290349
0.0040747
0.00357423
0.00335803
0.00380379
0.00371683
0.00367587
0.00367515
0.00367541
0.00367616
0.00367601
-0.00365494
-0.00365446
-0.00365493
-0.00365434
-0.00365408
-0.00365586
-0.00365451
-0.00365542
-0.00365488
-0.003655
-0.00365527
-0.00365596
-0.00365318
-0.00365335
-0.00365403
-0.00365539
-0.00365743
-0.00365416
-0.00365367
-0.00365567
-0.0036549
-0.00365541
-0.00365331
-0.00365429
-0.00365416
-0.00365729
-0.00365383
-0.0036559
-0.00365363
-0.00365561
-0.00365478
-0.00365465
-0.00365403
-0.00365471
-0.00365473
-0.00368706
-0.00374982
-0.00377113
-0.00365616
-0.00339408
-0.00359201
-0.00346937
-0.00355455
-0.00293553
-0.00145741
-0.00324662
-0.00355173
-0.00359423
-0.00358083
-0.00353804
-0.0035698
-0.00365529
-0.00365336
-0.00365542
-0.00365605
-0.00365494
-0.00365477
-0.00365309
-0.00365479
-0.00365588
-0.0036683
-0.00366013
-0.00366391
-0.00369365
-0.00374045
-0.00348738
-0.00277709
-0.000903483
0.000714456
0.000480076
0.00179829
-5.87684e-05
0.00086979
-0.000452839
-0.00312698
-0.00383778
-0.00321879
-0.00298784
-0.003344
-0.00381712
-0.00373364
-0.00365354
-0.00365429
-0.00365459
-0.00365441
-0.0036547
-0.0036549
-0.00365535
-0.0036597
-0.00342359
-0.003911
-0.00347913
-0.00381256
-0.00191908
0.000582417
0.00352614
0.00055969
-0.00146434
0.000401554
0.00593647
0.00455581
0.00242049
-0.00197539
-0.00141139
0.00038654
-0.00340125
-0.00464569
-0.00484205
-0.0043873
-0.00365566
-0.00365609
-0.00365408
-0.00365383
-0.00365556
-0.00365515
-0.00372783
-0.00421192
-0.00417632
-0.00378481
-0.00330674
-0.00668395
-0.000109505
-0.00467491
-0.00452585
0.000523036
0.00279896
-0.00125071
-0.00429623
-0.00802015
-0.0070188
-0.00881264
-0.0110156
-0.00567891
-0.00351938
-0.00504518
-0.00456556
-0.00543232
-0.00465476
-0.0036532
-0.00365452
-0.0036538
-0.00365433
-0.00353161
-0.00416873
-0.00319052
-0.00429038
-0.00296775
-0.00473953
0.0017785
0.00581525
-0.0026914
0.00230675
0.00365716
0.00508062
0.00604973
0.00189822
-0.00410891
-0.000730613
0.000696187
-0.000364341
-2.67e-05
-0.00105126
-0.00595778
-0.00668549
-0.00358528
-0.00432417
-0.00351925
-0.00364288
-0.0036552
-0.00365481
-0.00356341
-0.00569788
-0.00420274
-0.00529749
-0.00400347
-0.00260245
0.000216033
0.00266987
0.00125182
-0.00340869
-9.59402e-05
-0.00872459
-0.000997905
-0.00159208
-0.00570132
-0.00574723
0.0025569
0.00382636
0.00143116
0.00142921
-0.000210477
-0.00266008
-0.0019155
-0.00366134
-0.00344383
-0.0033517
-0.00363292
-0.00377769
-0.00279839
-0.00669533
-0.00684915
-0.00326135
-0.0013714
0.00437078
0.00265073
5.71608e-05
0.00479953
0.00635767
-0.00354765
-0.00449191
-0.00870479
-0.00144939
0.00471046
-0.000364722
0.00289766
0.0111907
0.00160629
0.00671493
0.00180763
-0.00199493
-0.00207215
-0.0030222
-0.00455887
-0.00362118
-0.00356774
-0.00325762
-0.00239281
-0.00659457
-0.00747335
-0.00288205
0.000268629
0.00416347
0.0068266
0.00108562
0.0023012
0.000991306
0.00140938
0.00650599
0.00330201
0.007416
0.00587998
0.0103097
0.0119443
0.0101275
0.00238425
0.00197078
0.00104179
-0.00343615
-0.00267378
-0.00655424
-0.00526115
-0.00378466
-0.00364045
-0.00335477
-0.00293818
-0.00542618
-0.00548517
-0.000593409
0.00232709
0.00857379
0.0113302
0.0111854
0.00988555
0.0155943
0.0126861
0.0195862
0.0187157
0.0136933
0.00711105
0.00772599
0.0160053
0.0113446
0.000777149
0.000206477
-0.00262396
-0.000795566
-0.00520428
-0.00736415
-0.00490375
-0.00369043
-0.00365514
-0.0033657
-0.00278082
-0.00220231
0.00110573
0.00580591
0.00536012
0.0108583
0.0169311
0.0233823
0.0236627
0.0293381
0.0237948
0.0159535
0.0178658
0.0118045
0.00989489
0.0082892
0.00892407
0.00852386
0.00992369
0.00308405
-0.000218854
4.16979e-05
-0.00385739
-0.00667754
-0.00438812
-0.00365517
-0.00365464
-0.00359756
-0.00252394
4.25728e-05
0.0058839
0.00732343
0.00912159
0.0109918
0.0148925
0.0176968
0.0258556
0.0207024
0.0160511
0.00806735
-0.00162062
-0.00124481
-0.00297138
-0.00214376
0.00461599
0.000560099
0.00469295
0.0101288
0.00390715
0.00468027
0.00147583
-0.00254692
-0.00416784
-0.00363911
-0.00365446
-0.00357575
-0.00302649
-0.00126072
0.00137964
0.00363274
0.0105472
0.0129475
0.0145423
0.0161035
0.0188475
0.0165222
0.00438296
0.000170284
-0.00335443
-0.00737029
-0.0113821
-0.00832661
0.000781771
-0.00314088
0.0129509
0.014373
0.0108965
0.00837599
0.00212747
-0.000298502
-0.00183051
-0.00360464
-0.003657
-0.00329259
-0.0023988
-0.00168947
-0.00314506
0.00208062
0.00952034
0.0114728
0.0120843
0.0154815
0.0153804
0.00933925
-0.00727459
-0.00375876
-0.007045
-0.00901023
-0.00523865
-0.00497937
0.00252618
0.00294491
0.00590737
0.0109516
0.0123423
0.00978347
0.0039542
-0.00153232
-0.00270064
-0.00365513
-0.00365564
-0.00347552
-0.00311767
-0.00160325
-0.00212854
0.00242307
0.00749284
0.0133234
0.0135768
0.00630073
0.000530934
-0.00678406
-0.014486
-0.00984557
-0.00646941
-0.00650425
-0.0046347
0.0050901
0.00521801
-0.0013235
0.00122491
0.00265433
0.00654692
0.00619089
0.00259166
-0.00276678
-0.00320318
-0.00365346
-0.00365397
-0.00364568
-0.00337896
-0.00165585
-0.00074831
0.00469817
0.0124495
0.0193867
0.012897
0.00528357
0.000434232
-0.0129495
-0.0248327
-0.00939221
-0.0103839
-0.0104208
-0.0104118
0.00379715
0.00916534
0.00402342
0.00721496
0.00382981
-0.000257013
0.00457728
0.00195017
0.000131086
-0.00170428
-0.00366336
-0.00365359
-0.00365579
-0.00557324
-0.0041557
-0.000405354
0.00685621
0.0123235
0.0117008
0.0106481
0.0107305
0.00277076
-0.00820654
-0.0163183
-0.0102368
-0.00868023
-0.00688922
-0.00920386
-0.00536182
0.00177497
0.00629329
0.00965114
0.00473768
0.00922314
0.00652478
0.00629289
0.00286307
-0.00124749
-0.00366743
-0.00365426
-0.00365282
-0.00674883
-0.00709136
-0.00342858
0.00548108
0.0188893
0.013646
0.0175261
0.0192191
0.0148714
0.00759608
0.000210385
0.0010145
0.00493249
-0.00936768
-0.0131878
-0.00378612
0.00352581
0.000968787
0.0126335
0.00591703
0.00816687
0.0128844
0.00825432
0.000147836
-0.00181648
-0.00360742
-0.00365492
-0.00365465
-0.00518265
-0.0108737
-0.00738467
0.0042374
0.0107202
0.0160323
0.0182504
0.018064
0.0215051
0.0146886
0.0113161
0.00719664
0.00842263
-0.00142957
-0.00725421
0.00206803
0.00847226
0.00328511
0.00457669
0.00416132
0.0101055
0.0142251
0.00836138
0.000684007
-0.00341772
-0.00372588
-0.00365542
-0.0036577
-0.00457482
-0.0084648
-0.00991376
-0.0048095
-0.00193188
0.000864329
-0.000318132
0.01081
0.0129157
0.0179053
0.00976758
0.0043514
0.00508639
0.00273676
0.00298783
0.00602996
0.0104707
0.00130619
0.00235511
0.00693406
0.00873739
0.00957834
0.00536857
-0.000500845
-0.00353362
-0.00375032
-0.00365375
-0.00365271
-0.00494114
-0.0102028
-0.0086008
-0.010675
-0.00283813
-0.00627309
-0.00925735
-0.0073805
-0.00467308
-0.000475327
0.00563589
0.00853786
0.00650572
0.00779311
0.00652251
0.00496131
0.00471823
0.00909086
0.00835329
0.00837252
0.00690246
0.00731715
0.00401987
-0.00191033
-0.00304872
-0.00365509
-0.00365572
-0.00365499
-0.00417421
-0.0062582
-0.0101446
-0.00761795
-0.00666531
-0.00332868
-0.00642428
-0.00517947
-0.0100706
-0.00698616
-0.00457201
-0.00224173
0.00559014
0.0106623
0.0109996
0.00947832
0.00745028
0.0142992
0.0108387
0.00815507
0.00516936
0.00510072
0.00255036
-0.00210356
-0.00299405
-0.00365495
-0.00365584
-0.00365554
-0.00422274
-0.00508572
-0.00718993
-0.00610734
-0.00277013
1.76574e-05
-0.00474933
-0.00284461
-0.0044777
-0.00623034
-0.000502069
0.00873475
0.0164681
0.0133881
0.0142587
0.0110851
0.0138667
0.00879031
0.00641942
0.0090112
0.00471874
-0.00028348
-0.00175721
-0.00256504
-0.00355797
-0.0036559
-0.0036545
-0.00365509
-0.00386286
-0.00610587
-0.00897395
-0.00815176
-0.00465366
-0.00603092
-0.00427823
-0.00347282
0.000721538
0.00734622
0.0126541
0.0121284
0.0164243
0.0173501
0.0133064
0.00824934
0.00566903
0.00108403
0.00390285
0.00380634
0.00237426
-0.00147386
-0.00287757
-0.00305188
-0.0035825
-0.00365254
-0.00365383
-0.00365626
-0.00365459
-0.00627079
-0.00979155
-0.0106729
-0.00977368
-0.00909308
-0.0102787
0.00133855
0.00623863
0.00222504
0.00132668
0.00653959
0.010757
0.0153915
0.00928447
0.00684589
0.00395819
0.00619388
0.00435492
-0.00126469
-0.00355552
-0.00411992
-0.00274713
-0.00349402
-0.00365417
-0.00365415
-0.00365583
-0.00365582
-0.00365384
-0.00367592
-0.00488719
-0.00628071
-0.00688274
-0.0084938
-0.00812393
-0.00534724
-0.00537044
-0.000549142
-0.00165041
-0.00335276
0.000786044
0.000991728
0.0018801
0.00292744
-5.50651e-05
-0.000453605
-0.00172989
-0.00348205
-0.00453274
-0.00405589
-0.00382062
-0.00365411
-0.0036547
-0.00365529
-0.00365586
-0.00365617
-0.00365538
-0.00369044
-0.00393979
-0.00358061
-0.0023579
-0.00251628
-0.0014526
7.94206e-05
0.00215795
0.00131687
0.00283345
0.00284226
0.00336923
0.00343611
0.00269054
0.0018246
0.000539215
-0.00175767
-0.0042193
-0.00294066
-0.00319372
-0.0033647
-0.00365587
-0.00365521
-0.0036549
-0.00365428
-0.00365476
-0.00365411
-0.00365606
-0.00365441
-0.00365562
-0.00346732
-0.00327648
-0.00285455
-0.00329341
-0.00362383
-0.00337847
-0.0029912
-0.00227963
-0.00190543
-0.00220712
-0.00310831
-0.00338566
-0.00323907
-0.00330565
-0.00338835
-0.00349023
-0.00312404
-0.00332058
-0.00365529
-0.00365527
-0.00365406
-0.00365444
-0.00365628
0.00113011
0.00112791
0.00112817
0.00112639
0.00112864
0.00112762
0.00112816
0.00112731
0.00112896
0.00112883
0.0011276
0.00112752
0.00112903
0.00112674
0.00112885
0.0011294
0.00112796
0.00112775
0.00113228
0.00112835
0.00112604
0.00112738
0.00112817
0.00112877
0.00112875
0.00112789
0.00112859
0.00112943
0.00112591
0.00112774
0.00112582
0.00112794
0.00112898
0.00112876
0.00112893
0.00143884
0.00242603
0.00312029
0.00271618
0.00341424
0.00242949
0.00240057
0.00170523
0.00124229
-0.00205867
0.00184337
0.00206428
0.00182466
0.00192409
0.00136307
0.00121757
0.00113083
0.00112859
0.00112736
0.00112995
0.00112672
0.00112925
0.00112987
0.00112754
0.0011285
0.00115219
0.00114699
0.00120366
0.00147013
0.00324657
0.00592544
0.0051874
0.00438393
-0.00101193
0.00103431
0.00676159
0.00850102
0.0112154
0.0148078
0.0161475
0.0132283
0.00732521
0.00388899
0.00209252
0.000493282
0.000832819
0.00112927
0.00112902
0.00112926
0.00112832
0.001127
0.00112636
0.001129
0.00115283
0.00121928
0.000302904
-0.000453311
0.000100748
-0.00289645
-0.00645599
-0.00796828
-0.00612259
-0.00359035
0.00542446
0.00992403
0.00538127
0.0117993
0.0173749
0.0137961
0.00839239
0.00378206
0.000729112
-0.000618336
3.81192e-05
0.00112614
0.00112821
0.00112703
0.00112843
0.00112627
0.00112802
0.00117533
0.00130722
0.00231486
0.000414007
0.000279834
0.00621297
0.00284738
0.00728666
0.0126222
0.0101751
0.0141912
0.00136463
-0.00255115
-0.00692921
-0.0120465
-0.0115799
-0.003243
-0.0020051
0.00215744
0.00231849
0.000166968
-0.00232622
0.000137423
0.00112669
0.00112907
0.00112843
0.00113025
0.00125405
0.000684073
0.00221227
0.000573835
0.00102037
0.00214373
0.00571783
0.0117054
0.0113668
0.0120974
0.00526785
0.00633174
0.00443592
0.000745054
-0.00572529
-0.00644835
-0.0172755
-0.013836
-0.0100757
-0.00397664
-0.00507515
-0.00180461
-0.00565209
-0.00346354
0.000578183
0.00111358
0.00112662
0.00112937
0.00128342
0.00137707
0.00158727
-0.00182532
0.00127001
0.00159864
0.00983837
0.01104
0.0112149
0.00846972
0.000192195
-0.00406196
-0.0068752
-0.00470604
-0.0112559
-0.00745797
-0.0180897
-0.0155102
-0.0122178
-0.00184763
-0.00226372
0.0014206
-0.00543576
-0.00337182
-0.00215644
0.000474367
0.00116101
0.0014347
0.00129965
-0.000531823
0.00118243
0.00334714
0.00395685
0.00725648
0.0104515
0.0103421
0.00581674
-0.00270478
-0.00986277
-0.00353378
-0.00509374
-0.00515238
0.000235648
-0.000844316
-0.00327697
-0.000159422
0.00286511
0.00525549
-0.000652527
0.0063795
7.75247e-05
-0.00506064
-0.00401067
0.00119628
0.00125861
0.00202142
0.00203281
0.00266429
0.00282185
0.00356338
0.00414738
0.00106427
0.0084443
0.00428155
-0.000848202
0.00322794
0.000978462
-0.00115019
0.00113238
-0.0040838
-0.00280596
-0.00750154
0.00489843
0.00355487
0.00598673
0.00257545
-0.00156247
0.00220018
0.00191907
-0.00674125
-0.00223336
0.00116992
0.00114793
0.00103587
0.00231832
0.00127829
0.00400372
0.00374624
0.00311352
-0.00541445
-0.00135611
0.0026425
0.00584093
0.00723183
0.00192187
0.00495558
-0.00313376
-0.011181
-0.00184268
0.00266421
0.0109054
0.0178311
0.00305315
0.00200296
-0.000691157
-0.0026308
-0.00485593
-0.00405618
-0.000591803
0.00104633
0.00112844
0.00125347
1.75131e-05
-0.00266252
-0.00258581
0.00355587
0.000435511
-0.006028
-0.00101233
0.00561545
0.00877992
0.00195371
0.00718276
0.00131302
-0.00330271
-0.0231531
-0.00599711
0.00976343
0.0133422
0.0125596
0.000494933
-0.00618954
-0.00688673
-0.0085345
-0.00786621
-0.00349627
-3.31548e-05
0.00113007
0.0011282
0.000884549
-0.000502523
-0.00560121
-0.0055465
0.00492297
0.00645083
-0.00200865
0.0027326
0.00417785
0.00836438
0.00723778
0.00158922
0.0121297
-0.0190228
-0.0324217
-0.0124774
0.00947562
0.0142371
0.0101806
0.00437224
-0.000912043
-0.00203048
-0.000401021
-0.000972425
-0.00366301
0.000397925
0.00111904
0.0011279
0.00144287
-0.000422366
-0.00579142
-0.00434451
0.00879589
0.0117549
0.00798077
0.00789706
0.00649001
0.0019594
0.0112082
0.00444444
-0.000228535
-0.0231221
-0.0141241
-0.00881112
0.0102478
0.0158263
0.00660222
0.0021999
-0.00386076
0.00119041
0.00168388
0.000962923
-0.00398607
0.000123046
0.00109486
0.00112795
0.00243323
0.000677711
-0.00422864
-0.0047566
0.00793888
0.00351979
-0.000655014
0.00488978
0.00260717
-0.00243421
0.00929095
0.00479391
-0.018548
-0.0214064
-0.0150604
-0.00541983
0.0109337
0.0122083
0.0034618
-0.00517786
-0.00198995
-0.000470727
0.00218772
0.000187831
-0.00105845
0.000472621
0.00112806
0.00112831
0.00177638
0.00220857
-0.000618369
-0.000993428
0.0110843
0.00245322
0.00247053
-0.000639555
-0.00284411
0.00566814
0.014019
-0.000823209
-0.0236257
-0.0159381
-0.0165882
0.00466942
0.0180568
0.0101706
0.0040873
-0.00111661
-0.00601072
-0.000809212
-0.00304446
-0.000913964
1.81741e-05
0.000601039
0.00112595
0.00112843
0.0011594
0.00211558
0.0005515
0.00118537
0.00330759
-0.00050083
0.00440589
0.00652531
0.000559259
0.00877014
0.007367
-0.00159251
-0.00599286
-0.0164726
-0.00471155
0.00648624
0.0168549
0.0122559
0.00237026
-0.000419814
-0.00563954
-0.00721649
-0.0020997
-0.000354722
-0.00303986
-0.00356077
0.00112807
0.00112841
0.0011276
0.000632486
-0.00228257
-0.00444704
0.000612125
0.00395029
0.00827609
0.00808191
0.00401768
0.000843316
0.00954692
-0.00952297
-0.0134713
-0.0190715
-0.00450936
0.0125327
0.00751615
0.00743752
-0.00364856
-0.000400314
-0.00302786
-0.00658906
-0.000285666
-0.00555005
-0.00890755
-0.00255385
0.00112532
0.00112864
0.00112647
8.52702e-05
-0.003424
-0.00545762
0.00173896
0.00621656
-0.000481515
0.00253687
-0.00596182
-0.00132419
0.00840026
-0.00594953
-0.017454
-0.00276815
-0.00258223
0.0112835
0.0125281
0.000731598
-0.00342855
0.00363753
-0.00943328
-0.00461744
-0.000861167
-0.00980999
-0.00909792
-0.00322403
0.000478232
0.0011275
0.00112756
-0.000266926
-0.00532433
-0.0038894
0.00640469
-0.00380276
-0.00191296
-0.000286341
-0.00284255
0.00253261
0.00100112
-0.0123585
-0.0161286
-0.0047902
0.00550572
0.0136087
0.00580084
0.00139365
-0.003896
-0.00159189
-0.000248464
0.000351918
0.00188415
-0.00869203
-0.00523409
-0.000286994
0.00114274
0.00112659
0.00112863
0.00109241
-0.00192984
-0.00288606
0.000723868
-0.000573431
-0.00344487
-0.00983592
-0.00580872
-0.00443003
-0.00466633
-0.0112999
-0.0140972
-0.00667837
0.00619797
0.0109104
0.00556413
0.00550703
0.00229806
0.000933587
0.00690016
0.00725863
0.00954469
-0.00324327
-0.00212048
0.00078336
0.00126475
0.00112479
0.00112762
0.0014267
-0.00163062
-0.00291114
-0.000499807
-0.00178006
0.00279183
-0.00228975
-0.0104632
-0.00819811
-0.0101874
-0.00250439
-0.00377798
0.000898668
0.00219145
-0.000879031
0.000362392
0.00333623
0.00314075
0.00275873
0.00894984
0.00883239
0.00122277
0.0017223
0.00141729
0.000143053
0.00112791
0.0011288
0.00112734
0.00120996
0.00151632
0.000639353
0.00551867
0.00909716
0.0106294
0.00950661
-0.0116171
-0.00831397
-0.013325
-0.00477824
-0.00441976
0.00188011
0.00456078
0.00276031
0.00684574
0.0118479
0.000615196
0.00181972
0.00053165
0.00647951
-0.000849659
0.00419172
0.00397291
0.00146152
0.00112719
0.00112877
0.00112602
0.00125907
0.00204607
0.000825021
0.00663093
0.00992458
-0.000206557
-0.00925381
-0.015745
-0.0052805
-0.00687675
-0.00456042
-0.00061543
-0.0065815
-0.00909667
-0.00387893
0.0029098
0.00246852
0.00825434
0.000783211
0.00059078
0.00519989
0.000789236
0.00243292
0.00282855
0.00118735
0.0011294
0.00112662
0.00112811
0.00114397
-0.000778914
-0.0054016
-0.000375474
-0.000640242
-0.00761731
0.000966442
-0.00326877
-0.00338037
0.00263404
0.0125273
0.00681806
-0.00388001
0.00192767
0.000582931
0.00440547
0.00735525
0.00410433
0.00878587
0.0087278
0.00490517
0.00132001
0.000783277
0.000986937
0.000640388
0.00112684
0.00112458
0.00112909
0.00112841
-0.000870204
-0.00524754
-0.00386977
-0.00381255
-0.00791878
-0.0067526
0.00201928
0.00395665
0.00215615
0.00530242
0.000176237
0.00251785
0.0044956
0.0074103
0.00514251
0.00604819
0.00447414
0.00811605
0.00716146
0.00660771
0.0031398
0.000840959
0.000965355
0.0011302
0.00113075
0.00112854
0.00112991
0.0011282
0.00108789
-0.000430191
-0.00259526
-0.00308974
-0.00677099
-0.00362825
-0.00139823
0.00161831
0.00245639
0.000401083
-0.00221596
0.00184053
-0.00205099
-0.00237638
0.000566719
-0.00285874
0.00165582
0.00611155
0.00354321
0.00478096
0.00126548
0.0010948
0.00112843
0.00112874
0.00112948
0.00112798
0.00112782
0.00112933
0.00101724
9.88724e-05
-0.00105025
0.00088287
-0.00186743
-0.00367765
-0.00175356
-0.00190446
-0.00327647
-0.00539705
-0.00598047
-0.00106304
0.000243792
-0.000364193
0.000563042
0.00132479
-0.000254029
0.000376868
-0.00131433
0.000311473
0.00121386
0.00112762
0.00112839
0.00112719
0.00112876
0.00113027
0.00112693
0.00112618
0.00112686
0.00112732
0.000518131
-0.000227073
-0.00106352
-0.000524047
0.000296839
0.000331619
-0.000396721
-0.00302198
-0.00222873
2.5382e-05
0.00026282
-0.00115921
-0.00177491
0.000219456
0.0009096
0.000931092
-0.000452271
7.7535e-05
0.00112698
0.00112937
0.00112907
0.00112777
0.00112664
0.00135627
0.00135575
0.00135664
0.00135633
0.00135577
0.00135598
0.00135582
0.00135604
0.00135871
0.00135743
0.00135705
0.00135574
0.0013566
0.0013573
0.00135624
0.0013584
0.00135474
0.00135547
0.00135736
0.00135642
0.00135734
0.00135733
0.00135599
0.00135775
0.00135722
0.00135888
0.00135602
0.00135591
0.00135618
0.00135545
0.00135722
0.00135784
0.00135661
0.00135756
0.00135683
0.000948672
-0.000438076
-0.00148404
-0.000563254
0.000469912
0.000713989
0.000188697
0.000618666
0.00110817
0.003342
0.00110296
0.00104052
0.00066965
0.000336232
0.00103197
0.00123465
0.001355
0.00135753
0.00135609
0.00135626
0.00135709
0.00135701
0.00135518
0.00135599
0.00135649
0.00138405
0.00135347
0.00133049
0.00105462
-0.00161834
-0.00667531
-0.00462466
0.000407929
0.00334771
-0.00248359
-0.00403362
-0.000306174
-0.00569936
-0.00442801
-0.00628564
-0.00674138
0.000543461
0.00292627
0.00230405
0.00171561
0.00151513
0.00135527
0.00135751
0.00135672
0.00135797
0.00135726
0.00135775
0.00135645
0.00135752
0.00174078
0.00308274
0.00419057
0.00060189
0.0045554
0.00959529
0.0145649
0.00653057
0.00411149
-0.00519083
-0.00865113
-0.00327483
0.00175222
-0.00164319
-0.00266012
-0.00155082
0.00218885
0.00441211
0.0017037
0.00173872
0.00135718
0.00135713
0.00135578
0.00135666
0.00135737
0.00135565
0.00127465
0.00108482
0.000520435
0.0032829
0.00728158
-0.000423902
0.0111843
0.0103552
0.00429272
0.00111846
-0.00583507
0.000644906
-0.00101344
0.0043639
0.00310186
0.00404276
-0.00230816
-0.00371775
-0.00626272
-0.00918228
-0.00397652
0.00101552
0.000321376
0.00135772
0.00135564
0.00135781
0.00135698
0.00123377
0.00170243
0.00188915
0.00135428
0.00706955
0.00342827
-0.00124308
0.00638337
0.00690336
0.00637484
0.00407766
-0.0129306
-0.00445376
0.00530118
0.00267322
-0.0105728
-0.00459015
0.00191741
-0.00158859
-0.00702009
-0.00676188
0.000808856
-0.000418985
0.00058511
0.00164396
0.00133878
0.00135745
0.00135757
0.00123352
0.0028229
0.00380838
0.00532165
0.00574178
0.00983956
0.00249551
-0.00475708
-0.000450242
-0.0091652
-0.0123214
-0.0106351
-0.0146262
-0.0101597
-0.00582287
-0.00108911
-0.00720619
0.000903421
-0.00270567
0.00147797
0.00256922
0.00554611
-0.00214097
0.00246579
0.00411235
0.0036376
0.00130426
0.0011675
0.00107659
0.00643388
0.00936442
0.00691096
0.00156288
0.00896978
0.00512326
-0.00500909
-0.00678596
-0.0063609
-0.0144855
-0.0168267
-0.0156679
-0.00549278
-0.00373248
-0.00357052
-0.00309141
0.0112054
-0.00463435
-0.00229691
-0.00280553
-0.000952314
-0.00683108
0.00286573
0.0120136
0.00309262
0.00114271
0.000324367
-0.000393942
0.0041304
0.00718364
0.00363702
-0.000524825
0.00979002
-0.00480546
-0.00414371
0.00898489
-0.00883859
-0.020187
-0.0210281
-0.0206771
-0.0158459
0.00272633
0.00713222
-0.00130853
0.00654443
-0.00289997
-0.00877377
0.000834553
-0.00599806
-0.0134879
-0.00448123
0.00544836
0.00326065
0.00132121
0.00170998
-0.000424343
0.003212
0.000182905
-0.00117338
-0.00257598
0.00200434
-0.00369955
-0.00505958
-0.000552695
-0.0149897
-0.0238127
-0.0213607
-0.00431918
0.0081475
0.0289715
0.0266555
-0.00182865
-0.00154667
0.0077163
-0.00703283
7.7584e-05
-0.0006421
-0.018113
-0.0119049
-0.00134727
0.00111881
0.00135747
0.00333399
0.00216182
-0.000411729
0.000221266
0.00269567
-0.00177332
-0.00152009
-0.0070426
-0.00982807
-0.00799428
-0.0182942
-0.0296943
-0.0258844
0.0037469
0.0326934
0.0575029
0.0314851
0.0053366
0.00274022
0.00270046
0.00236165
-0.00752363
-0.00578188
-0.00808445
-0.0111465
-0.00107342
0.00135672
0.00135658
0.00212808
0.00246572
-0.000686229
0.00159761
0.00330381
-0.00768787
-0.00225604
-0.01505
-0.00555737
-0.0113972
-0.0222105
-0.00263185
0.0123107
0.0302362
0.0456329
0.0366942
0.00935312
0.0157525
0.0100089
0.00955953
-0.00593494
-0.0158627
-0.0142215
0.00137719
0.000301097
-0.000955941
0.00134468
0.00135495
0.0011827
0.00321241
0.00167943
0.00109405
-0.00315862
-0.0168077
-0.0185957
-0.00833171
-0.00398858
-0.0145032
-0.0178631
0.0116016
0.0231457
0.0277168
0.0349938
0.0261544
0.0112781
0.013279
0.0153123
-0.00660654
-0.00812673
-0.0279291
-0.017109
-0.00806488
0.00370665
0.00288457
0.00131797
0.00135678
0.00057055
0.00275648
0.00444897
-0.00274642
-0.0137065
-0.0143386
-0.00577873
0.00709469
0.00142757
-0.016344
-0.0152945
0.0259601
0.0338553
0.0300935
0.0210231
0.0307628
0.0231328
0.0303464
0.014697
-0.0041458
-0.0227667
-0.0140442
-0.0206821
-0.0166406
1.11845e-05
0.00229837
0.00135524
0.00135562
0.000965193
0.000795698
0.00204364
-0.00282531
-0.0184075
-0.0164607
0.00210608
-0.000888486
-0.015437
-0.0126598
0.0149214
0.032283
0.0385046
0.0293994
0.0165959
0.0160153
0.0236679
0.0307355
0.0196866
-0.0040354
-0.0172154
-0.0197395
-0.0201932
-0.0194255
-0.00361283
0.00250344
0.00135852
0.00135657
0.00133872
0.000760212
0.000703392
0.000903755
-0.00948082
-0.0166673
-0.0140347
-0.0172025
-0.020008
-0.0112472
0.032803
0.0453598
0.0343097
0.020912
0.013782
0.0223429
0.0179139
0.0178086
0.0140837
-0.00684975
-0.0160154
-0.00943365
-0.0192855
-0.0119965
0.00220285
0.00728702
0.00133805
0.00135635
0.00135696
0.00191868
0.00276404
0.00492789
-0.00822895
-0.0130558
-0.0128408
-0.0136694
-0.0167197
-0.00699134
0.0187943
0.0353748
0.0319706
0.024332
0.0147264
0.0309442
0.01958
0.00460168
-0.00157132
-0.00781401
-0.016802
-0.0142797
-0.0127486
-0.00204482
0.0117346
0.00773687
0.00132051
0.0013565
0.00135491
0.00274486
0.00328285
0.00973576
-0.0103742
-0.0159708
-0.0204961
-0.0216944
-0.00352636
-0.00376844
0.000450436
0.029547
0.0222837
0.0128778
0.0134973
0.0122142
0.0102174
-0.0100667
-0.0157261
-0.0193748
-0.00618769
-0.000611992
-0.000926392
0.0107162
0.0133236
0.00986414
0.00262329
0.00135622
0.00135614
0.00185389
0.0055096
0.00791869
-0.00508453
-0.0125718
-0.0138539
-0.0230685
-0.0109149
-0.00951772
0.00161421
0.0279061
0.0118367
0.0125089
0.0117803
0.00443602
-0.00849554
-0.0190169
-0.00702835
-0.0156733
0.00168541
0.00849286
0.0017694
0.0161834
0.0101932
0.00324842
0.00136654
0.00135765
0.00135593
-0.00324234
-5.75705e-05
0.0109288
0.010888
-0.00790079
-0.00862744
0.000191971
0.00459147
-0.0118028
0.00958249
0.0158269
-0.0125758
-0.00107993
-0.0130544
-0.0114964
-0.0166121
-0.0279402
-0.00979189
-0.0120734
-0.000405632
0.00417405
-0.00243547
0.00559041
0.00692495
0.00187871
0.00107292
0.00135659
0.00135637
-0.0010365
-0.00150905
0.0159899
0.0158822
0.00331637
-0.0100443
-0.0038549
0.00601206
0.00559235
-0.000938413
0.000110652
-0.0187808
-0.0156126
-0.0190698
-0.0164696
-0.00826052
-0.000207828
0.00141202
0.00474365
0.00177387
-0.0020027
-0.00075683
-0.000577426
0.0034576
0.00354112
0.00135616
0.00135701
0.00135555
0.000702784
0.000932953
0.00895639
0.00655557
0.00642391
0.0031357
-0.00833976
-0.0113215
-0.0103593
-0.00841447
0.00076734
-0.00816428
-0.0194991
-0.0222277
-0.010976
-0.00649823
-0.000340911
0.00455681
0.00302182
0.000569036
-0.00265412
-0.00193841
-0.00647687
-0.00248642
0.00140815
0.00135606
0.0013563
0.00135487
0.001008
0.00152212
0.000872815
0.00504058
0.00824828
-0.0014666
0.00395583
-0.00719879
-0.0110312
-0.0112079
-0.00134168
0.000664396
-0.0087744
-0.00888794
-0.00233147
-0.00561039
-0.00667931
-0.00564557
-0.00457462
-0.00291886
-0.00071259
-0.00561124
-0.0040825
-0.000540027
0.00132803
0.00135671
0.00135499
0.00135769
0.00126012
0.00249814
0.00225176
0.00152995
0.00108745
0.00356488
-0.00671531
-0.0123499
-0.00617232
-0.00447627
0.00154115
0.010026
0.0039781
-0.0040428
-0.00661759
-0.0132976
-0.00170358
-0.00505455
-0.0156876
-0.00362451
-0.000384032
0.00257777
0.00263588
0.00174388
0.00137667
0.00135642
0.00135877
0.00135596
0.00135764
0.00111184
0.000747059
-0.000798842
0.00570362
0.0122156
0.00877319
0.00170815
-0.00415767
-0.00332568
-0.00514814
0.0115399
0.00617292
0.00856122
0.0109106
-0.00310214
-0.0030316
-0.00373505
-0.00411394
-0.00122819
-0.00164058
0.00435594
0.00368851
0.00175784
0.00135809
0.00135728
0.00135565
0.00135652
0.00135684
0.00133434
0.0018707
0.00235859
0.00250707
0.00254177
-0.00136786
-0.0073608
-0.00435863
0.000596709
0.00527364
0.00647502
0.00318321
0.00970587
0.0162718
0.0142219
0.0231401
0.0129964
0.00815785
0.00532985
0.00143934
0.00153958
0.00121139
0.00135547
0.00135808
0.00135774
0.00135747
0.00135611
0.0013576
0.00147961
0.00242559
0.00230496
0.00217448
0.00210068
0.00428014
0.00504898
0.00216746
0.00395128
0.0058104
0.00388366
0.00683091
0.00663142
0.0082638
0.0109479
0.00819179
0.00271453
0.00380081
0.00445504
0.00199364
0.00133714
0.00135587
0.00135451
0.00135766
0.00135588
0.00135681
0.00135766
0.00135507
0.00135631
0.00135645
0.00160178
0.00176938
0.00175954
0.0017213
0.00146624
0.000394726
2.30023e-06
0.00135974
0.000387895
0.000393001
0.00237691
0.00163662
0.0027317
0.004885
0.00258712
0.00126482
0.00263038
0.0021129
0.0013554
0.00135506
0.00135778
0.0013571
0.00135596
-0.00836504
-0.00836603
-0.00836633
-0.00836276
-0.00836828
-0.00836559
-0.00836626
-0.00836603
-0.00836555
-0.00836407
-0.00836655
-0.00836857
-0.00836629
-0.0083664
-0.0083653
-0.00836533
-0.00836603
-0.00836563
-0.00836547
-0.00836594
-0.00836609
-0.00836668
-0.00836428
-0.00836365
-0.00836568
-0.00836675
-0.0083666
-0.00836818
-0.00836579
-0.00836694
-0.00836517
-0.00836583
-0.00836657
-0.00836459
-0.00836503
-0.00837355
-0.00840446
-0.00843115
-0.0084382
-0.00849301
-0.00840914
-0.00832784
-0.00845027
-0.00826211
-0.0055109
-0.00776499
-0.00842667
-0.00843795
-0.00852116
-0.0083007
-0.0082936
-0.00836728
-0.00836554
-0.00836772
-0.00836748
-0.00836643
-0.00836708
-0.00836515
-0.00836575
-0.00836571
-0.00836958
-0.00836713
-0.00837151
-0.00834565
-0.00834532
-0.00875432
-0.00792039
-0.00664719
-0.00300758
-0.00342796
-0.00295042
-0.00437285
-0.00176394
-0.00242196
-0.00713835
-0.00765055
-0.00907702
-0.00912848
-0.00859203
-0.00780812
-0.00811335
-0.00836586
-0.00836722
-0.00836735
-0.00836709
-0.00836624
-0.00836688
-0.00836674
-0.00836725
-0.00829335
-0.00794224
-0.00701143
-0.00454056
-0.00133283
0.000211169
0.00180792
0.00202485
0.00167318
0.00367495
0.00184089
0.00777869
0.00663676
-0.00022362
-0.000242593
-0.00387133
-0.00744847
-0.00886744
-0.00920688
-0.00916188
-0.00836679
-0.00836523
-0.00836471
-0.00836581
-0.00836568
-0.0083642
-0.008474
-0.00917127
-0.00838852
-0.00664021
-0.00558462
-0.00484256
0.00448192
0.00941416
0.00617996
-0.000435146
-0.00200416
-0.00450577
-0.00933558
-0.00441866
-0.00293826
-0.00793677
-0.00473239
-0.00462211
-0.0123595
-0.0132224
-0.010095
-0.00886087
-0.00861917
-0.00836662
-0.00836671
-0.00836477
-0.00836466
-0.00850799
-0.0086399
-0.0082904
-0.00501458
-0.000816446
0.00100839
0.00858273
0.0166422
0.0257704
0.0134951
0.00188761
-0.00818047
-0.0184024
-0.0186889
-0.0137537
-0.0160197
-0.0137246
-0.0177473
-0.0107308
-0.0113599
-0.0115135
-0.0108267
-0.00745902
-0.00618448
-0.00782112
-0.00837607
-0.00836641
-0.00836536
-0.00839384
-0.00880677
-0.0077806
-0.00312293
0.00371402
0.0123516
0.0199351
0.0166795
0.0138539
0.0033419
-0.00301767
-0.0113958
-0.00564452
0.00543394
0.0137332
-0.0077711
-0.00950002
-0.00947458
-0.00411567
-0.00556745
-0.00454286
-0.00809002
-0.00760569
-0.00904839
-0.00712168
-0.00773869
-0.00836309
-0.00805789
-0.00843752
-0.0078254
-0.0057762
-0.00161743
0.00551998
0.0113041
0.0110992
0.0106922
0.0177484
0.00866843
0.00206535
0.000695017
0.0115117
0.0205583
0.0193836
0.00721517
-0.00365645
-0.00414568
-0.00181275
-0.00455877
-0.011967
-0.0194609
-0.0137683
-0.0102916
-0.0047166
-0.00728701
-0.00835504
-0.00839007
-0.00858904
-0.00831155
-0.00337418
0.00363964
0.00849096
0.0143983
0.0129025
0.0154073
0.0124706
-0.006855
-0.00229408
0.0104888
0.00381019
0.00396999
0.00757929
0.00139288
-0.0144045
0.00316297
0.00217107
-0.00535677
-0.0089551
-0.0217902
-0.0236399
-0.0131445
-0.00909698
-0.00940491
-0.0083637
-0.00765547
-0.00821925
-0.00816043
-0.00369184
0.00234701
0.00910433
0.0185503
0.0192794
0.0111102
0.00237401
-0.0165963
-0.00233775
-0.00240211
-0.0201284
-0.00910268
-0.00398672
-0.00598341
-0.00610953
0.00856542
0.0035657
-0.0138459
-0.0160257
-0.0262074
-0.0261024
-0.0193472
-0.0107372
-0.00861314
-0.00836555
-0.00821124
-0.00725394
-0.00551616
-0.000838036
0.000683506
0.00438349
0.0140716
0.0170093
0.0174341
0.00342635
-0.00234973
-0.00671337
-0.0196444
-0.0361582
-0.0273597
-0.0195344
0.00231413
0.00342921
0.0132235
0.00914421
-0.00496381
-0.0118926
-0.00757047
-0.0104696
-0.0165186
-0.00945732
-0.00836602
-0.00836722
-0.00784711
-0.00653153
-0.00301749
0.00256036
-7.23203e-05
0.00426674
0.0104285
0.0192313
0.022688
0.00591572
-0.00134869
-0.00557969
-0.0303183
-0.0387985
-0.0365368
-0.0151696
-0.000170223
0.00700303
0.0165092
0.0131743
0.0098783
0.00207592
0.00313625
-0.0044688
-0.0102478
-0.00937404
-0.00841525
-0.00836668
-0.00807403
-0.00656111
-0.00391335
-0.00267462
-0.00337295
0.00317699
0.0108118
0.0213241
0.0177217
0.0166678
0.00990356
0.0159974
-0.00564644
-0.0338487
-0.0329706
-0.00810424
0.000245459
0.00300544
0.00589849
0.00848379
0.0122379
0.00939922
0.00882718
0.00143042
-0.00470539
-0.00793919
-0.00853395
-0.00836719
-0.00857112
-0.00702653
-0.00636599
-0.00489245
-0.00175756
0.00735779
0.0156898
0.01625
0.0138481
0.0291857
0.0168942
0.0143995
-0.000193799
-0.0241386
-0.0170676
0.00793968
0.0197404
0.0184475
0.0144404
0.0205904
0.0125152
0.0186269
0.0182438
0.00551378
-0.00498026
-0.00801786
-0.00836625
-0.00836633
-0.00849373
-0.00844728
-0.00781121
-0.0061533
0.00347424
0.0146097
0.0191891
0.015996
0.00765396
0.0211626
0.0189688
0.00746823
-0.0106415
-0.0230334
-0.00199094
0.00973958
0.0215362
0.0281972
0.0205244
0.016894
0.0158275
0.0157605
0.0163775
-1.27782e-05
-0.00588165
-0.00839817
-0.0083678
-0.00836657
-0.00837016
-0.00855814
-0.00902108
-0.00782926
0.00301001
0.016586
0.0261468
0.0198428
0.00414541
0.00100492
0.0118653
0.005316
-0.0265289
-0.0191029
0.00301928
0.0250762
0.0227423
0.019307
0.00947447
0.00805686
0.00841383
0.00952602
0.010544
-0.0044841
-0.00681614
-0.00727645
-0.00835689
-0.00836603
-0.00836609
-0.00906174
-0.0102247
-0.0123851
-0.00544539
0.00698317
0.0196075
0.019757
0.0103541
0.0106299
0.0150694
0.0123644
-0.0101344
-0.00586801
0.00826738
0.0165528
0.0167585
0.0149563
0.0149789
0.00559612
0.00176423
0.0114738
0.0105852
-0.000459283
-0.00416997
-0.00712197
-0.0083524
-0.00836548
-0.00836514
-0.00912988
-0.0106621
-0.0125504
-0.0104845
-0.00537029
0.000395689
0.00312252
0.0122742
0.0067476
0.0179822
0.0106824
-8.74863e-05
-0.00400883
0.00534093
0.013225
-4.14556e-05
0.00622901
0.0125153
0.00665677
0.006318
0.01479
0.015644
0.00430329
-0.000429153
-0.00588384
-0.00784052
-0.00836761
-0.0083657
-0.0081858
-0.00797255
-0.00920708
-0.00955989
-0.00877265
-0.00418488
0.00298977
0.00119881
0.00399767
0.00128995
0.0081147
-0.00656874
0.00118571
0.00353694
0.00407135
0.0083395
0.00424424
0.0069274
0.000816415
0.00909733
0.0151043
0.00936234
0.00572935
-0.00334848
-0.00772774
-0.00905774
-0.00836634
-0.00836544
-0.0116549
-0.0062366
-0.00531451
-0.0065604
-0.0115323
-0.000359911
0.00256212
-0.00571692
-0.0122524
-0.00907864
-0.00559969
-0.0108621
-0.000679264
0.00474893
0.0124401
0.0106031
0.00074531
-0.000893913
0.00341671
0.0098809
0.0101727
0.00463884
0.00214281
-0.00476353
-0.00810457
-0.00887413
-0.00836446
-0.00836718
-0.0095754
-0.00669394
-0.00110739
-0.00554058
-0.00403017
-0.00605352
-0.00898594
-0.0140093
-0.0191144
-0.016798
-0.00180509
0.0164504
0.013746
0.021864
0.0176067
0.0112702
0.0101167
0.0169306
0.0216059
0.0151749
0.00585838
0.00456636
-0.00192821
-0.00600877
-0.00724854
-0.00836714
-0.00836455
-0.00836457
-0.00810556
-0.00559444
-0.000720892
0.00125561
-0.00506804
-0.00117726
-0.0121418
-0.00480712
-0.0111668
-0.00681006
0.00379607
0.0048029
0.00589426
-0.000334783
0.00439929
-0.00450111
0.0161369
0.0244013
0.0224542
0.0137471
0.00268834
0.00137043
-0.0034661
-0.00698458
-0.00823612
-0.00836752
-0.00836609
-0.00836545
-0.00818107
-0.00644259
-0.00500291
-0.00354721
-0.00569206
0.0023819
0.012214
0.0145571
-0.000435976
-0.00283328
-0.000500697
-0.00831137
-0.00539763
0.00494784
-0.00476499
-0.00248919
0.0144438
0.0101493
0.0103309
0.00876521
-0.000114928
-0.00412244
-0.0075273
-0.00771959
-0.00827745
-0.00836624
-0.00836659
-0.00836498
-0.00838765
-0.00559371
-0.00395789
-0.00641763
-0.000621942
0.00615787
0.00426871
0.00584515
0.00144189
3.74024e-05
-0.00473451
-0.0112996
-0.00980197
-0.0174539
-0.0179098
-0.00793231
0.0011456
0.000533071
-0.00465931
-0.00367956
-0.00363095
-0.00571071
-0.00723791
-0.00792388
-0.00828435
-0.00836636
-0.00836557
-0.00836617
-0.00836693
-0.00681643
-0.00404336
-0.00454585
-0.00251232
0.0100628
0.0099333
0.00678677
0.0111101
0.023671
0.0140911
0.01068
0.0103999
0.00771079
-0.00360787
-0.00630182
-0.00782085
-0.00674454
-0.0106157
-0.0100887
-0.00959562
-0.00835689
-0.00745315
-0.00824742
-0.00836438
-0.0083679
-0.00836661
-0.0083661
-0.00836711
-0.00832843
-0.00685914
-0.00551538
-0.00374923
0.00309059
0.00583605
0.00980222
0.00992236
0.0076871
0.00292959
0.00613025
0.0106916
0.0035726
-0.00473262
-0.0138401
-0.012228
-0.0127327
-0.013587
-0.0125736
-0.0103041
-0.00590324
-0.00792003
-0.00836614
-0.00836636
-0.00836554
-0.00836562
-0.00836347
-0.0083652
-0.00832884
-0.00755488
-0.00507387
-0.00586561
-0.00595435
-0.00460773
-0.00625402
-0.00366891
-0.00116151
9.81335e-05
-0.00309708
-0.00827211
-0.00758408
-0.00616709
-0.00811842
-0.00931094
-0.00887323
-0.0100992
-0.00905375
-0.008868
-0.00851403
-0.00836635
-0.00836487
-0.00836674
-0.00836714
-0.00836657
-0.0083641
-0.00836703
-0.00836703
-0.00836636
-0.00798186
-0.00742711
-0.00710115
-0.00791571
-0.00809869
-0.00726416
-0.00642672
-0.00549513
-0.00634169
-0.00804057
-0.00815533
-0.00662317
-0.00659289
-0.00697363
-0.00801725
-0.00850081
-0.00788482
-0.00805752
-0.00836476
-0.00836608
-0.00836526
-0.00836563
-0.00836807
0.000136139
0.000135176
0.00013377
0.000135007
0.000135872
0.000133885
0.000136166
0.000135321
0.000135579
0.000135969
0.000135685
0.000136278
0.000136082
0.000135773
0.000134396
0.000134723
0.000135229
0.00013451
0.00013452
0.000134893
0.000134672
0.000136306
0.000134247
0.000134893
0.000134859
0.000134597
0.000134651
0.00013613
0.000134616
0.000135506
0.000134467
0.00013456
0.000134266
0.000136085
0.000133241
0.000251686
0.000747636
0.00117925
0.000982278
0.000956014
0.000536376
0.000435819
0.000884383
0.000440627
-0.00230731
0.000200003
0.000498024
0.000391562
0.000517221
0.000192917
0.00011464
0.000135312
0.00013637
0.000134812
0.000139017
0.00013461
0.000136234
0.000135588
0.000137237
0.00013505
0.000133697
0.000137499
0.000148154
0.0001873
0.00103816
0.00425302
0.0019499
-0.000879815
-0.00376385
-0.00265652
0.000885126
0.00392802
0.00641631
0.00864583
0.00989809
0.00739336
0.00406774
0.00189927
0.000776373
-7.01539e-05
4.17611e-05
0.000135804
0.000133768
0.000134861
0.000134873
0.000136172
0.000135195
0.000135611
0.000139318
-0.000263179
-0.000954716
-0.00153067
3.4295e-05
-0.000944138
-0.00449718
-0.00754141
-0.0055264
-0.00350245
-0.00280654
-0.00178457
0.0030622
0.00748376
0.0145497
0.0120144
0.00713873
0.00520992
0.00273152
8.38452e-05
-0.000486957
0.00013513
0.000137044
0.000135631
0.000135466
0.00013393
0.000136228
0.000210257
0.000667623
0.00109009
-0.000173799
-0.000353984
0.00324145
-0.000893973
-0.00160803
-0.00412149
-0.00769135
-0.00821136
-0.00946093
-0.0104115
-0.0122482
-0.0123313
-0.0105979
-0.00347916
-0.00223323
-0.00117338
0.00266801
0.000291994
-0.00222637
0.000258572
0.000135769
0.000134176
0.000135872
0.000133906
0.000207742
0.000325713
0.00145764
0.00284179
0.001787
0.00251763
0.000115536
0.000277274
0.000833041
0.00211498
-0.000748682
5.34212e-05
-0.00422436
-0.00326414
-0.00109646
-0.00248701
-0.00640095
-0.00326666
-0.00408877
-0.00375579
0.000298588
0.00138534
-0.00198404
0.000378883
0.000184289
0.000123572
0.000134
0.000136195
0.00015773
0.000742134
0.00229151
0.00233642
0.00435155
0.000775783
0.00335038
0.00702939
0.00129132
0.00622571
0.00460898
0.00493496
0.000418823
-0.00109362
-0.010655
-0.00603767
-0.00544959
-0.00829337
-0.00432105
-0.00598097
-0.0013238
0.00402926
0.000626204
0.00266118
0.000135995
0.000249601
0.000122756
0.000339899
6.06797e-05
-0.000147187
0.000180059
-0.000825305
-0.0012176
-0.00514051
0.00375872
0.00500007
-0.00176213
0.00234564
-0.00104306
-0.004216
-0.000381214
-0.00815388
-0.00877959
-0.00826658
-0.0059336
-0.00839349
-0.00267913
-0.00669885
0.00366238
0.00769004
0.00307004
0.000617179
-0.000779845
0.000293748
8.86514e-05
-1.5436e-06
-0.000439602
0.000323178
0.00112579
-0.0015298
-0.00345297
-0.00678984
-0.00567056
0.00111629
0.00255561
0.00835815
0.00164668
-0.00315517
-0.0049313
-0.00722753
-0.00356591
-0.00949319
-0.00891189
-0.00890992
-0.00393108
-0.000753372
-0.000697528
0.00586047
0.00308057
0.00146784
0.00103223
0.000792139
0.000128316
-0.000767873
-0.00149663
-0.00212864
-0.00149926
-0.00379217
-0.00189913
-0.00551308
-0.00182644
0.00395107
0.00423256
-0.00308216
0.0017221
0.00175629
-0.00659461
-0.00884913
-0.0113328
-0.0139813
-0.0138076
-0.00332924
-0.00174986
0.00725301
0.00346187
0.00266882
0.00493642
0.00678806
0.00112285
0.000424932
0.000135546
-0.0011028
-0.00280891
-0.00696862
-0.006912
-0.00476985
0.00284667
-0.000682155
-0.000321608
0.00406878
0.00818261
-0.00317071
0.000290159
-0.00361346
-0.00273228
-0.0082083
-0.00864201
-0.0135141
-0.0107506
-0.00636133
-0.00813182
0.00358505
0.00389317
-0.00379421
0.00105145
0.00603569
0.00133527
0.000137078
0.000135854
-0.000410168
-0.00234436
-0.00874296
-0.00872203
-0.00104285
0.00302535
0.000553645
0.00257858
0.00870537
0.00687522
0.000197242
-0.00211929
0.00314006
0.00785783
-0.00153309
0.00315323
-0.00183156
-0.00582225
0.0014053
-0.00355889
-0.000145197
-0.00253397
-0.00381919
0.000128279
0.000655724
0.000998892
0.000139536
0.00013681
0.000168126
-0.00132897
-0.00734405
-0.0050405
0.00573843
0.00346575
0.0054963
0.00607432
0.012401
0.00536511
0.000232165
0.00190901
0.0130103
0.0153543
0.0138215
0.0123698
0.010942
0.00683853
0.00474358
-0.000556469
0.00585036
-0.00337269
-0.00482892
0.000785429
-0.00165056
-0.000738912
0.000145112
0.00013318
0.000500106
-0.00110282
-0.00451641
-0.00155439
0.00329223
0.000373705
0.00573669
0.00849968
0.00635912
-0.00142471
0.00183953
0.00640958
0.00861866
0.0226235
0.0187808
0.0134274
0.00420503
0.00857118
0.00440502
0.00770682
0.00487524
-0.00316074
-0.00139991
0.00207491
0.000757758
-0.000275321
0.000133961
0.000136098
0.000320018
0.000288335
-0.00207058
0.000536186
0.00285387
0.00254706
0.00362228
-0.00116226
-0.000138084
-0.00341372
0.00182002
0.00802971
0.00699888
0.023587
0.0162171
0.0142258
0.0133271
0.00756425
0.00568451
0.00630496
0.00608877
0.00204997
-0.00270713
0.00271019
-0.000394325
-0.000270304
0.000134539
0.000135088
0.000143967
0.000418312
-0.000816814
0.00037772
0.000323575
-0.00115593
0.000598661
0.00347499
-0.00469444
-0.00221631
0.00800827
0.0117544
0.0205574
0.0163985
0.018328
0.0193488
0.0149609
0.00710106
0.00318712
-0.00256684
0.00572403
0.00366505
-0.000911034
0.00468817
-0.000969637
-0.00197341
0.00013503
0.000135854
0.000136847
0.00110835
0.000635149
-0.00333416
0.000635174
-0.000166035
-0.000916005
-0.00109122
-0.00351823
0.00188901
0.0145753
0.0155402
0.014207
0.011081
0.00653747
0.0115635
0.00902905
0.00573478
-0.00352676
-0.00348096
0.00727064
0.00121607
0.0014387
0.00173163
-0.00346398
-0.00212448
0.000136383
0.000134124
0.000136025
0.00160803
0.00223136
-0.00231139
-0.000566156
0.000520807
0.00359333
0.00548535
-0.00210547
0.00199657
0.00630526
0.0103794
0.0108479
0.00751637
0.00246275
0.00358397
-0.000519251
-0.0059914
0.00050517
0.000112085
0.000223111
-0.000677954
-5.1091e-05
-0.00490519
-0.00484587
-0.00243329
-0.000122081
0.000134676
0.000134921
0.00020649
0.00454343
0.00318489
0.00254951
0.00278488
0.0021268
0.00708953
0.00957226
0.00554236
0.00591679
-0.000500838
0.00501713
0.00269575
0.00304288
0.0026874
-0.00759736
-0.00822104
0.00108108
-0.00384658
-0.00336413
-0.000685761
0.001443
-0.00904912
-0.00501435
-0.000792144
0.000186428
0.000137571
0.000135858
0.000766858
0.00272869
0.00486305
0.00583078
0.0036819
-0.000247793
0.00257101
-0.00129293
0.00254438
-0.00323082
-0.00582177
0.00473698
0.000810881
-0.00169561
-0.00747634
-0.0105087
-0.00925224
-0.00515344
-0.00586079
-0.00482186
0.00289643
0.00246147
-0.0044934
-0.0033255
-0.000180712
0.000224288
0.000134288
0.000134631
0.000787543
0.0045311
0.00162802
0.00614903
0.000736266
0.0013885
0.00480336
-0.00373989
-0.0107499
-0.0100139
-0.00777007
-0.00566827
-3.73722e-05
-0.00226939
-0.00184784
-0.00682257
-0.00305272
0.00030362
-0.00395028
-7.43111e-05
0.00298762
-0.00100243
-0.00159765
-0.00209959
-0.00141082
0.000135885
0.000134743
0.000134963
0.000760644
0.00249229
0.00145139
-0.00103611
-0.000503228
-0.00491568
0.00108897
-0.00866306
-0.00883526
-0.00761
-0.00118302
0.00464965
0.00302544
0.000272931
0.00138804
0.0087847
0.0119487
0.00501184
0.000607419
-0.00314854
-0.000151532
-0.00202956
-0.000579484
-0.000541991
-0.00046204
0.000135945
0.000135674
0.000134128
0.000544145
0.00187893
0.00510041
-0.00148328
-0.00595845
-0.00607112
-0.00950985
-0.0116269
-0.00366737
-0.00318957
-0.00754746
0.00239102
0.00216947
0.00229697
0.00144906
0.0123759
0.0090863
0.0102365
0.00329735
-0.00304735
0.00106839
0.00151838
0.000792122
-2.90053e-05
-0.000134876
0.000134368
0.000136127
0.000135962
0.000290796
0.000525072
0.00384802
0.00307773
-0.00199573
-0.00385291
-0.0020499
0.000769879
-0.00670215
-0.00460412
-0.0031377
0.000259838
0.00297129
0.00446562
0.00543996
0.00696197
0.00797357
0.0122194
0.00880615
0.00387815
0.00298014
0.00228851
0.000317569
-7.68497e-05
6.09048e-05
0.000135778
0.000134529
0.000134994
0.000133639
0.00133086
0.00372993
0.00418364
0.00146461
-0.00204086
0.00449344
0.00323872
0.00152768
-0.00149467
0.00365257
0.00325831
0.000592
-0.0052791
0.00305908
0.000499026
0.00538381
0.00482762
0.00701992
0.00411155
0.00455022
0.0021804
9.06983e-05
6.61746e-05
0.000135125
0.000134118
0.000135998
0.00013695
0.000136121
0.000187972
0.000475566
-0.00123813
-0.00251363
-0.00720207
-0.00548012
-0.00880301
-0.0106509
-0.014196
-0.00739586
-0.00644455
-0.0119956
-0.00874241
-0.00794085
-0.00673397
-0.00289805
0.000518496
0.00423786
0.00238369
0.00375956
0.000948601
0.000314958
0.000134238
0.000135438
0.000137031
0.000134986
0.000134631
0.000134344
0.00010883
-0.000186495
-0.00152749
-0.00063862
-0.00243962
-0.00532508
-0.00661215
-0.00922083
-0.00471904
-0.00580115
-0.00720241
-0.0056921
-0.00606993
-0.00806159
-0.00573953
-0.00428733
-0.00317411
0.000747776
-0.00219001
-0.000209437
0.000351409
0.000135178
0.000135195
0.000135234
0.000132916
0.000135328
0.000134686
0.000135502
0.000135396
0.000136083
-0.000210856
-0.000522288
-0.00091426
-0.000520999
-0.000298143
-0.000641726
-0.00125928
-0.00223234
-0.00261592
-0.00121238
-0.000260621
-0.000911046
-0.00113059
-0.000625934
7.86093e-06
9.66902e-05
-0.00209307
-0.00128265
0.000134288
0.000134436
0.000134951
0.000137723
0.000134286
0.00108714
0.00108539
0.00108474
0.00108387
0.00108566
0.00108536
0.00108465
0.0010861
0.00108502
0.00108519
0.00108518
0.00108574
0.00108467
0.001084
0.00108606
0.00108509
0.00108624
0.0010844
0.00108587
0.00108523
0.00108625
0.00108404
0.0010861
0.00108615
0.00108667
0.00108556
0.00108415
0.00108455
0.00108677
0.00108382
0.00108216
0.00108584
0.00108481
0.00108682
0.00108437
0.000884959
2.74941e-05
-0.00072527
-0.000907315
-0.00256524
-0.000698771
-0.000581923
-0.000491244
-0.000218855
0.00348141
0.000409439
0.000171289
0.000523195
0.000286662
0.000844892
0.0010269
0.00108562
0.00108681
0.00108463
0.00108549
0.00108466
0.0010868
0.00108572
0.00108447
0.00108516
0.00111947
0.00108756
0.00108437
0.000998326
-0.000639065
-0.00631372
-0.00615073
-0.00528281
0.000512933
-0.000391638
-0.00776818
-0.00841679
-0.00958652
-0.0129079
-0.0133009
-0.00991278
-0.00667469
-0.0039157
-0.000971032
0.00153951
0.0013229
0.00108505
0.00108619
0.00108455
0.00108474
0.00108539
0.00108452
0.00108533
0.00107532
0.00150038
0.00326283
0.0046263
0.00337432
0.00433326
0.00424904
0.00486702
0.00559725
0.00101463
-0.0049959
-0.0140301
-0.0100816
-0.0109184
-0.0131291
-0.0114164
-0.00852294
-0.00518495
-0.00219598
0.00165964
0.00199866
0.00108694
0.00108548
0.00108654
0.00108597
0.00108432
0.00108563
0.0010551
0.00102698
0.00204185
0.00379945
0.00279926
-0.0025298
-0.000457927
-0.000911572
0.000304103
-0.00312552
-0.00770894
0.00418378
0.0036313
0.00369879
0.00489768
0.00492972
0.00319926
0.00169174
-0.00551337
-0.00438824
-0.000134503
0.00406492
0.00236609
0.00108472
0.00108626
0.00108484
0.00108648
0.000769615
0.000751153
0.000468986
0.00436886
0.00241706
0.000156942
-0.000785711
-0.00693443
-0.00395922
-0.0159522
-0.0164505
-0.0235425
-0.0144
-0.0174398
-0.013255
-0.0156207
-0.0176427
-0.0139467
-0.00622206
0.00130979
0.00571398
0.000948452
0.00535343
0.00433773
0.000681045
0.00108729
0.00108649
0.00108456
0.000850976
0.0006102
0.00197251
0.00759607
0.00434224
0.00533624
-0.00203469
-0.0109636
-0.00692237
-0.0138343
-0.0180842
-0.0156906
-0.00746383
-0.00831301
0.00264084
-0.0105729
-0.0115334
-0.0113501
-0.0102289
0.00283025
0.00986506
0.00291746
0.00812017
0.00314005
0.00184137
-5.29306e-05
0.0010861
0.000905567
0.000989026
0.00264575
0.00155317
0.0023339
0.0063696
0.000192965
-0.00680833
-0.0121992
-0.00360167
-0.00873353
-0.00473907
-0.0077795
-0.00567271
-0.00275731
-0.0133528
-0.00973389
-0.00784337
-0.0107066
-0.00806014
-0.00246927
0.00272265
-0.00166551
0.00452374
0.00162959
0.00308019
0.000299449
0.00108526
0.00109701
0.00108819
0.000541224
-0.000302973
0.00232605
0.00894049
0.00717219
-0.00176835
-0.0030174
0.00705359
-0.00174298
-1.47837e-05
0.00479253
0.00398877
0.00498938
-0.0033467
-0.00048435
-0.00843108
-0.00375486
-0.00452538
-0.00521713
0.000407852
-0.00398153
-0.0013727
0.00775239
0.00283514
-0.00055469
0.00108458
0.00143324
0.0024363
0.00435621
0.00631565
0.00986616
0.00679041
0.0073232
0.00382539
0.00403499
0.0142835
0.00481706
0.009481
0.00017393
0.00144906
0.0131989
0.0102367
0.0105473
-0.000948985
-0.00013646
0.00429554
-0.00619672
-0.00463502
-0.00761567
0.00507457
0.00903484
0.00306933
0.000881275
0.00108575
0.00116716
0.00452127
0.0115052
0.0124577
0.00803545
0.00116275
0.00288538
0.00229103
0.00380439
0.00584146
0.00215813
0.00551035
0.0141468
0.00276472
0.0106207
0.0101032
0.00779493
0.0137444
0.0210965
0.0186827
0.00958956
0.0074482
0.00443552
0.00813257
0.0112619
0.0043036
0.00108694
0.00108606
0.00181054
0.0052091
0.0137779
0.014734
0.00266418
-0.00346622
0.00546771
0.00715659
0.00415919
-0.00716379
-0.00250033
0.00830991
0.00343072
-0.00385029
0.0149278
0.0134905
0.00787448
0.0110638
0.0161633
0.00948733
0.00733916
-0.00145098
-0.00848705
-0.00806644
0.00695956
0.00337977
0.00106972
0.00108756
0.0014759
0.00443084
0.0120712
0.013262
-0.00104699
-0.00627345
-0.00345989
-0.00509834
-0.00533193
-0.0115214
-0.0294115
-0.00950386
-0.00684955
-0.0203305
-0.00351422
0.00878831
-0.00750779
0.00260841
0.0160265
0.00692503
-0.00340759
-0.00844886
-0.0133615
-0.00912945
0.00383772
0.00112421
0.00103153
0.0010857
0.000721133
0.00246929
0.00780662
0.0121119
-0.0020722
-0.000729514
-0.0043833
-0.0101943
-0.00950967
-0.0107114
-0.0205861
-0.00147591
-0.00223027
-0.0263319
0.00427582
-0.00023758
0.00415618
0.00414876
0.015798
0.00571
-0.00672811
-0.00976505
-0.0122401
-0.00471284
0.00120989
0.00124049
0.00108589
0.00108497
0.000869721
0.000885758
0.0050675
0.00808573
-0.000689833
0.00811489
0.00285796
-0.00453239
-0.00411081
-0.00595532
-0.00539968
0.0169204
-0.000762651
-0.00971434
0.0156665
0.0137384
0.0125496
0.019144
0.0241211
0.000949338
-0.00725452
-0.00626048
-0.0046693
-0.00200316
0.00436653
0.00102004
0.00108658
0.00108462
0.00107441
0.000755281
0.00236257
0.00417958
0.00961722
0.0180064
0.0111949
0.00972697
-0.000523287
-0.000778244
0.0108197
0.0123714
-0.0218102
0.0043779
0.00624166
0.0142453
0.0132691
0.0194953
0.0174114
0.00233792
-0.0107784
-0.00765537
-0.00543386
-0.00672411
0.00101134
0.00172167
0.00110156
0.00108634
0.00108668
0.000991829
0.000704731
0.00738508
0.00956515
0.011267
0.0126346
0.0238043
0.0210972
0.0224368
0.0153298
0.0125138
0.000289899
0.00958723
0.0172307
0.0152364
0.0128139
0.0141665
0.00513629
-0.00449131
-0.017545
-0.013649
-0.00624973
-0.00170287
0.00160966
0.00160005
0.0011141
0.0010858
0.0010856
0.000815799
0.000746695
0.00468189
0.00760064
0.00732167
0.0174374
0.0155739
0.0363563
0.0364803
0.0254654
0.022722
0.0229252
0.00988775
0.0245955
0.0154503
0.00402121
-0.000941819
-0.0117115
-0.0191245
-0.014117
-0.012724
-0.00474341
0.00509856
0.00517691
0.00260948
0.0014704
0.00108524
0.00108599
0.00118819
-0.000801483
0.00108788
0.00626143
0.0159365
0.0117852
0.0100991
0.0217284
0.0186497
0.0155182
0.0333403
0.0256818
0.0261351
0.0093516
-0.00697974
-0.010363
-0.0161917
-0.0168583
-0.0120899
-0.0105556
-0.0110203
-0.00719757
0.00236113
0.00405038
0.00219495
0.000775727
0.00108499
0.00108719
0.00204328
-0.000285965
-0.00233141
-0.00479095
0.00189724
0.00321702
0.0130975
0.0099478
0.00405715
0.00526277
0.0151369
0.0140983
0.0149932
0.000242065
-0.0135647
-0.0107979
-0.0126111
-0.0127487
-0.00899625
-0.00531347
-0.00440827
-0.0100183
0.000537912
0.00282899
0.00129788
0.000877403
0.00108443
0.00108649
0.00108444
-0.00135059
-0.000771561
-0.0104274
-0.00551563
-0.0105928
-0.00860763
-0.00276925
-0.00449045
-0.000656858
-0.00125336
0.000578728
-0.00648439
-0.0134492
-0.0118871
-0.00585612
-0.0144746
-0.00994124
8.34423e-05
-0.00499002
-0.00437582
5.88455e-05
0.000459901
0.0017759
0.00173525
0.00108615
0.00108583
0.00108678
0.00031845
-0.00311837
-0.00165547
-0.00451866
-0.0114952
-0.0181993
-0.0228324
-0.0159332
-0.0161083
-0.0108353
-0.0148561
-0.0133762
-0.0197759
-0.0219857
-0.0151981
-0.0162086
-0.0155351
-0.00639595
0.000484582
7.61716e-05
-0.00143671
0.00112484
-0.000968448
-0.000898569
0.00040991
0.00108504
0.00108376
0.00108583
0.000572721
-0.00128466
-0.00429889
-0.00388467
-0.012061
-0.014791
-0.0243995
-0.0234839
-0.0272259
-0.0229363
-0.015978
-0.0245962
-0.0262312
-0.0171228
-0.0130891
-0.0139175
-0.0140642
-0.0132288
-0.00346292
-0.000800003
-2.32696e-05
0.00192713
-0.000376432
-0.000117039
0.00096719
0.00108608
0.00108652
0.00108541
0.000986633
0.00158978
0.00152383
-0.00176835
-0.00703013
-0.00729856
-0.0243203
-0.0378964
-0.0351887
-0.02942
-0.0354291
-0.0245859
-0.0223126
-0.0263512
-0.0188729
-0.0142308
-0.0133548
-0.0111031
-0.00991523
-0.00818206
-0.00389507
-0.000226075
0.00176456
0.00130886
0.00113327
0.00108514
0.001086
0.00108667
0.00108541
0.00165809
0.00294931
0.00399571
0.00457232
0.00500772
0.000861336
-0.0158016
-0.0157105
-0.00295708
-0.0095411
-0.0130465
-0.00589005
-0.00282157
-0.00606399
0.00273992
-0.00537021
-0.00423297
-0.00993911
-0.00787085
-0.00479549
-0.000408619
0.00122238
0.00116901
0.00108702
0.00108441
0.00108764
0.00108519
0.00108549
0.00098266
0.00157571
0.00660512
0.00901235
0.0180316
0.0161146
0.0152537
0.0156884
0.0164684
0.0178035
0.0198742
0.0134972
0.0117955
0.010029
0.00571672
0.00109697
-0.00413858
-0.00937243
-0.00672255
-0.00499148
0.00159448
0.00127694
0.00108532
0.00108522
0.00108517
0.00108591
0.00108832
0.00108493
0.00130767
0.00305009
0.0038709
0.00101459
0.00421605
0.0057739
0.00310145
0.00299375
0.00596279
0.0106961
0.0116462
0.00630494
0.00347543
0.00552179
0.000863452
-0.00278202
0.000333252
-0.00101523
0.00154808
0.00106887
0.000413933
0.00108576
0.00108507
0.00108507
0.00108714
0.00108552
0.00108506
0.00108533
0.00108496
0.00108669
0.00168896
0.00230495
0.00295085
0.00308517
0.00324527
0.00398098
0.00455209
0.00725099
0.0067723
0.00425444
0.00294276
0.00397258
0.00386065
0.00145535
0.000679728
0.000879278
0.00188534
0.00157711
0.00108596
0.00108596
0.00108463
0.00108278
0.00108614
-0.00128964
-0.00128939
-0.00128686
-0.00128788
-0.00128681
-0.00128883
-0.00128881
-0.00128885
-0.00128767
-0.0012894
-0.00128793
-0.00128805
-0.0012891
-0.00128847
-0.00128939
-0.0012881
-0.00128753
-0.00128944
-0.00128761
-0.00128755
-0.0012897
-0.00128733
-0.00128697
-0.00128726
-0.00128814
-0.00128796
-0.00128792
-0.00129027
-0.00128808
-0.00128824
-0.00128689
-0.00128523
-0.00128863
-0.00128847
-0.00128889
-0.00141919
-0.001879
-0.00223588
-0.00200837
-0.00166866
-0.00165718
-0.00169214
-0.00208945
-0.00121884
0.00136153
-0.00104587
-0.00134158
-0.00163897
-0.00188055
-0.00145454
-0.00132415
-0.00128977
-0.00128615
-0.00128898
-0.00128896
-0.00128933
-0.00128844
-0.00128729
-0.001289
-0.00128712
-0.0012607
-0.00127315
-0.00122704
-0.001331
-0.00213048
-0.00398837
-0.00243936
-0.00108226
0.000219778
-0.00132482
-0.0042114
-0.0055007
-0.00968555
-0.0104493
-0.00964141
-0.00840357
-0.00502655
-0.00267973
-0.00176997
-0.000780602
-0.00105741
-0.0012875
-0.00128716
-0.00128813
-0.00128753
-0.00128602
-0.00128655
-0.00128918
-0.00129146
-0.000642678
0.000310382
0.000662434
-8.77394e-05
0.00140376
0.00498655
0.00804635
0.00676047
0.00652134
0.00263656
-0.00103003
-0.0073454
-0.0109903
-0.0181621
-0.0179491
-0.0117282
-0.00809901
-0.00370705
-0.000402693
0.000105822
-0.00128722
-0.00128874
-0.00128636
-0.00128632
-0.00128832
-0.0012872
-0.00131946
-0.0016115
-0.00105801
-0.00052732
0.000643702
2.84302e-05
0.0048088
0.00790233
0.0113052
0.0143051
0.0125212
0.01115
0.00992605
0.0100315
0.00926488
0.00463172
-0.00494906
-0.00460759
-0.00455873
-0.00793284
-0.00341573
0.00127618
-0.00116816
-0.00128708
-0.00128727
-0.00128869
-0.00128924
-0.00136668
-0.00127095
-0.00276157
-0.00319046
-0.000702574
0.00121985
0.00403943
0.00585034
0.00709831
0.0124126
0.0167367
0.0119541
0.01035
0.00620892
0.00311434
-0.000330755
0.00253235
-0.000314866
-0.00279167
-0.00382151
-0.00132221
-0.00136302
-0.000469231
-0.00240476
-0.00162962
-0.00129678
-0.00128753
-0.00128567
-0.0013879
-0.0014831
-0.00355922
-0.00375522
-0.00198689
0.00502368
0.00267483
0.00342114
0.0132186
0.0137803
0.0167236
0.011407
0.00427981
0.00070143
0.0115478
0.0124305
0.00853193
0.00526051
-0.00226436
0.00202086
-0.00134284
-0.00748854
-0.003438
-0.00482264
-0.00124563
-0.00201134
-0.00129566
-0.00151392
-0.00157579
-0.000494321
-0.00192317
-0.00243556
0.00160221
0.0111366
0.00726865
0.00723403
0.0152113
0.0127249
0.0156794
0.0088648
-0.00249336
-0.000133276
0.00375191
0.00336349
-0.000181686
0.0045842
0.000514251
0.00119103
-0.00331361
-0.00830893
-0.00644283
-0.00369517
-4.18466e-06
-0.00177332
-0.00132768
-0.00159619
-0.00135089
-0.000930016
-0.00233192
0.000586432
0.00557763
0.0115812
0.0131209
0.0101052
0.0104668
0.00491916
0.00615648
-0.00302592
-0.00925004
-0.00959052
-0.00960949
-0.00174922
-0.000185119
-0.00123918
-0.00081935
-0.000230497
0.00350266
-0.00237305
-0.00889904
-0.00418147
-0.00132656
-0.00134027
-0.00129449
-0.000792546
-0.000209132
0.0019353
8.71979e-05
0.00325263
0.00556811
0.00532233
0.00414623
0.00833004
0.00388912
0.0102463
0.00396785
-0.00524777
0.00013544
-0.00204427
-0.00191241
0.00868261
0.00459056
-0.0027686
0.0095866
0.00822402
0.0133313
0.00770285
-0.00323231
-0.00651551
-0.00166363
-0.00165924
-0.0012882
-1.26562e-05
0.00116504
0.00480025
0.0039802
0.00475509
0.00168172
-0.000118304
-0.000377561
-6.58778e-05
-0.00254184
0.005276
-0.00273407
-0.00363278
-0.00664137
-0.000757873
0.00960596
0.0114952
0.0105492
0.0129254
0.0147379
0.0166638
0.0182631
0.0153974
0.000618003
-0.00519505
-0.00178703
-0.00128756
-0.0012867
-0.00102443
-0.000257966
0.00343109
0.00264359
0.00104867
-0.00445413
-0.00356786
-0.0105583
-0.00716672
-0.000803252
0.00126797
-0.000874957
-0.00173594
-0.00475138
0.00633134
0.00808613
0.00786577
0.00902493
0.00435694
0.0153906
0.0133348
0.0149458
0.0147111
0.00410946
-0.000527119
-0.00188086
-0.00129482
-0.00128757
-0.00167798
-0.00115691
0.00204283
0.000879018
-0.00585586
-0.00662867
-0.0136803
-0.00996196
-0.0128491
0.000139592
0.000980935
0.00299001
-0.00522328
-0.00668303
0.00401826
0.00698223
0.00308811
-0.00139693
0.00543242
0.00794777
0.00411853
0.0101547
0.0127026
0.00214621
0.000244326
-0.00018762
-0.00131204
-0.00128873
-0.00177288
-0.000546787
0.00144268
-0.00376827
-0.00598468
-0.00709
-0.0140619
-0.00721097
-0.00762326
5.47216e-05
-0.00130395
0.00431003
0.00474493
-0.00351295
0.00458605
0.00586294
0.0034516
-0.00361313
0.00312735
-0.00171269
0.00481092
0.00869837
0.00391024
-0.00286994
-0.00277635
-0.00058514
-0.00128704
-0.00128782
-0.00150911
-0.00152512
-0.000216145
-0.00442226
-0.00547306
-0.00891834
-0.00964597
-0.00114795
-0.00320657
0.0048314
0.00382809
0.00969975
0.0128571
0.00460496
0.00784734
0.00440273
5.5217e-05
0.00344316
0.00196394
0.00282173
0.00447666
0.00393934
0.00452671
-0.00281128
-0.00262176
-0.000587466
-0.00128813
-0.00128885
-0.00129779
-0.00162351
-0.0014042
-0.00240904
0.0014566
-0.000932039
-0.00433517
-0.00496022
-0.00259231
0.000667045
0.00390158
0.00993518
0.00976614
0.00780667
0.00141894
0.00322624
0.000227891
0.00275763
0.00811577
0.00987636
-0.000475823
0.00299404
0.00180526
-0.00259226
0.000239086
0.00153048
-0.00130008
-0.00128793
-0.00128988
-0.0017934
-0.00196499
0.00183342
-0.000163611
0.0048686
0.00534708
0.00140276
0.00564195
0.00341404
0.00287443
0.00803535
0.0107432
0.00474338
0.0107489
0.00943531
0.0012614
0.00029646
0.00511741
0.00437914
-0.00405839
-0.00114306
-0.00112678
-0.00191925
0.00395424
0.0015039
-0.00130742
-0.00128847
-0.0012881
-0.00207768
-0.0024641
0.00232938
0.00209781
0.00517425
0.00417064
0.000249039
0.00760256
0.0112063
0.00862412
0.0052412
0.000238591
0.00343132
0.0101544
0.0081067
0.00856362
0.00875646
0.00470994
-0.00143654
0.00265787
-0.000188398
-0.00355209
0.00301395
0.00344269
0.00176994
-0.00111246
-0.00128839
-0.00128701
-0.00129986
-0.00291509
0.000179113
0.000748065
0.00570736
0.00966776
0.00247532
-0.00014313
0.00262407
0.00597396
0.00397798
-0.00333267
0.00302315
0.00674699
0.00903128
0.0109358
0.00348568
0.00216438
0.0028387
0.00485468
0.000308609
-0.00411789
0.00800533
0.00288319
-0.000636353
-0.00137258
-0.00128844
-0.00129058
-0.00175584
-0.00244963
-0.000697465
0.00226508
0.00250432
0.00862845
0.0105121
0.00433734
-0.00108571
0.00658812
0.0086622
0.00140653
0.0101566
0.00503564
0.0122106
0.0145601
0.00823773
0.0100695
0.00867813
0.00864194
0.00185476
-0.00290475
0.00507081
0.00126291
-0.00111527
-0.00138283
-0.00128779
-0.00128649
-0.00157445
-0.00364375
0.00129241
0.00363839
0.00803263
0.00711226
0.00394499
0.00857332
0.0087663
0.00831792
0.00943606
0.00778798
0.00591463
0.00202049
0.0078397
0.0117639
0.00581428
0.00608951
0.00856311
0.00538542
0.00239012
0.00158063
0.00382166
8.97373e-05
-0.000428512
-0.00128741
-0.00128908
-0.00128854
-0.00154803
-0.00371415
0.000322769
0.00427072
0.00954256
0.0128441
0.00506827
0.00482418
0.00323127
-0.00266568
-0.0015683
-0.00779988
-0.00160604
0.00331523
-0.00196009
-0.00568982
-0.00871928
0.000196249
0.00267048
0.00595
0.00216248
0.00287397
0.00101734
-0.00137627
-0.00111278
-0.00128724
-0.00128778
-0.00128924
-0.00172981
-0.00345942
-0.00512493
0.00120606
0.00675045
0.00692845
0.00800826
0.00600873
-0.00321077
-0.00553511
0.000875389
-0.0107696
-0.00563549
-0.00580639
-0.00570485
-0.00812873
-0.00843077
-0.00277984
3.52332e-05
-0.000850357
-0.00177032
-6.83842e-05
-0.000560112
-0.00123521
-0.00122101
-0.00128819
-0.00128923
-0.00128922
-0.00148598
-0.00184754
-0.00401259
-0.00299267
-0.00044211
0.00139138
-0.00161426
-0.0044023
0.00156163
0.00285809
0.00101682
0.000250011
-0.00117825
0.000243343
0.000842088
-0.00522206
-0.00517162
-0.00613481
-0.00710365
-0.00402976
-0.00237248
-0.00195443
-0.00121859
-0.00127527
-0.00144417
-0.00128882
-0.0012868
-0.00128766
-0.00128691
-0.00193969
-0.00304416
-0.0017705
-0.000753915
0.000500904
-0.00373581
-0.00793544
-0.00211345
-0.00198827
-0.002195
-0.00215471
-0.00347665
0.00505518
-0.00028362
-9.06241e-05
-0.00270077
-0.00186066
-0.0024137
0.000911812
-4.38591e-05
-0.000118331
-0.00126876
-0.00125515
-0.00128843
-0.00128833
-0.0012882
-0.00128973
-0.00128885
-0.00135672
-0.00159811
-0.000603508
0.00114465
0.00419712
0.00225414
0.00202904
0.00486055
0.00788558
0.00980557
0.00993977
0.00503884
0.00488293
0.0104413
0.0126944
0.0129101
0.00581655
0.00262631
0.00384456
-0.00113336
-0.00148817
-0.0013048
-0.00128876
-0.00128875
-0.00128683
-0.00128832
-0.00128986
-0.00128876
-0.00117883
-0.000428284
-0.000950962
-0.000486831
0.000801611
0.00341639
0.0046242
0.00168688
-0.00104679
0.00114461
0.00424886
0.0103264
0.00764505
0.00497866
0.00354358
0.0011855
-0.00125054
-0.000861478
0.00174592
-0.000151931
-0.00150517
-0.00128908
-0.00128896
-0.00128872
-0.00128695
-0.00128705
-0.0012904
-0.00128893
-0.00128767
-0.00128841
-0.00136675
-0.00151782
-0.00126479
-0.000801606
-0.000637616
-0.00116991
-0.000960966
-0.000902813
-0.000654807
0.000362594
0.000826159
-0.00107054
-0.00178861
-0.000629237
-0.00107398
-0.00127093
0.000304275
-0.000354807
-0.00129052
-0.00128954
-0.00128722
-0.00128817
-0.00128729
0.00923248
0.00923488
0.00923225
0.0092336
0.00923248
0.00923401
0.00923179
0.00923263
0.00923304
0.0092325
0.00923315
0.0092348
0.0092342
0.00923261
0.00923222
0.00923144
0.00923203
0.00923208
0.00923199
0.00923305
0.00923354
0.00923297
0.00923202
0.00923213
0.00923296
0.00923192
0.00923174
0.0092342
0.00923409
0.00923304
0.00923285
0.00923281
0.00923331
0.00923533
0.00923238
0.00921646
0.00918098
0.009167
0.00917728
0.00910665
0.00916845
0.00916014
0.00913818
0.00905034
0.0088378
0.00902254
0.00912198
0.0091938
0.00920602
0.00918813
0.00920513
0.00923352
0.00923281
0.00923483
0.00923295
0.00923095
0.00923388
0.0092332
0.00923188
0.00923256
0.00923222
0.00923212
0.00923051
0.00919987
0.00898605
0.00852417
0.00864248
0.00825112
0.00544894
0.00497716
0.0068236
0.00671465
0.00561746
0.00392797
0.0062323
0.00584487
0.00792526
0.00860775
0.00899466
0.00914264
0.0091903
0.00923285
0.00923052
0.00923263
0.00923311
0.00923113
0.00923205
0.00923265
0.00923289
0.00906932
0.00877706
0.00751403
0.00539626
-0.00473281
-0.00522223
-0.00575933
-0.00792015
-0.0120298
-0.0155764
-0.00450076
-0.00367991
-0.00264009
-0.00271579
-0.00421105
0.00659641
0.00854031
0.00837407
0.00909335
0.00926386
0.00923275
0.00923254
0.00923291
0.00923361
0.00923399
0.0092335
0.00923055
0.0100816
0.00751041
0.00658627
0.00398059
0.0022571
-0.0136469
-0.0145445
-0.00322813
0.0166874
0.010971
0.00714067
0.0119435
0.0113866
0.00787316
0.0309855
0.0217757
0.0242105
0.032705
0.0281935
0.0151651
0.0118279
0.00896097
0.0092337
0.0092338
0.00923479
0.00923164
0.00928869
0.00918908
0.00858787
0.00170022
-0.00550817
