-1.40565e-06
-7.38925e-07
-1.17005e-06
-1.66901e-06
1.59529e-07
6.32963e-07
5.29406e-07
-4.90355e-07
-1.73417e-06
1.03154e-07
-1.93304e-06
-6.96234e-07
-1.34856e-06
8.7602e-07
-1.85703e-06
-1.77335e-06
-1.18393e-06
3.22e-07
-2.52874e-06
-1.05465e-06
2.01547e-07
-2.06017e-06
4.70587e-07
9.64145e-08
-2.18983e-06
9.87991e-07
-2.12793e-06
1.64323e-06
-1.18311e-06
5.27712e-07
-2.12169e-07
-3.10724e-06
-1.46416e-08
-1.17323e-06
-4.67214e-07
2.42366e-07
-6.57902e-07
-8.27481e-07
-4.6302e-07
1.28665e-07
8.34635e-07
-1.90284e-06
1.32938e-06
-2.5301e-06
-1.76798e-06
4.08616e-07
-2.21905e-06
-8.19914e-07
7.73145e-07
-4.38418e-07
-4.82338e-07
1.27172e-08
-9.11778e-07
3.13504e-07
-1.40071e-06
-9.76026e-07
-8.2535e-07
1.70069e-07
-1.81885e-06
-1.75586e-06
9.6238e-07
3.67047e-07
-1.7366e-07
-1.04072e-06
9.11391e-07
3.01814e-08
-5.50783e-07
-1.66162e-06
-8.40122e-07
-8.27557e-07
-2.3314e-07
-2.96019e-07
7.90597e-07
-3.63778e-07
1.08649e-06
-5.62859e-07
-8.16733e-08
-4.58572e-07
-7.43579e-07
-6.68072e-07
-4.76158e-07
-1.88273e-07
1.12968e-07
-1.20145e-06
-2.10618e-06
-1.85113e-06
6.52385e-07
1.57095e-06
-1.69472e-06
-5.58099e-07
-1.30445e-06
1.1758e-06
-2.32389e-06
-2.60816e-07
-1.14265e-06
-5.30326e-07
-5.34009e-08
3.58578e-07
-1.14865e-06
-1.94514e-06
-1.11874e-07
-2.77315e-06
-7.89367e-07
7.65439e-07
6.91157e-07
-3.72517e-07
-7.45962e-07
-1.79365e-06
-4.26707e-07
-1.46508e-06
-9.80252e-07
-8.6944e-07
-2.49642e-06
-1.13359e-06
3.96225e-07
-3.02836e-07
6.96284e-07
1.2366e-07
-5.61354e-07
-1.64368e-06
-1.97266e-06
-1.25227e-07
-1.73291e-07
8.87501e-07
3.61423e-07
1.03471e-06
2.30298e-06
2.32957e-06
1.24755e-07
1.56285e-07
8.16905e-07
-1.91864e-06
-7.44193e-07
-1.70941e-06
-2.98186e-06
-1.5541e-06
-7.18873e-07
-5.90462e-07
-2.28976e-07
-1.96727e-06
-7.54675e-07
4.78252e-07
7.68608e-08
-1.3302e-06
-1.56483e-08
-2.84466e-07
-1.66901e-06
-9.66548e-07
-5.73728e-07
-1.7118e-07
1.36139e-06
1.13362e-06
1.89384e-06
2.37754e-06
5.76184e-06
6.56102e-06
5.43817e-06
5.07235e-06
3.37734e-06
1.94958e-06
1.27496e-06
-6.92269e-07
-2.39419e-07
7.47205e-08
-8.82715e-07
-9.27245e-07
-1.32872e-06
-2.20486e-06
-1.32792e-06
-5.3345e-07
9.94556e-08
-3.80255e-07
-5.24205e-07
4.76448e-07
-5.10712e-07
1.24309e-06
8.11922e-07
-2.48798e-07
3.5058e-07
2.9647e-06
2.71636e-06
3.79599e-06
5.94257e-06
6.49656e-06
5.35607e-06
5.86744e-06
5.55278e-06
5.73194e-06
3.98245e-06
-1.81214e-06
4.46416e-08
-7.71502e-07
-3.36161e-07
-1.58025e-07
-7.39114e-07
-9.3179e-07
-3.6243e-07
-2.56245e-06
-1.92428e-07
5.4677e-07
2.11454e-06
7.79458e-07
3.77555e-07
2.29556e-06
-3.41504e-07
2.43559e-06
2.54948e-06
2.58297e-06
4.22871e-06
5.51889e-06
6.7012e-06
5.37125e-06
6.97631e-06
4.45932e-06
4.37924e-06
5.93523e-06
2.98877e-06
1.90885e-06
-1.121e-06
2.20698e-07
-1.2957e-06
1.45746e-06
-7.04366e-08
3.3072e-07
-2.02349e-07
-6.76171e-07
1.15894e-06
-3.06464e-07
-1.54612e-07
1.42922e-06
-3.16721e-07
-8.33526e-07
-1.80888e-07
-4.10405e-08
7.4133e-07
4.19383e-06
4.68747e-06
5.92923e-06
5.44062e-06
4.40535e-06
4.60161e-06
1.40772e-06
1.29765e-06
3.60875e-06
3.06501e-06
1.54027e-06
-7.4092e-07
-3.60769e-06
-3.43956e-08
-2.408e-06
-4.54384e-07
5.69596e-07
-2.03062e-06
-2.10518e-07
1.90281e-07
-1.56569e-06
2.11849e-08
-1.48389e-06
-9.00176e-07
-1.18018e-06
-8.73062e-07
-1.07047e-07
2.56189e-06
1.89849e-06
4.75057e-06
3.80945e-06
3.94732e-06
3.90412e-06
2.60962e-06
3.45178e-06
2.46056e-06
2.42842e-06
2.41084e-06
1.75104e-06
1.01705e-06
-4.82828e-07
-1.0443e-06
-1.3709e-06
-6.92554e-07
-3.64955e-07
-2.29934e-06
-1.86749e-06
-1.47928e-06
-2.65882e-07
-2.45495e-06
-3.34275e-07
-1.52556e-07
1.57527e-06
-3.25852e-07
1.31577e-06
1.29574e-06
3.88231e-06
2.92908e-06
4.55044e-06
4.34352e-06
2.04406e-06
3.00358e-06
-4.64606e-08
3.33493e-06
3.24431e-06
2.60375e-06
-3.71189e-07
8.15368e-07
-1.87148e-06
1.63787e-06
-5.79916e-08
1.28845e-06
-1.77684e-06
-1.06378e-06
-4.92733e-07
5.5671e-07
-1.28004e-06
7.4456e-07
1.17817e-06
-1.51605e-06
-7.48475e-07
-9.66888e-07
1.7152e-06
7.05561e-07
3.32921e-06
4.91284e-06
3.12143e-06
2.05315e-06
2.93928e-06
1.74513e-06
9.41274e-07
1.7628e-06
2.31898e-06
2.29089e-06
2.52456e-06
7.07174e-07
-5.92359e-07
-1.44884e-06
-1.59549e-06
4.20623e-07
-1.72431e-06
-2.24796e-06
1.13431e-06
-8.39589e-07
-9.03855e-07
-1.80141e-06
-8.17578e-07
-6.86783e-08
-3.53094e-07
2.87979e-06
4.07251e-07
3.64608e-06
2.90653e-06
4.09617e-06
2.9892e-06
2.64612e-06
4.32704e-08
2.14654e-07
1.0144e-06
-8.53767e-08
2.14691e-06
4.9003e-06
1.16014e-06
2.15167e-06
2.55095e-06
-1.46402e-06
-6.18546e-07
-3.4609e-09
1.51378e-07
-2.88849e-06
-6.66031e-07
-1.08142e-06
-2.16146e-06
-1.27409e-06
-2.47466e-07
3.80555e-07
1.00487e-06
-3.12835e-07
2.52286e-07
3.10556e-06
1.39456e-06
3.94625e-06
1.59485e-06
1.43646e-06
-3.06983e-07
7.94046e-07
1.71387e-06
3.44954e-06
1.42651e-06
4.96017e-06
2.91763e-06
3.06141e-06
1.12835e-06
5.39407e-07
-1.03572e-06
-6.66161e-07
-2.80499e-07
-4.58193e-07
-4.84757e-07
-9.57372e-07
-1.14887e-06
-2.26767e-06
7.94523e-07
1.79702e-06
5.3909e-07
2.65999e-06
3.87114e-06
4.91844e-06
2.44683e-06
5.36985e-07
-1.03539e-07
1.78988e-07
4.22253e-07
-1.34978e-06
1.00195e-07
2.90623e-06
2.67116e-06
4.32553e-06
4.06517e-06
2.30191e-07
-6.24498e-07
-1.41649e-06
1.10217e-06
-2.22032e-06
-1.23619e-06
-9.5132e-07
9.62268e-07
-2.94898e-07
-1.5109e-07
-1.89557e-06
-1.49225e-06
9.71622e-09
3.19677e-06
4.10338e-06
3.51919e-06
1.98485e-06
-2.36096e-07
1.35399e-06
-1.32339e-06
3.86249e-07
-1.68854e-06
-1.98114e-06
2.81322e-06
3.15945e-06
3.60343e-06
8.02532e-07
2.16585e-06
4.36466e-07
-3.393e-07
-7.63322e-07
-4.08794e-07
2.31904e-07
-1.20748e-06
-1.04933e-06
-1.71512e-06
6.12832e-07
-1.07196e-06
-2.0781e-06
2.58018e-07
6.85892e-07
2.5524e-06
3.0308e-06
3.92341e-06
-3.58914e-08
7.95337e-07
5.47769e-07
-3.10147e-06
-1.61951e-06
-1.52231e-06
-3.42219e-07
7.434e-07
1.75617e-06
4.28518e-06
3.31906e-06
3.56869e-06
1.28979e-07
-1.86926e-06
-5.74553e-07
-3.06505e-07
3.61636e-07
3.94689e-07
3.30952e-07
-4.24852e-07
6.12363e-08
-1.4042e-06
-1.56629e-06
-5.18947e-07
1.83133e-07
3.84941e-06
2.32661e-06
2.99485e-06
3.65725e-06
2.11873e-06
-2.03754e-07
-2.02315e-06
-2.9569e-06
-1.19294e-06
-5.75741e-07
1.92891e-06
2.03138e-06
3.34012e-06
3.98336e-06
2.36542e-06
-1.04425e-06
7.92166e-08
-1.38471e-06
-3.34753e-07
-2.9529e-06
-1.29571e-06
-5.61796e-07
-2.07459e-08
5.24036e-07
-6.42468e-07
-1.31631e-06
-2.37711e-07
9.18747e-07
4.96357e-06
4.59048e-06
2.28735e-06
2.25123e-06
-7.53251e-07
1.02096e-06
-1.79409e-07
-2.45901e-06
-2.46687e-06
-8.72839e-07
3.6247e-06
5.8323e-06
4.46204e-06
1.3614e-06
2.3258e-06
2.55825e-07
7.23802e-07
-1.71177e-06
-1.1254e-06
-2.72609e-07
-4.359e-07
-1.77563e-07
-4.9568e-07
-1.19623e-06
-1.62823e-06
1.13624e-06
5.21227e-07
8.81883e-07
1.84414e-06
3.31658e-06
2.42433e-06
1.86028e-06
1.00751e-06
-1.9612e-06
-2.62008e-06
-3.46773e-07
-2.51692e-07
2.88826e-06
4.08058e-06
7.11532e-06
2.36566e-06
2.52684e-06
2.07295e-06
4.59711e-07
3.27303e-07
-1.71548e-06
-1.22735e-06
-5.18503e-07
2.4175e-07
-1.83311e-06
-7.39725e-08
-1.60573e-06
-3.06857e-06
7.81068e-07
-3.17291e-09
1.3248e-06
3.00139e-06
2.82924e-06
3.08824e-06
1.89154e-06
1.54704e-06
-1.75671e-06
8.07323e-07
1.27548e-06
2.72688e-06
4.12943e-06
6.08871e-06
4.36347e-06
3.25729e-06
1.0076e-06
2.12488e-06
7.91087e-07
1.16008e-06
-2.13497e-06
6.59716e-08
9.50199e-08
-7.58285e-08
-2.38294e-06
8.91827e-07
-1.96927e-06
3.33793e-07
6.07294e-07
1.0231e-06
1.15128e-06
3.72653e-06
2.88364e-06
6.73409e-06
5.12758e-06
3.14834e-06
6.22113e-06
3.52035e-06
5.73479e-06
5.23867e-06
6.79556e-06
4.92518e-06
2.18811e-06
1.89744e-07
1.2471e-06
1.04368e-07
3.62196e-07
-4.40337e-07
5.96116e-07
-2.25649e-07
-7.85241e-07
-1.28681e-06
-1.67891e-06
-3.62317e-06
2.17913e-07
-1.68372e-06
3.10601e-07
4.51134e-07
6.54271e-07
2.85411e-06
5.13276e-06
6.44766e-06
6.62455e-06
4.76001e-06
5.93727e-06
5.55681e-06
5.02634e-06
5.66796e-06
5.00432e-06
1.44506e-06
-6.21754e-07
9.94335e-07
8.79041e-07
-6.40878e-07
-2.71366e-06
-5.4207e-08
-8.41177e-07
-1.28852e-06
-2.13973e-06
3.05613e-07
-7.62656e-07
-7.77261e-07
-9.30904e-07
-1.8069e-06
-1.0756e-06
1.21587e-06
-1.54549e-06
1.29013e-06
7.9641e-07
4.15854e-06
4.00309e-06
7.06115e-06
5.2423e-06
5.41916e-06
4.03385e-06
2.18777e-06
8.30141e-07
7.66048e-07
1.25913e-06
8.12987e-08
-5.4716e-07
7.9039e-07
-4.87361e-07
-6.63708e-07
-5.6311e-07
3.15392e-07
-9.97906e-07
2.17776e-07
-1.52348e-06
1.10848e-06
-9.77708e-07
-9.73248e-07
-1.07503e-06
-2.71169e-06
-8.33102e-07
-1.60304e-06
-4.95531e-07
1.32095e-06
8.03275e-07
3.27051e-06
2.5939e-06
1.4057e-06
3.50121e-07
7.38967e-08
-4.0037e-08
-1.00707e-06
3.88987e-07
-1.20681e-07
-6.95377e-07
-4.09172e-07
4.25276e-07
-1.6032e-06
-7.08481e-08
-2.07487e-06
-5.45646e-07
-1.3142e-06
-7.37844e-07
-1.46213e-06
-2.39789e-06
-1.99149e-06
2.68904e-07
-9.98623e-07
-9.28762e-07
-1.24662e-06
-1.65108e-06
-1.99188e-06
-1.85247e-06
-7.90151e-07
8.7222e-07
-9.89447e-07
-3.52998e-07
-2.58454e-06
-1.13411e-06
-1.04993e-06
2.44506e-07
-3.02019e-06
-7.57686e-07
-1.47785e-06
-2.15691e-06
-1.59087e-06
-2.45197e-06
-1.60605e-06
6.53299e-07
-1.24815e-06
-1.186e-06
-1.54958e-06
-1.63033e-06
-1.51365e-06
-7.14931e-07
3.00774e-07
1.85275e-06
-1.27851e-06
-1.46189e-06
-1.37267e-06
-1.9678e-06
-1.59372e-06
-2.47348e-06
-2.76946e-06
-1.68157e-06
-9.64298e-07
1.30932e-07
-2.05814e-06
-2.16351e-06
-8.85244e-07
2.14625e-06
-1.29873e-06
4.02139e-07
-1.51491e-06
1.33383e-06
-1.23399e-06
-1.61545e-06
-5.08791e-07
-6.21458e-07
-6.89391e-07
9.33086e-08
-1.53134e-06
-1.47216e-06
-1.71988e-06
-1.61686e-06
-3.12456e-06
-7.81249e-07
-6.48705e-07
-2.23019e-06
-1.80915e-06
-8.88311e-07
1.26179e-06
-1.59271e-06
-6.61208e-07
-2.66674e-06
-4.23043e-07
-1.99981e-06
6.52644e-08
-1.40504e-06
-2.71923e-06
-1.02172e-06
-9.82388e-07
-7.19091e-07
1.30846e-06
-1.23273e-06
-5.08045e-07
9.94826e-07
2.14358e-06
2.49683e-06
1.29596e-06
-4.61984e-07
1.79831e-06
8.6549e-07
-5.71276e-07
6.28096e-07
1.533e-06
2.29622e-06
9.65609e-07
-1.56663e-07
1.87432e-07
-6.01802e-07
4.64129e-07
-6.67563e-08
1.90377e-06
4.41536e-07
-1.17413e-06
1.30732e-07
2.95317e-07
9.45572e-07
2.96523e-06
1.43478e-06
1.91355e-06
1.43607e-06
1.03021e-06
4.32795e-08
2.05653e-06
-1.57552e-06
2.25797e-06
8.54312e-07
-3.79166e-07
-1.46496e-07
8.22761e-07
9.18124e-07
1.17415e-06
1.01744e-06
1.98824e-06
1.30544e-06
4.03984e-07
2.42056e-06
-1.31915e-07
1.58031e-06
1.38395e-06
2.76252e-07
6.54523e-07
9.13077e-07
1.65908e-06
1.18564e-06
1.87107e-07
2.91813e-06
4.23239e-07
2.19095e-06
1.74951e-06
-4.58592e-07
8.8732e-07
1.17892e-06
1.02028e-06
7.56774e-07
-9.54595e-08
-8.8176e-08
6.4401e-07
1.2061e-06
7.44608e-07
1.01381e-07
5.56657e-07
3.24932e-07
2.21968e-06
1.48585e-06
1.23434e-06
7.71694e-07
9.44802e-07
2.41998e-06
-6.5517e-07
5.20676e-07
-5.23027e-07
1.30591e-06
7.417e-07
7.94329e-07
2.59154e-06
9.89561e-07
2.38998e-06
-9.63736e-07
1.29239e-06
2.35542e-06
1.8487e-06
1.41694e-06
1.92784e-06
3.30856e-07
5.92266e-07
7.89593e-08
1.33522e-06
-3.39827e-07
1.2048e-06
6.98892e-07
-5.2332e-07
6.29393e-07
1.02458e-07
2.30272e-07
2.86942e-06
3.91089e-07
7.23544e-07
4.86986e-07
-3.75957e-07
9.75864e-07
1.61669e-07
2.08319e-07
5.15795e-07
1.31271e-06
-2.18909e-06
1.19114e-06
1.49145e-06
4.31948e-07
1.19091e-06
1.99663e-06
-6.49199e-07
6.37006e-07
6.55534e-07
2.3168e-07
1.56553e-06
-3.72047e-07
4.97844e-07
-1.81929e-06
-2.57592e-07
9.05197e-07
-3.93563e-07
-2.74442e-08
3.83309e-09
-2.04234e-07
-2.54e-06
-1.48205e-06
9.89896e-07
9.37795e-07
-5.17954e-07
8.1626e-08
1.83801e-07
1.90653e-06
7.16788e-07
-8.56404e-07
1.97285e-06
1.20834e-07
1.10322e-06
2.56142e-07
1.11974e-06
2.46672e-06
1.14385e-06
-1.00415e-06
1.25371e-06
1.35071e-06
-8.85572e-07
-1.22425e-06
-2.27848e-06
-2.30902e-06
-3.51764e-06
-1.72383e-06
-2.75528e-06
-2.13987e-06
-2.74116e-06
-1.51621e-06
7.51198e-07
1.14765e-06
1.16129e-06
6.86893e-07
2.96587e-07
4.60294e-07
-1.38183e-07
1.29194e-06
-5.00707e-07
-3.25561e-07
2.21511e-06
2.17456e-06
2.25972e-06
1.9911e-06
9.46813e-07
-4.50815e-07
1.7665e-06
5.28883e-07
-1.45907e-07
-1.38018e-06
-3.7834e-06
-1.82576e-06
-4.58967e-06
-3.47911e-06
-3.54055e-06
-2.83876e-06
-1.74708e-06
-2.56218e-07
-1.58341e-06
-3.50578e-08
1.84883e-06
1.92217e-06
3.65677e-07
-1.91857e-07
1.8378e-06
7.69661e-07
2.07852e-06
2.48135e-07
8.64636e-07
7.67585e-07
6.34835e-08
-5.07284e-07
1.36353e-06
-1.70874e-06
-2.21011e-07
-1.81464e-06
-1.1522e-06
-2.46161e-06
-3.52429e-06
-2.79517e-06
-4.4106e-06
-1.77074e-06
-2.73247e-06
-6.43211e-06
-3.72652e-06
-2.79545e-07
2.56784e-07
-1.4558e-06
1.53614e-06
-8.37843e-07
1.61596e-06
1.53891e-06
1.03296e-06
-3.02708e-07
1.80442e-06
1.69007e-06
3.66995e-07
1.19011e-06
1.39212e-06
2.92781e-06
8.69048e-07
4.00827e-07
1.04561e-07
-3.11886e-06
-1.63915e-06
-2.99133e-06
-3.08868e-06
-4.21134e-06
-1.12354e-06
-2.24373e-06
-1.73997e-06
-4.11868e-06
-2.29463e-06
-4.75378e-07
-3.05606e-07
-3.71559e-07
1.05432e-06
-4.27472e-07
7.94899e-07
1.5672e-06
-1.09523e-07
8.47775e-08
7.35246e-07
7.08772e-07
-2.74018e-07
2.15656e-06
-3.09742e-07
1.66433e-06
9.46722e-07
3.32972e-07
-5.98527e-07
-3.78867e-06
-3.71013e-06
-1.8582e-06
-1.80165e-06
-1.86964e-06
-1.59422e-06
-4.19098e-06
-1.65011e-07
-2.68858e-06
-2.38259e-06
-2.0308e-06
-1.90168e-06
-7.87119e-08
1.40133e-06
-2.39838e-07
3.02852e-06
6.42577e-07
2.10166e-07
-2.82146e-07
1.17209e-06
2.7964e-07
2.43472e-06
1.69889e-07
4.73825e-07
-1.45224e-07
3.87806e-07
6.97448e-07
-8.96834e-07
-3.88033e-07
-2.2135e-06
-1.98512e-06
-3.83975e-06
-2.96374e-06
-5.22248e-06
-2.32617e-06
-1.31788e-06
-5.0045e-07
-1.71148e-06
-8.5392e-07
-1.41373e-06
7.28687e-07
1.63741e-06
8.69685e-07
3.63865e-07
1.14489e-06
-7.95012e-08
1.4371e-07
1.51453e-07
7.81605e-07
1.07152e-06
-6.18623e-07
1.36492e-06
2.24238e-06
9.83418e-07
7.49766e-07
-1.49603e-06
-1.32752e-06
-2.62757e-06
-2.78469e-06
-8.72437e-07
-2.39329e-06
-2.56729e-06
-2.35967e-06
-6.01312e-07
-2.71949e-06
-8.72898e-07
-6.90285e-07
1.87367e-07
6.33248e-07
-1.30342e-06
8.65421e-07
2.54967e-06
1.30604e-06
4.03916e-07
7.55556e-08
1.18515e-06
1.1949e-06
2.91797e-06
4.45787e-07
1.02247e-06
-1.2205e-07
1.08724e-06
-2.58914e-07
-1.20087e-06
-3.04267e-06
-3.38207e-07
-1.03568e-06
-1.63604e-06
-2.34027e-06
-3.96006e-06
-4.08202e-06
-2.24352e-06
-3.3924e-06
-1.01986e-06
2.57304e-08
-2.10135e-06
-1.20749e-07
1.54174e-06
5.34473e-07
1.09899e-06
1.44097e-06
1.60364e-06
2.09811e-06
-4.18266e-07
1.60373e-06
2.23572e-06
2.09132e-06
-1.46886e-07
-1.19221e-08
-3.61198e-08
-1.96297e-07
-6.96512e-07
-3.41333e-06
-2.77809e-06
-2.82916e-06
-2.65528e-06
-4.03955e-06
-3.88852e-06
-3.75515e-06
-3.66074e-06
-1.96169e-06
-7.79995e-07
-1.34134e-06
-5.04733e-07
1.05806e-06
2.96492e-06
1.87597e-06
-3.72311e-07
-5.70949e-08
1.9583e-06
-4.57317e-08
1.51931e-06
3.52536e-06
2.54398e-07
8.56177e-07
2.41022e-07
8.79721e-07
-1.59014e-06
-1.12859e-06
-1.02129e-06
-2.82485e-06
-8.51454e-07
-1.87946e-06
-3.21111e-06
-2.44483e-06
-2.78635e-06
-1.89872e-06
-1.26684e-06
-3.95219e-07
-9.49605e-07
-9.51696e-07
-1.73444e-06
-1.16369e-06
1.58706e-06
-5.93452e-07
1.11108e-06
8.02426e-07
3.0147e-07
8.389e-07
2.07791e-06
1.48072e-06
9.7453e-08
1.4657e-06
-7.42449e-08
-6.19194e-07
-9.99468e-07
-1.81339e-06
-1.96932e-06
-4.19515e-07
7.36109e-07
-1.90247e-06
-5.37618e-06
-2.50711e-06
-1.54825e-06
5.75938e-07
-4.06179e-07
5.66868e-07
-1.23687e-06
-1.20701e-06
-1.81493e-06
4.83375e-08
-3.0424e-07
1.8575e-06
8.5203e-07
5.16133e-07
2.9517e-06
-6.69915e-07
1.42918e-06
1.12036e-06
2.05189e-07
7.48716e-07
6.32582e-07
1.1174e-06
-2.14659e-06
-2.10819e-06
-2.14738e-06
-9.09424e-07
-2.80222e-08
-1.55598e-06
-2.68431e-06
-2.55967e-06
-1.10864e-06
-1.93188e-06
4.64918e-08
-1.46797e-06
-1.82809e-06
-2.35081e-06
-1.22816e-06
2.51291e-07
-4.85017e-07
1.90309e-06
-1.70988e-07
2.96325e-08
3.8916e-07
-2.63068e-07
1.28692e-06
1.50903e-06
6.40972e-07
2.44704e-06
-7.40018e-07
3.06042e-07
-3.18351e-06
-1.41621e-06
-5.0238e-07
-2.08078e-06
-2.16488e-06
-3.51808e-06
-2.13874e-06
-2.3618e-06
5.34953e-07
-2.6568e-06
3.18775e-07
-2.27683e-06
-2.54135e-06
-4.5162e-06
3.9411e-07
9.26442e-07
-7.12707e-07
-5.34169e-07
2.68003e-06
-1.54389e-06
8.33765e-07
1.84094e-06
1.08073e-06
1.1646e-06
1.33251e-06
1.22595e-06
1.26201e-06
-6.5993e-07
-1.27114e-06
-1.62009e-06
-9.50964e-07
-7.39102e-08
-2.13895e-06
-3.35865e-06
-1.78192e-06
-1.99887e-06
-5.12185e-07
-1.4011e-06
-1.06943e-06
-1.51823e-06
-1.62935e-06
-9.5016e-07
4.27076e-07
7.20667e-07
3.02454e-07
1.99997e-06
-2.97819e-07
2.24872e-07
1.11945e-06
7.84426e-07
7.95373e-07
2.36495e-06
1.53897e-06
2.69031e-07
-5.54695e-07
-1.64356e-06
-1.21429e-08
-9.70223e-07
-1.75324e-06
-8.70771e-07
-2.10964e-06
1.12797e-07
-1.13663e-08
-1.81772e-06
-1.44582e-06
-3.30738e-07
-2.27868e-06
-1.85897e-06
-1.89254e-06
1.43355e-07
-4.46888e-08
8.7392e-08
9.58528e-08
1.95303e-06
1.74071e-06
3.26384e-07
-9.37906e-07
1.06216e-06
9.76193e-07
-1.13498e-06
2.68739e-06
2.18978e-06
7.34012e-07
9.07094e-07
5.60279e-07
-1.70433e-06
-2.42448e-06
-2.13709e-06
-1.32531e-06
-1.48362e-06
-1.93939e-06
-2.77183e-06
-2.19223e-06
-1.27057e-06
-1.71548e-06
-1.86012e-06
8.26742e-07
1.49982e-06
1.39586e-06
3.95587e-07
1.05163e-06
8.67704e-07
1.68482e-06
-9.37776e-07
6.47998e-07
1.23089e-06
9.6367e-07
2.62081e-07
2.28172e-06
1.94206e-07
-1.07173e-08
-8.36246e-07
-4.74088e-07
-2.76162e-06
-1.29716e-06
-3.18693e-06
-1.58892e-06
-1.58168e-06
-3.85739e-06
-3.28223e-06
-2.26844e-06
-1.6869e-06
1.7071e-07
-2.09383e-06
-8.59697e-07
2.34853e-06
-1.10832e-08
2.02963e-07
9.17169e-07
2.6042e-07
-3.77528e-07
1.12254e-06
-3.84475e-07
8.77212e-07
3.72504e-06
1.33839e-07
1.88025e-06
5.4516e-07
1.00638e-06
6.40959e-07
1.31955e-07
-8.3943e-07
-3.06936e-06
-3.33742e-06
-2.90268e-06
-2.07135e-06
-3.08812e-06
-3.29476e-06
-9.33893e-07
-1.29077e-06
5.15734e-07
-1.11479e-07
-1.1771e-06
-9.283e-07
7.14836e-07
4.63306e-07
1.58075e-06
1.52407e-06
1.91915e-06
1.02162e-06
2.23851e-06
1.226e-06
7.1616e-07
5.17809e-07
1.80432e-06
1.23132e-06
-7.0229e-07
1.14065e-06
1.14608e-06
-1.47142e-06
-3.48896e-06
-3.60811e-06
-1.72842e-06
-1.26296e-07
-1.7793e-06
-2.50077e-06
-2.60446e-06
-1.37033e-06
-8.57815e-07
-8.54131e-07
-7.24577e-07
6.72048e-07
2.28158e-07
1.57856e-06
1.48025e-06
1.38584e-06
8.79959e-09
1.27772e-06
-7.38962e-08
9.60222e-07
1.35643e-06
1.60824e-06
1.95128e-06
1.156e-06
-9.40792e-07
9.90039e-08
-4.82569e-07
-5.99975e-07
4.33069e-07
-6.95518e-07
1.44736e-07
-1.95703e-06
-5.35561e-07
1.67209e-06
5.03911e-08
4.89643e-07
-7.78995e-07
-2.13979e-06
1.83012e-06
-1.76768e-07
2.46675e-06
1.82895e-06
2.39803e-06
-3.85433e-07
1.70145e-06
1.45149e-06
4.17222e-07
1.24305e-06
-1.09096e-06
2.80203e-06
1.42588e-06
1.14316e-06
1.25163e-06
1.72297e-06
2.62461e-06
4.94294e-07
9.93642e-07
-3.32724e-07
9.68951e-07
4.72175e-07
5.028e-07
2.12801e-06
2.16411e-06
1.5303e-07
8.41804e-07
9.42306e-08
2.6443e-06
1.26479e-06
1.82624e-06
-8.38561e-07
-1.21663e-06
-6.76819e-07
-8.47181e-08
-5.19739e-07
8.32926e-07
1.00756e-06
1.75057e-06
1.08641e-06
2.43093e-06
2.26339e-06
1.44331e-06
1.98825e-06
1.31777e-06
6.53198e-07
7.7857e-07
2.67553e-06
-8.39413e-07
2.82784e-06
8.88361e-07
-2.84833e-07
1.33381e-06
5.52202e-07
-4.81692e-07
8.86223e-07
1.92749e-06
-4.73818e-07
2.42204e-09
4.84969e-07
2.63799e-06
7.87786e-07
7.10982e-07
2.52201e-06
-9.06316e-07
3.72866e-07
3.70536e-07
1.59603e-06
-2.10728e-07
1.6556e-06
1.44442e-06
1.52208e-06
-1.71234e-06
1.61764e-06
-8.04763e-07
-6.6299e-07
1.57276e-06
5.39372e-07
1.11544e-06
2.75551e-06
2.37773e-06
4.02024e-07
2.22311e-06
1.13804e-06
-3.04069e-07
1.98405e-06
6.73565e-07
4.43276e-07
5.15767e-07
3.30771e-06
5.31602e-07
2.95705e-07
-5.39733e-07
-1.73736e-06
1.09916e-06
-3.57487e-07
-1.1971e-06
-6.24946e-07
-2.20825e-07
1.34946e-06
-1.85042e-06
-2.58654e-07
-7.68018e-07
1.34758e-06
-1.48011e-06
1.56423e-06
9.82203e-09
9.13406e-07
1.0108e-06
-1.72125e-06
-3.00198e-07
1.88568e-07
9.45248e-07
3.42454e-07
-7.16364e-07
-4.61698e-07
1.13868e-06
2.45493e-08
-4.11312e-08
1.61215e-06
-4.7031e-07
1.12903e-06
-1.95398e-06
1.44746e-06
6.13906e-07
-4.85183e-07
1.34142e-06
6.34916e-07
-1.07209e-07
-5.54508e-07
-2.38292e-07
-9.64965e-07
5.43259e-07
3.91361e-07
6.88991e-07
-4.28814e-07
2.94721e-08
1.93669e-06
3.33533e-07
-9.40604e-07
-2.94769e-07
-5.36657e-07
2.29126e-06
1.38175e-06
8.35974e-07
3.01552e-07
5.72912e-07
-5.16251e-07
-1.12244e-06
9.19348e-07
-7.02019e-07
7.75867e-07
-8.01473e-07
6.73844e-07
1.98545e-07
-2.37645e-06
-1.21737e-06
-1.58889e-06
-4.66285e-07
6.27218e-07
7.98655e-07
9.2227e-07
4.76905e-07
-6.79907e-07
-1.33518e-06
8.29214e-07
1.16035e-06
2.19785e-06
-2.04143e-06
2.94266e-07
2.25286e-06
2.86962e-06
2.82186e-07
-3.2547e-07
-1.0175e-06
8.16119e-07
-2.33716e-06
3.86083e-07
1.36736e-06
-1.41259e-06
-3.5303e-07
-2.50016e-07
-3.17959e-07
3.99903e-07
-1.33174e-06
1.5617e-07
7.22719e-07
-1.15801e-07
1.0851e-06
9.02713e-07
2.34202e-07
-1.78704e-06
-6.09942e-08
-1.21264e-06
1.07503e-06
7.66351e-08
-1.51032e-06
-2.74527e-07
7.34384e-07
1.42227e-06
-2.05892e-06
9.52105e-07
-5.0515e-07
-1.40822e-08
-1.31458e-06
-3.0007e-07
-5.62659e-07
9.95183e-07
1.37743e-07
7.91633e-07
3.19271e-07
1.20835e-06
-9.473e-07
9.27794e-07
7.91175e-07
-2.17279e-06
-3.63554e-07
-9.3315e-07
-1.31618e-06
3.37946e-07
1.46216e-06
7.35173e-07
-6.48286e-07
7.88713e-07
2.67139e-08
-2.96217e-08
3.9094e-07
4.41313e-07
-1.92644e-06
-6.79572e-07
-5.13767e-07
-1.45209e-06
-3.84663e-08
-6.68112e-07
-1.47236e-07
7.92716e-07
-2.04258e-06
-2.51025e-07
-1.05733e-06
-1.8275e-06
5.90155e-07
-1.38401e-08
1.60105e-06
1.3199e-06
1.71972e-06
6.02416e-07
-2.38618e-07
1.58823e-06
3.08494e-08
3.55885e-07
1.01956e-06
3.69395e-06
1.44305e-06
-8.91032e-07
-1.16196e-07
1.00198e-07
-1.94616e-06
-1.42977e-07
8.53915e-07
9.80989e-07
2.23676e-06
-2.31275e-06
-1.79698e-06
-9.92465e-07
2.30587e-07
-7.59136e-07
5.17656e-07
2.00669e-06
-1.31851e-06
7.72364e-08
7.97081e-07
-8.23682e-07
1.40506e-06
8.39169e-07
-7.32299e-07
1.76782e-06
4.05217e-07
-3.95172e-07
1.12972e-06
1.95982e-06
3.21862e-08
5.36584e-07
-2.17901e-06
-9.78655e-07
-3.50746e-07
7.70031e-09
-1.09594e-06
5.34673e-07
1.86335e-07
1.18805e-06
2.35811e-07
1.77745e-06
7.59219e-07
9.93117e-07
-1.53191e-07
-2.43617e-07
2.02796e-06
-7.49838e-07
1.97631e-07
1.05515e-06
1.6318e-06
5.39036e-07
-4.69256e-07
1.33154e-06
1.64134e-06
-1.78882e-07
-8.72687e-07
2.41564e-06
8.65799e-07
-2.74898e-07
4.73977e-07
-5.53736e-07
-3.27549e-07
9.02868e-08
4.25731e-07
-8.27236e-07
1.1706e-06
3.008e-07
8.65616e-07
2.29567e-07
1.41649e-06
-1.15444e-06
4.07832e-07
7.23966e-07
3.86233e-07
1.32009e-06
-3.23228e-07
1.60086e-06
1.43407e-06
-5.13358e-07
1.63562e-06
-6.0587e-07
-1.02513e-06
2.52459e-06
3.12492e-08
7.82109e-07
-2.43877e-06
-1.26573e-06
2.69761e-07
-8.54883e-07
1.04862e-06
4.40149e-07
4.41035e-07
-1.83844e-06
-6.26914e-07
-6.13329e-07
-2.19106e-06
-8.54863e-07
3.59829e-07
-5.70056e-07
2.04017e-07
9.57334e-07
4.1022e-07
-3.78677e-06
-9.61794e-07
-2.59911e-07
3.41931e-07
2.99279e-07
2.06623e-06
8.89585e-07
2.66729e-07
1.86436e-06
2.4484e-07
-1.08843e-06
-2.50411e-06
-1.0089e-06
8.09266e-07
1.15083e-06
-1.11187e-06
-7.07786e-07
-1.07695e-06
-7.75656e-07
1.49896e-06
8.65645e-07
8.05714e-07
3.87813e-07
8.09832e-07
7.15169e-07
-4.75624e-07
4.30594e-07
2.4019e-06
8.55291e-08
2.1135e-07
1.9462e-06
-1.31769e-06
-4.8531e-07
-3.7144e-07
7.08676e-07
-3.39921e-07
1.36193e-06
-3.15374e-06
-1.44216e-06
1.723e-07
7.41312e-07
1.17102e-06
7.5496e-07
-8.03368e-07
6.03461e-07
-2.83477e-07
1.73285e-06
-2.15666e-07
2.22552e-07
1.92801e-06
5.47797e-07
1.36798e-06
5.23075e-07
-1.2682e-07
-3.17507e-07
9.3613e-07
1.83102e-06
8.50082e-07
2.46614e-07
-2.95355e-07
1.48377e-06
-1.45748e-07
1.06354e-06
2.98153e-07
-2.11188e-06
-7.20502e-07
-7.73129e-07
2.92168e-07
4.206e-07
1.39096e-06
-1.38696e-06
1.60523e-06
-1.36208e-07
-4.81378e-07
-4.47787e-09
1.76546e-06
-1.01986e-06
5.07963e-07
8.11169e-07
-2.96813e-07
-5.17775e-07
1.43453e-07
1.23034e-06
-1.52092e-07
8.57887e-07
1.58214e-06
1.30941e-06
1.00065e-06
-2.80654e-07
-4.24765e-07
-5.76151e-08
-2.4081e-06
-9.69451e-07
-3.68429e-06
-4.39929e-07
-5.66856e-07
3.14943e-06
1.01637e-06
5.92286e-07
1.36212e-06
6.07056e-08
8.54448e-07
4.54148e-07
-1.93521e-06
-3.37178e-07
2.82065e-07
-1.16357e-06
2.59526e-07
2.73972e-06
6.06763e-07
1.95819e-06
1.31196e-06
2.78634e-07
2.14381e-06
1.76756e-06
2.05605e-06
-9.93523e-07
-1.84322e-06
-1.5044e-06
-1.7856e-06
-1.40102e-06
-3.05673e-06
-1.38759e-06
2.47321e-06
3.01449e-06
8.49075e-07
8.3779e-07
7.8619e-07
6.78639e-08
-2.50522e-07
5.09407e-07
-9.78636e-08
1.09674e-06
-1.28044e-06
8.96813e-07
-1.09237e-06
2.38184e-07
1.96975e-08
-2.86436e-07
4.4333e-07
4.06154e-06
2.52472e-06
3.13692e-07
2.59724e-06
-2.67327e-07
-2.23596e-06
-2.72496e-06
-2.92018e-06
-3.18559e-06
-1.35454e-06
1.98867e-07
1.63553e-06
3.29813e-06
4.19512e-06
2.38661e-06
-9.97387e-07
-6.26183e-07
2.09061e-06
9.19741e-07
2.59203e-07
1.2893e-06
4.29283e-08
4.79565e-07
3.27351e-07
6.48481e-07
-3.33926e-07
1.55127e-06
1.80516e-06
2.12912e-06
1.728e-06
6.0269e-07
-1.65936e-08
-1.25793e-06
-3.44276e-06
-4.22812e-06
-2.06504e-06
-1.19759e-06
-3.81392e-07
1.05448e-06
-9.59093e-08
1.50405e-06
2.55415e-06
6.50014e-07
-3.3888e-08
6.34563e-07
-2.58734e-07
2.03324e-07
-1.49328e-06
-5.09576e-07
-1.86629e-07
3.37155e-07
4.34838e-08
5.21251e-07
2.60115e-07
1.98353e-06
3.09577e-06
1.75199e-06
1.72484e-06
-7.42992e-07
-2.52673e-07
-2.54858e-06
-3.60603e-06
-2.96895e-06
-2.62734e-06
-1.92291e-06
1.01159e-06
1.87139e-06
3.55951e-08
2.03989e-06
2.01825e-06
1.61809e-06
3.15669e-07
1.1862e-06
-1.14608e-06
2.34728e-06
-1.07746e-06
1.34498e-06
3.09077e-07
7.63081e-08
2.50102e-06
-3.46534e-07
1.06606e-06
1.20962e-08
1.51893e-06
1.67948e-06
-4.84568e-07
-5.43709e-07
1.17843e-06
-1.28522e-06
-2.8123e-06
-4.46865e-06
-1.55305e-06
-4.93524e-07
1.45083e-06
2.28292e-06
2.2393e-06
2.02185e-07
2.40714e-06
4.38638e-07
1.2582e-06
7.08467e-07
-8.29534e-07
-2.8352e-06
1.08492e-06
1.4253e-06
6.03049e-07
5.63475e-08
4.36657e-07
4.72697e-07
1.59663e-06
3.37877e-07
1.56087e-06
1.24497e-06
-1.37715e-06
-1.28199e-06
-1.21851e-07
1.43592e-06
-2.11648e-06
-3.00082e-06
-1.93681e-06
-7.74608e-07
2.17637e-06
2.80636e-06
3.08639e-06
9.38812e-08
1.35864e-06
1.51332e-06
1.4388e-06
1.22617e-06
7.65636e-07
1.06072e-06
-1.65828e-06
-1.57326e-07
-1.9342e-06
5.79228e-07
6.14047e-07
-1.80119e-06
2.0707e-07
-2.98087e-07
4.90831e-07
1.72478e-06
2.75291e-07
-1.17531e-08
-2.06443e-06
-1.69371e-06
-3.52979e-06
-2.22395e-06
-2.55013e-06
-5.29472e-07
1.54862e-06
3.07133e-06
4.46488e-09
3.49616e-07
2.12587e-06
-6.20928e-07
-8.09522e-07
1.59989e-07
-4.011e-07
-1.01384e-06
6.83052e-07
-8.18063e-07
-7.48195e-07
-7.38987e-08
-7.049e-08
1.31317e-06
1.40903e-06
1.45735e-06
5.94727e-07
1.50184e-06
1.8389e-06
-6.33512e-07
-9.81386e-07
-4.4724e-07
-1.67334e-06
-1.44318e-06
-7.76218e-07
2.05313e-06
1.833e-06
2.6671e-06
9.36788e-07
1.58838e-06
-6.29807e-09
1.05891e-06
-1.65402e-06
7.9781e-07
4.32306e-07
-1.76115e-06
-2.86037e-07
-4.80041e-07
1.48366e-06
2.86632e-07
7.92772e-08
-8.5725e-07
-9.52966e-07
-2.08645e-07
1.80486e-06
-5.66787e-07
-5.35599e-07
-2.6934e-06
-2.80138e-06
-1.08467e-06
-8.5059e-07
-1.15549e-06
1.92898e-06
2.61789e-06
9.95979e-07
6.17508e-07
7.18826e-07
2.7693e-06
-4.22633e-07
-8.99054e-08
-5.71792e-07
1.06046e-06
-1.50997e-06
2.71463e-07
-1.6944e-07
6.76863e-07
-1.11611e-06
-9.70088e-07
1.71973e-06
1.48563e-06
-1.05423e-06
4.27023e-07
1.79902e-06
8.5849e-07
-1.93469e-07
1.12134e-06
1.93624e-06
-7.5614e-08
-1.82648e-06
-8.07408e-07
2.44792e-06
-5.44819e-07
1.69245e-06
1.9079e-06
1.59088e-06
1.31807e-06
2.53717e-06
-1.36175e-06
1.89564e-07
-9.98633e-08
1.93403e-06
4.62438e-07
-2.01888e-06
9.70034e-07
-3.6186e-07
3.39632e-07
4.31004e-07
-9.59996e-07
7.20262e-07
-7.70534e-08
2.80654e-07
4.26263e-07
1.82287e-06
3.89262e-07
5.20653e-07
7.84105e-07
1.47735e-06
7.34347e-07
2.39989e-06
2.14743e-07
1.68123e-06
-2.11076e-07
-1.31445e-06
-1.17771e-06
1.47431e-06
-4.25509e-07
2.94932e-08
7.91574e-07
6.75123e-07
1.72908e-06
-9.77104e-07
-5.43e-07
9.69715e-07
-1.23319e-07
1.46442e-06
4.1918e-07
-1.11647e-06
4.47335e-07
-6.1088e-08
-5.51945e-07
-3.29145e-07
-2.33425e-07
1.44607e-06
3.84637e-07
1.02578e-06
1.23371e-06
-7.24549e-08
1.91216e-08
1.12379e-06
1.16243e-06
1.56745e-06
1.26003e-06
1.16824e-06
3.11595e-07
2.94062e-08
7.48472e-07
-5.15296e-07
1.24628e-06
2.14074e-07
1.44943e-06
2.01089e-07
1.83414e-06
-1.56441e-07
-7.10335e-07
6.30734e-07
5.73036e-07
6.23292e-07
-7.80834e-07
7.08028e-07
2.12471e-07
-1.52532e-06
-2.44966e-07
-5.78056e-07
-1.78854e-06
-8.58577e-07
-7.00838e-07
-8.18235e-07
1.44917e-06
2.74007e-07
2.9523e-07
6.06454e-07
-2.03373e-08
9.90381e-07
-1.35202e-07
-4.96492e-07
-1.08734e-06
-1.79774e-07
5.1366e-07
8.02817e-08
2.64327e-07
-5.69946e-08
1.50864e-07
1.71666e-06
1.00054e-06
-6.25733e-07
1.46898e-07
-5.08821e-08
-8.07893e-08
6.71917e-08
-4.05431e-07
-1.15447e-06
-9.43557e-07
-1.43068e-06
-6.8828e-07
3.11223e-07
3.65624e-07
-4.06237e-07
5.46237e-07
1.92577e-06
1.21432e-06
-8.81477e-07
-1.391e-06
-1.32193e-06
1.01211e-06
8.33955e-07
-4.04633e-07
-7.71519e-07
-1.69759e-06
-1.17255e-06
-2.21137e-06
-9.66119e-07
7.15726e-07
6.73506e-07
7.75999e-08
8.07732e-07
-1.93326e-06
-1.09531e-06
1.75898e-07
-1.10966e-07
3.88228e-07
-1.35643e-06
-6.24858e-07
6.535e-07
-1.6881e-07
-6.34603e-07
-8.32694e-07
8.54768e-07
-1.11352e-06
-1.92187e-06
-1.202e-06
-6.86913e-07
8.08541e-07
-1.77356e-07
-1.85479e-06
-2.70642e-06
-1.63551e-07
1.23757e-07
-1.72732e-07
-9.09612e-07
-1.37145e-06
6.14165e-08
1.50993e-07
-3.65532e-07
-1.55773e-06
-3.03362e-07
1.2563e-06
7.88011e-07
-9.28974e-07
1.33376e-06
1.26503e-06
-2.46412e-06
6.14555e-07
1.22609e-06
-3.56838e-08
-5.94541e-08
-1.43873e-06
8.37548e-07
-5.26982e-07
6.72222e-07
-1.93684e-06
5.27036e-07
-1.5831e-07
-1.52315e-06
4.54737e-07
-1.82558e-07
-1.15894e-06
-9.42062e-08
-1.27414e-06
7.80876e-08
-1.99029e-06
-8.36069e-07
-1.08018e-06
-1.14799e-06
6.40986e-07
5.99029e-08
-4.54245e-07
-1.64452e-08
8.14951e-07
-1.1468e-06
-1.70187e-06
-1.32648e-06
1.10889e-06
-1.99705e-06
-1.14319e-06
-2.42909e-06
-5.95361e-07
-1.28221e-06
-8.44631e-07
7.53107e-07
2.59464e-07
5.20866e-08
-8.32125e-07
-9.77888e-07
5.40431e-07
7.51249e-07
-1.23747e-06
1.3437e-07
-3.76027e-07
-3.42274e-07
-1.34359e-06
-8.76556e-07
5.44815e-07
9.96655e-07
3.50384e-07
-2.58592e-06
-2.81908e-06
-6.97579e-07
-2.59057e-06
3.35801e-07
-3.22131e-07
-1.8252e-06
1.12764e-07
-9.19119e-07
-2.46132e-07
-7.5128e-07
1.10991e-06
3.45269e-07
-7.13795e-07
4.93839e-07
1.09053e-06
3.34768e-09
1.65346e-07
-2.07686e-06
-3.50664e-07
3.74653e-07
-1.27151e-06
5.48286e-07
-9.71564e-07
1.38561e-07
-8.90034e-08
-1.05663e-06
-4.78279e-07
-2.20584e-06
-8.7578e-07
-7.04066e-07
-1.83232e-06
-5.67428e-07
-4.64034e-07
-8.18346e-07
1.35177e-07
-1.24664e-08
4.64311e-07
-5.58871e-07
4.26346e-07
-1.11655e-06
3.67871e-07
-9.82995e-07
3.8395e-07
8.56368e-07
-1.90508e-07
-4.56554e-07
-5.72046e-07
-4.86835e-07
-1.03862e-07
1.21479e-06
1.20151e-07
-1.15344e-06
3.68537e-07
-8.70512e-07
8.71714e-09
1.45759e-06
-1.88055e-06
-2.88606e-06
-6.66697e-07
-9.57177e-07
4.47857e-07
4.57307e-07
2.25198e-07
1.01044e-07
-1.94211e-06
6.99886e-07
6.57571e-07
3.31116e-09
1.35842e-07
-8.5044e-07
9.77028e-07
1.61227e-06
-1.90076e-07
1.00235e-06
-1.59904e-06
-1.48537e-06
6.72091e-07
2.2759e-07
-7.22576e-07
-1.72619e-07
1.95253e-06
-2.02378e-06
5.95376e-07
-2.30395e-07
2.09203e-06
7.70899e-09
1.14159e-06
-1.75893e-06
-1.56547e-06
-1.02286e-07
-1.00095e-06
-4.67609e-07
4.7645e-07
4.91824e-07
1.9389e-06
1.62457e-06
3.3184e-08
-7.94253e-07
-8.84594e-07
-1.18474e-06
2.41408e-07
6.79102e-08
6.5504e-07
-9.30429e-09
1.31925e-06
1.66163e-06
1.58985e-06
1.65429e-06
4.96754e-07
-5.18199e-09
2.44215e-06
1.44972e-06
-5.1276e-07
1.15212e-06
1.72706e-06
1.32752e-06
1.80346e-06
5.89582e-07
1.38924e-06
-1.15095e-06
-2.43338e-07
-1.98786e-06
-1.46117e-06
-6.42103e-07
9.20598e-08
1.28147e-06
5.37513e-07
-5.66984e-07
2.77495e-06
-1.7575e-07
-3.20638e-07
1.41669e-06
1.67114e-06
1.69839e-06
2.6587e-06
1.54455e-06
1.74375e-06
1.9584e-07
2.71814e-06
2.67143e-06
1.80077e-06
3.87722e-06
1.82935e-06
3.1166e-06
4.10839e-06
6.95576e-07
6.74071e-07
-1.03212e-06
6.01549e-07
5.71585e-07
-5.3896e-08
9.38187e-08
5.15072e-07
6.14586e-07
-6.9924e-07
8.93558e-07
2.3148e-07
-1.19056e-06
9.93457e-07
-1.10232e-06
1.15544e-06
1.81065e-06
2.65905e-06
2.61344e-06
3.05859e-06
2.16151e-06
2.14798e-07
2.41607e-06
4.42652e-06
2.25521e-06
1.85685e-06
3.33573e-06
4.94149e-06
1.24409e-06
1.07507e-06
1.80783e-06
-1.18302e-06
-1.48179e-07
-7.49453e-07
-2.61113e-06
-7.65045e-07
1.50569e-07
1.70345e-06
-1.55169e-06
1.06952e-06
1.31434e-06
8.39448e-07
1.09372e-06
-6.43077e-07
2.52749e-06
2.86547e-06
1.07026e-06
1.52208e-06
2.38654e-06
7.43873e-07
2.45915e-06
1.30426e-06
2.68711e-06
1.33393e-06
3.03249e-06
3.94671e-06
1.63825e-06
5.57321e-07
3.11845e-07
1.47356e-06
-9.34701e-07
-3.10676e-08
1.57289e-06
8.59347e-07
-1.28521e-06
-1.24234e-06
-1.33912e-07
2.56083e-07
-2.66462e-07
1.1264e-06
1.28839e-06
2.55951e-06
1.46388e-06
3.15805e-06
3.71411e-06
1.552e-06
2.14794e-06
-1.49396e-06
-6.93763e-07
2.53159e-07
1.15985e-06
4.00892e-06
3.40872e-06
3.85796e-06
2.459e-06
-1.79873e-06
2.20302e-07
2.1071e-06
6.75788e-07
-4.79951e-09
-4.27435e-07
-1.2704e-08
-1.23666e-06
5.93868e-07
-6.073e-07
-6.07143e-07
1.64075e-06
-1.61449e-06
8.45778e-07
3.77071e-07
7.79153e-07
1.76132e-06
2.00758e-06
6.86779e-07
-5.11599e-07
1.11224e-06
-1.12951e-06
7.70988e-08
1.66442e-06
3.01109e-06
2.96236e-06
1.76561e-06
1.19332e-06
-1.87241e-06
-1.68417e-06
-7.61155e-07
2.85914e-08
-5.32899e-07
8.29062e-07
-6.68004e-07
9.18978e-08
4.70718e-07
-1.05563e-06
9.52464e-07
9.85438e-07
6.39315e-07
1.14477e-06
-9.42085e-07
2.27277e-06
1.74513e-06
1.89861e-06
3.95681e-07
1.45703e-06
1.5742e-06
5.82602e-08
5.67599e-07
1.94268e-06
3.06221e-06
6.31513e-07
-1.02366e-06
-6.26015e-07
6.61948e-07
-9.6604e-07
-1.25904e-06
-2.22648e-07
-9.50838e-07
1.79718e-07
2.85969e-07
-6.65077e-07
-2.11265e-06
-6.22554e-07
4.92355e-07
-7.69267e-07
2.4946e-06
1.19158e-06
1.50102e-06
5.00858e-07
2.15153e-06
1.96361e-06
1.54716e-06
-5.61549e-07
2.49984e-07
3.23071e-07
1.30759e-06
3.71317e-06
1.93898e-06
-7.05736e-07
1.2383e-06
4.1759e-09
-2.64953e-07
7.9182e-07
5.27657e-07
2.23316e-08
-1.10749e-06
-2.9744e-07
1.46095e-06
-1.82386e-06
1.18416e-06
-3.09663e-06
-7.56031e-07
-5.53943e-07
-9.2422e-07
9.2814e-07
-2.61581e-07
2.79403e-06
6.07973e-07
1.13958e-06
1.90936e-06
-1.02203e-06
-2.08708e-06
-9.87997e-07
1.41259e-06
3.40354e-06
-8.15165e-08
-1.51035e-06
2.05778e-06
-1.83997e-06
4.31734e-07
5.9923e-07
1.32129e-06
-7.32862e-07
3.85964e-07
7.40399e-07
-4.48039e-07
-8.06449e-07
-2.51028e-06
6.15307e-07
-5.44426e-07
-6.73406e-07
-1.24304e-06
8.63752e-07
1.45278e-06
2.10192e-06
8.6825e-07
-4.27832e-07
7.09964e-07
-2.67339e-06
-1.7714e-06
1.58545e-06
1.82817e-06
1.5392e-06
1.87677e-06
4.45189e-07
5.15214e-07
-2.5109e-07
-8.72236e-07
1.42553e-06
-3.64454e-07
2.26804e-07
1.19672e-06
-1.46185e-06
-8.80222e-07
-1.66194e-06
-1.4317e-06
-1.37165e-07
1.51838e-06
-7.85179e-08
6.17035e-07
1.337e-06
4.8406e-07
7.45415e-07
7.94765e-07
1.08905e-06
1.44218e-07
-3.69078e-06
-3.85578e-07
1.83177e-06
-6.98276e-08
1.2488e-06
2.11045e-06
1.59891e-07
1.13638e-06
-8.5428e-07
-3.52056e-07
-3.05979e-07
-1.19803e-06
-4.42366e-07
-1.76278e-06
-2.48085e-06
-1.98651e-07
7.1453e-07
8.97215e-07
-1.0351e-06
-5.20245e-07
-1.6805e-06
5.05135e-07
1.00016e-06
1.49148e-06
1.89633e-06
-1.89745e-07
2.28452e-06
-1.01453e-06
-3.15465e-06
-9.62489e-07
7.213e-07
1.65618e-06
3.86817e-06
2.36271e-08
1.38182e-06
-4.38436e-07
1.94038e-06
-3.99349e-07
1.80317e-06
-9.5466e-07
-8.4558e-07
-2.39524e-06
-1.45174e-06
-1.24824e-06
5.52375e-07
-5.88569e-07
9.73733e-07
-1.10187e-06
-1.0896e-06
1.1723e-07
7.26986e-07
-2.51057e-07
-1.08827e-06
-6.41398e-07
7.86564e-07
-1.97696e-07
-1.75233e-06
-1.97539e-06
1.77115e-06
3.3373e-07
2.27403e-06
-4.11081e-07
-2.25055e-07
8.5457e-07
3.77463e-07
7.62038e-07
-6.61772e-08
-5.35065e-07
-8.95641e-07
-3.87148e-08
-3.34529e-06
-1.44374e-07
2.92357e-07
1.01318e-06
-3.0661e-06
-1.08325e-06
1.05551e-06
-3.95522e-07
1.19968e-06
1.9349e-06
-4.91889e-07
2.5224e-07
-2.23467e-06
-2.99644e-06
-1.90181e-06
4.67438e-07
1.21084e-06
1.75127e-08
1.87907e-06
-3.14606e-07
-8.3798e-08
9.56376e-07
7.29135e-07
4.22219e-07
1.2192e-06
4.31243e-07
-1.29209e-06
9.61359e-09
-2.60363e-06
1.65894e-07
6.54082e-07
-1.39346e-06
1.93343e-06
2.39579e-07
1.98572e-06
2.03423e-06
4.04208e-07
1.43515e-06
1.83086e-06
-3.65083e-06
-3.78996e-06
-1.19679e-06
-8.67343e-07
-3.50931e-08
2.2909e-07
3.13093e-07
-1.79228e-07
2.22022e-06
-6.88784e-07
6.25345e-07
1.49763e-06
-3.27683e-07
1.96309e-06
1.27478e-07
7.5296e-07
5.35349e-07
-3.14682e-07
-5.99843e-07
-2.66338e-07
-4.15186e-07
-1.6819e-06
1.24373e-06
1.32631e-09
3.5517e-07
4.04907e-07
2.51437e-08
6.07395e-07
-1.12395e-06
-1.06049e-06
-3.53126e-07
-4.35924e-07
8.38615e-07
2.5804e-06
8.47743e-07
6.78291e-07
-9.52618e-08
4.27386e-07
2.41188e-06
5.16698e-07
6.21313e-07
-4.78741e-07
-9.67799e-07
-9.42639e-07
8.72852e-07
2.10267e-06
-1.95829e-06
3.04421e-07
-8.04498e-07
-1.19169e-06
-2.14746e-07
-1.08538e-07
9.33306e-07
1.03964e-06
1.97521e-06
1.1412e-06
2.12206e-06
1.51949e-06
3.94318e-06
2.54692e-06
2.87186e-06
2.62435e-06
2.02762e-06
1.47584e-07
3.30968e-07
1.18989e-07
1.0617e-06
2.13838e-06
-9.6265e-07
1.11074e-06
-4.44463e-07
2.33693e-07
-1.3731e-07
-1.00322e-06
1.29318e-06
-1.97051e-07
4.37139e-07
7.86316e-07
4.40093e-07
7.96475e-07
-1.06924e-06
2.0122e-06
1.03758e-06
9.22453e-07
2.80246e-06
2.4036e-06
1.95501e-06
3.97711e-06
3.47551e-06
2.20298e-06
2.62523e-06
1.17348e-06
-6.67256e-07
4.70169e-07
-1.42365e-06
1.18798e-06
-5.58556e-07
8.29268e-07
1.35005e-06
-6.42947e-07
1.04343e-06
-1.38307e-06
-5.05876e-08
4.61638e-07
3.52228e-07
2.83729e-07
-3.85079e-07
1.66889e-07
-1.22502e-06
1.72467e-06
1.35167e-06
6.66642e-07
2.96471e-06
2.33987e-06
5.03708e-08
1.57168e-06
3.82098e-07
1.0903e-06
6.26706e-07
2.23539e-06
-7.35584e-07
8.96786e-08
-3.27722e-07
-7.89857e-07
7.84958e-07
-6.96419e-07
1.48421e-06
-1.59409e-08
-7.18852e-07
-2.93202e-07
1.43079e-07
9.24321e-08
-1.02815e-06
-1.98467e-07
-1.14875e-06
-1.5166e-07
1.62862e-06
1.47727e-06
6.04463e-07
7.54852e-07
1.70036e-06
5.55069e-07
5.07421e-07
5.44905e-07
2.38437e-06
4.79383e-07
-6.77931e-07
-1.20632e-06
1.0417e-06
-8.80025e-07
-5.70124e-07
-3.90352e-07
-1.27156e-07
-8.68508e-07
-5.04305e-07
1.24921e-06
3.05108e-07
-1.12445e-06
2.09547e-07
-4.5146e-07
-5.49298e-07
2.15691e-06
2.77622e-07
1.0307e-06
2.86586e-06
8.06386e-07
-6.86233e-07
-5.18337e-08
-2.84141e-07
7.15961e-07
-2.07232e-08
-1.45387e-06
-2.34189e-07
3.03672e-07
-1.77007e-06
1.11595e-06
1.36721e-06
-5.55065e-07
-1.5427e-06
-2.13537e-06
-1.47637e-06
-1.18406e-06
-1.15052e-06
1.45895e-06
-4.75875e-07
-2.0243e-06
-1.22362e-06
-1.64323e-06
5.39723e-07
1.13582e-07
1.44886e-07
-1.27418e-07
2.82151e-07
7.70602e-07
2.93663e-07
8.88194e-08
-2.39321e-06
-2.60794e-07
2.05855e-06
2.43627e-06
3.5529e-07
2.64855e-07
6.31388e-07
-1.3286e-06
3.78687e-07
1.80905e-06
-2.34134e-06
-3.83199e-07
-9.41194e-07
4.13919e-07
6.15115e-07
-1.56615e-06
-9.15748e-07
1.07871e-06
7.15056e-08
-1.05318e-06
-1.28608e-06
-9.47346e-07
-5.93982e-07
-1.26152e-06
5.70264e-07
-7.28737e-07
1.75535e-06
1.52361e-09
-4.58679e-07
3.94437e-08
-1.20377e-06
-5.45043e-07
2.25552e-07
-6.02038e-07
-1.23902e-06
-2.13191e-06
8.33984e-08
-4.99154e-08
-1.904e-06
-1.29109e-06
2.40297e-06
1.63084e-06
-1.77627e-07
-9.74007e-07
5.97295e-07
-9.42657e-07
1.02785e-06
-1.51246e-07
-1.24834e-06
7.78599e-08
-7.41018e-07
-2.39415e-07
1.59463e-07
1.43298e-07
-1.93298e-07
-9.08247e-07
-2.52192e-07
-2.22196e-06
2.63789e-06
-1.38771e-06
-6.00692e-07
-6.34279e-07
-5.84931e-07
6.81364e-07
1.27669e-06
-1.1786e-07
-3.07906e-07
-7.81568e-07
-3.96314e-07
3.77055e-07
2.58898e-07
5.31358e-08
-3.51036e-07
-1.97769e-06
-7.76306e-07
2.27498e-07
1.49723e-07
1.46329e-06
-1.4768e-06
-1.87913e-07
-1.41069e-06
9.6855e-07
1.68423e-06
-4.62094e-07
-1.90094e-07
-2.09794e-07
2.0272e-07
-1.15517e-06
3.62399e-07
-1.41284e-06
-1.55212e-06
1.32265e-07
-8.33491e-07
-1.52153e-07
1.31603e-06
1.82537e-07
-7.9269e-07
1.33543e-06
9.25376e-07
-1.65774e-06
-7.08018e-07
1.22406e-06
-1.48436e-06
-1.44045e-06
2.60357e-07
-1.83011e-06
-2.46358e-07
-1.59587e-06
5.15855e-07
9.56925e-07
-2.36717e-07
-1.30182e-06
-3.05926e-08
2.94366e-07
3.31894e-07
-8.71065e-07
-4.24757e-07
9.60903e-07
-7.02168e-07
-1.02005e-06
-1.5537e-06
4.28252e-07
1.37865e-07
-2.25589e-06
-2.42419e-08
-2.00083e-06
8.47291e-07
-4.67026e-07
-1.16201e-06
-1.42109e-07
-4.80882e-07
-7.91301e-08
1.8762e-07
-7.32371e-07
-7.54328e-08
-1.60272e-06
1.01246e-07
-2.72058e-06
-1.86426e-06
-1.2932e-07
-6.78685e-07
9.67663e-07
-1.06047e-06
1.017e-06
3.01917e-06
8.7376e-07
1.67646e-06
-2.12801e-06
1.18106e-08
6.89221e-07
2.85132e-06
-9.48148e-07
-6.59989e-07
8.71057e-07
4.547e-07
-1.50712e-06
3.49983e-07
-2.53961e-07
-4.74383e-10
1.38397e-07
-1.29231e-06
-1.1593e-06
-1.39361e-06
-9.4322e-07
-6.43168e-07
-5.51471e-07
-9.44744e-07
1.1714e-06
-1.46254e-06
-2.04049e-06
6.05024e-07
-1.54201e-06
1.38901e-06
1.07309e-06
5.51931e-07
5.43009e-07
-3.16623e-07
8.95463e-08
-8.64258e-07
-1.66312e-06
-4.39456e-07
7.97612e-08
1.18265e-06
1.59584e-07
-3.09879e-07
-2.9265e-07
-1.79464e-06
-1.6282e-06
-7.48028e-07
7.23121e-07
-1.65723e-07
-1.28296e-06
-1.32473e-06
-2.86156e-07
9.61453e-07
-1.92454e-06
-1.34799e-06
-5.23405e-07
-4.98057e-07
1.73947e-06
1.02628e-06
1.7526e-06
2.09077e-06
1.741e-06
7.53934e-07
3.26872e-08
-1.39674e-06
-2.89774e-07
9.63607e-07
8.18129e-07
-9.13271e-07
-5.17225e-07
-1.77284e-07
-2.82974e-06
2.31407e-07
-3.83486e-07
7.23143e-07
1.01119e-06
-1.19538e-06
-6.16407e-07
-9.26364e-07
-1.98061e-07
-1.59901e-06
-8.84859e-07
-3.71237e-07
-1.09004e-06
-5.5179e-07
2.53933e-06
1.70363e-06
1.93862e-06
1.42323e-06
1.85159e-06
2.86571e-06
3.66083e-06
-4.76192e-08
2.0449e-07
-1.77955e-06
-1.22492e-06
-8.64073e-07
4.64188e-07
-2.80224e-07
-2.5231e-07
7.9215e-07
8.34036e-07
6.23697e-07
-1.11928e-06
4.47958e-09
-1.15648e-06
3.54855e-07
-1.96003e-07
-4.80848e-07
1.45072e-06
-4.82073e-07
2.95579e-06
1.50979e-06
3.29091e-06
8.4926e-07
7.52541e-08
1.67495e-06
1.12082e-06
4.3076e-06
1.12369e-06
2.25404e-06
1.25774e-06
5.8374e-07
-2.08709e-07
5.31113e-07
-6.56184e-07
-1.92296e-06
1.64872e-06
1.88472e-07
2.01031e-06
-1.84385e-06
5.33383e-08
-1.80077e-06
7.85317e-07
-6.8782e-07
-3.7035e-07
2.15815e-07
-3.30672e-07
1.01119e-06
-8.12571e-07
-7.12067e-07
1.49176e-06
1.16233e-06
9.98252e-07
6.28305e-07
1.20119e-06
3.32478e-06
7.59751e-08
6.40276e-07
2.03737e-07
9.64253e-07
-1.8099e-06
1.64993e-07
-8.02141e-07
2.19598e-07
-1.48281e-07
5.4824e-07
-3.69364e-07
-1.11562e-06
-1.62478e-06
-2.24222e-06
-6.46275e-07
3.96048e-07
-2.92054e-07
1.88809e-07
9.91953e-07
1.89237e-06
9.07731e-07
1.03339e-06
7.38031e-07
1.11826e-06
1.26429e-06
1.75751e-07
1.37835e-06
2.16554e-06
3.90915e-06
3.19827e-07
6.1509e-07
7.96817e-07
-1.30158e-06
-5.15289e-07
-1.70662e-06
-2.10492e-06
-1.01839e-06
-8.22695e-07
-1.94879e-06
-4.84409e-07
3.04395e-07
-1.22904e-06
-4.26594e-07
-1.84024e-06
7.91797e-07
1.60195e-06
4.77205e-07
-1.68052e-08
1.64171e-06
4.17164e-07
-1.21472e-06
-3.4153e-07
-1.72319e-06
4.50423e-08
1.33792e-06
6.4149e-07
8.89638e-07
3.61207e-07
6.0943e-07
1.36546e-06
-1.24873e-06
9.83342e-07
-5.17471e-07
-8.88832e-07
-1.37542e-06
1.22142e-06
-4.04154e-07
8.57738e-07
-1.03489e-06
-9.55117e-07
-9.19998e-07
1.911e-06
9.16482e-07
9.24632e-07
-1.46723e-07
7.18295e-07
1.21515e-06
-8.02768e-07
-2.24708e-06
-3.9458e-07
5.45546e-07
2.00071e-06
1.74423e-06
-5.58735e-07
1.21144e-06
-5.17455e-08
8.76188e-07
-5.38259e-07
3.79429e-07
5.85687e-07
3.25422e-07
-1.0684e-06
-2.76281e-06
-4.65905e-07
-8.28067e-07
-1.38316e-07
-3.46078e-08
-9.44587e-07
5.88756e-07
-4.97e-07
1.12048e-06
-7.23043e-07
1.06955e-06
1.1367e-06
1.45384e-06
-4.96943e-07
-8.35884e-07
4.804e-07
1.17426e-06
1.17019e-06
8.00823e-07
-1.18779e-06
1.38551e-06
2.89784e-07
4.6779e-07
-2.2512e-07
-6.22507e-07
-1.39722e-06
-3.20958e-07
-8.87589e-07
1.82384e-06
-1.76466e-06
-5.26049e-07
1.48065e-06
-4.11956e-08
8.0752e-08
-2.59529e-08
2.08725e-06
-1.02548e-06
7.42728e-07
7.58497e-07
6.49074e-07
-7.92507e-07
4.16207e-07
1.18434e-06
9.97784e-07
1.09836e-06
2.70841e-07
-1.15409e-06
-1.80146e-07
1.2442e-06
-2.29187e-06
-5.37153e-07
-1.94353e-06
-9.68177e-08
2.74907e-07
-9.46104e-07
-2.01427e-07
-8.50064e-07
-3.56814e-07
-8.28616e-07
-1.5717e-08
-3.88506e-07
7.16174e-08
-5.2608e-08
2.13547e-06
6.62686e-07
9.1551e-07
-5.23031e-08
-8.06802e-07
1.57534e-06
3.8652e-07
1.34086e-06
1.55647e-06
6.97474e-07
-5.22318e-08
-1.42063e-06
5.8983e-07
7.11249e-07
2.70929e-06
1.62935e-06
-6.16875e-07
4.29657e-07
-1.20625e-06
9.72194e-08
1.00535e-06
-1.57774e-06
4.07654e-07
-1.45563e-07
-2.30791e-06
2.58754e-06
-2.11848e-06
1.93365e-07
-3.26486e-07
-7.46151e-07
3.90342e-07
-1.03572e-06
1.94085e-06
1.13883e-06
5.30883e-07
1.23123e-06
3.65352e-06
2.61934e-07
-1.90823e-07
-2.11168e-07
-1.84152e-06
-2.46791e-06
-1.92545e-06
-3.44505e-07
-1.24462e-06
-1.83463e-06
1.39425e-07
-9.86734e-08
6.15934e-07
6.65695e-07
-1.65425e-06
-3.89888e-07
-1.23307e-06
-6.48049e-08
-3.72348e-07
-1.32985e-06
1.11484e-07
-2.54273e-07
-3.11525e-09
1.35823e-06
4.99641e-07
2.56128e-06
1.84034e-06
-9.54513e-08
1.24552e-06
4.66492e-07
3.24028e-07
5.51745e-07
-1.79141e-06
-2.3673e-06
-3.62319e-07
-5.11759e-07
9.22927e-08
4.932e-07
-3.85769e-07
4.13598e-07
-1.07509e-06
-1.34449e-06
-8.22283e-07
-8.65728e-07
-2.28824e-06
1.61736e-06
-8.07819e-09
1.71757e-06
7.74892e-07
-1.69426e-07
3.33384e-07
1.13022e-06
9.99047e-07
-2.46549e-07
1.08309e-06
-5.65537e-07
2.60796e-06
3.05618e-06
2.68173e-06
5.46041e-07
-1.24895e-06
8.8439e-07
-1.47155e-06
-3.38687e-07
-1.12855e-07
3.43561e-07
-3.98344e-07
-6.66642e-07
-5.79725e-07
-1.44065e-06
8.67207e-07
9.35422e-07
-7.99772e-08
-6.34122e-07
-3.0813e-07
-1.19968e-07
-1.11888e-06
-4.65178e-07
2.20625e-06
2.01978e-06
1.02155e-06
1.07839e-06
5.00832e-07
9.90613e-07
7.08566e-07
1.14679e-06
-1.20288e-06
6.95831e-08
-1.23106e-06
-1.59896e-06
-1.77884e-06
5.44453e-07
-7.41758e-07
-8.64973e-07
9.80311e-07
-1.16868e-06
-6.68299e-07
1.22107e-06
-1.55325e-06
5.68294e-07
1.61875e-07
3.33221e-07
-3.62198e-07
4.50557e-07
-2.02505e-07
1.60051e-06
-1.83136e-06
2.45023e-06
1.94296e-06
1.19578e-06
9.73883e-07
9.89251e-07
1.92202e-06
-5.96637e-07
5.8789e-07
-1.32496e-06
-2.06269e-07
-6.80058e-08
-1.09468e-06
9.60451e-07
9.49667e-08
-6.26133e-07
4.25027e-07
-9.10832e-07
2.08377e-07
-1.51429e-06
-1.14527e-06
-3.67787e-07
-5.926e-07
1.04784e-07
1.05944e-06
8.00138e-08
-3.51567e-08
1.07601e-06
1.20467e-06
7.88209e-07
4.31859e-07
1.46224e-06
1.45698e-06
1.63633e-06
8.70431e-07
7.64143e-07
-5.16166e-08
4.56257e-07
-1.27787e-07
-1.13963e-06
-8.99337e-07
8.28461e-07
5.00812e-07
4.97274e-07
-1.5263e-06
-2.48115e-08
4.32453e-07
-2.7763e-07
1.08286e-07
-1.31705e-06
1.34694e-07
1.41206e-06
6.99806e-07
-7.49568e-07
-1.02944e-06
1.63475e-06
-1.02082e-06
1.10699e-06
-5.73988e-07
4.34303e-07
1.8451e-06
1.57585e-06
7.69155e-08
-4.74453e-07
-2.25767e-07
1.47858e-06
2.90808e-07
-1.93763e-06
1.37082e-06
2.81058e-07
-1.344e-07
-3.78109e-07
1.23629e-06
-4.16081e-07
-8.1961e-07
-8.62477e-07
-8.83271e-07
-1.2185e-06
7.80853e-09
-1.84149e-06
-1.08711e-06
-5.57089e-07
3.82396e-07
-2.63095e-07
1.34692e-06
1.85263e-06
1.45728e-06
-5.74712e-07
1.57303e-06
7.7142e-07
1.35829e-06
6.86674e-07
-8.79517e-07
-1.93524e-06
-1.02874e-06
1.53336e-06
9.36522e-07
9.72262e-07
-5.28585e-07
2.03525e-06
2.26432e-06
-1.04893e-06
3.87776e-07
-1.28533e-06
-5.22821e-07
6.60012e-07
5.0717e-08
1.77509e-06
-1.30461e-06
9.34596e-07
-4.98209e-07
-1.41543e-08
-7.34148e-07
1.28368e-06
8.23457e-08
2.49396e-06
1.46345e-06
-2.33293e-07
-1.08828e-07
6.68362e-07
1.0054e-07
8.72759e-08
2.86372e-07
-5.96919e-07
-1.37666e-06
1.74729e-07
-2.33337e-06
8.34458e-07
-1.64381e-06
-1.54235e-06
7.14216e-07
4.11661e-08
-3.75464e-07
4.58538e-07
1.61991e-06
-1.33225e-06
-2.03273e-06
1.98178e-06
-3.64086e-07
7.7486e-07
5.79336e-07
-9.38805e-07
-3.80963e-07
1.52484e-06
-5.96943e-07
5.10343e-07
3.27059e-07
2.25174e-07
8.0209e-07
2.97938e-07
2.08297e-06
-1.29117e-06
3.25029e-07
2.6141e-07
1.53302e-07
-7.98811e-07
1.07142e-06
7.18309e-07
-2.50005e-07
9.87475e-08
-1.12825e-06
-1.83395e-06
-2.49712e-06
3.45543e-07
-6.32569e-07
-6.67188e-07
2.28022e-08
-2.00763e-06
-7.92323e-07
3.312e-07
-8.37212e-08
-1.78363e-07
6.66757e-07
1.95918e-06
-4.96711e-08
1.91844e-07
7.42886e-07
-2.16763e-06
-1.81462e-06
1.03348e-07
4.78049e-07
-6.48957e-07
-2.56543e-07
-8.22559e-07
-7.30167e-07
3.27225e-06
-1.75215e-06
1.00158e-06
-1.77308e-06
-1.2957e-06
-1.32025e-06
-1.1834e-06
-1.88454e-08
1.49001e-06
-4.0579e-07
-2.18917e-06
-1.90933e-07
7.20964e-07
-6.53891e-07
-4.16084e-07
1.33136e-06
-1.86425e-07
-1.01262e-06
1.93146e-06
-6.52331e-07
4.7781e-07
2.04823e-06
-6.49964e-07
-1.36283e-06
-1.66015e-06
-7.70044e-07
5.90163e-07
-2.50368e-06
-1.81368e-06
-6.0618e-07
4.16643e-07
2.95051e-06
-4.54883e-07
5.13976e-08
1.01099e-06
1.50423e-07
4.03034e-07
7.476e-07
7.45655e-07
2.51116e-06
4.85674e-07
2.43404e-06
1.2506e-06
1.00785e-07
1.69265e-06
7.59519e-07
-9.18001e-08
-3.87087e-08
9.60308e-07
-3.9207e-08
-9.04433e-07
-4.54187e-08
3.0007e-07
1.73111e-06
1.00216e-06
1.00521e-06
6.52018e-08
1.32402e-06
1.34034e-06
2.34007e-06
1.20812e-06
2.42799e-06
3.16073e-07
1.46255e-06
1.06391e-06
9.22405e-07
8.28532e-07
-5.84139e-07
-2.54136e-07
6.93969e-07
5.08679e-07
1.24414e-07
1.88597e-06
8.78192e-07
4.63566e-07
5.72577e-07
1.69837e-06
1.03028e-06
4.80903e-07
-2.01386e-07
-4.53157e-07
1.90384e-06
1.50203e-06
-1.13738e-06
1.1412e-06
9.52997e-07
-5.12801e-07
5.09949e-07
-1.26537e-06
1.56585e-06
9.34422e-07
6.58375e-07
1.99996e-06
-9.9833e-07
1.55825e-07
1.00288e-06
9.49818e-07
6.93984e-07
1.43312e-06
1.51375e-06
-7.58268e-08
-1.14003e-06
5.11307e-07
1.53676e-06
3.87043e-07
7.81887e-07
1.88327e-06
7.00856e-07
2.04054e-07
9.37908e-07
5.89685e-07
8.78538e-07
5.95693e-07
1.08131e-06
1.66517e-06
2.94906e-06
-2.72697e-07
1.28718e-06
7.41512e-07
1.12089e-06
9.61442e-07
1.7609e-07
-4.30665e-07
6.65647e-07
-2.64063e-08
-4.11728e-08
5.17789e-07
8.35203e-08
9.28038e-07
2.22207e-06
-8.94352e-07
4.96504e-07
-5.84935e-07
-1.2395e-07
3.78583e-07
9.7076e-07
8.21656e-07
9.14524e-07
5.32239e-07
-3.33986e-07
9.03016e-07
1.25625e-06
8.15271e-07
-1.91493e-08
1.75911e-06
6.1284e-07
6.90913e-07
1.58157e-06
2.8592e-07
1.28482e-06
1.63137e-06
1.89006e-06
-4.1321e-07
-1.94327e-07
1.13721e-06
1.71381e-06
1.13501e-06
4.57752e-07
-8.68712e-08
-1.15612e-06
-1.20283e-06
-2.52255e-06
1.41611e-07
8.44279e-07
2.77698e-06
-7.35094e-07
-6.9073e-08
-3.37464e-07
6.3268e-08
8.35166e-07
1.39001e-06
4.32678e-07
2.29848e-06
1.83882e-06
1.12569e-06
-8.77449e-07
5.51524e-07
2.37341e-06
2.43323e-08
7.05055e-08
-1.19646e-07
1.13312e-06
-5.25549e-07
-2.62803e-06
-4.27748e-06
-2.95625e-06
-5.38575e-06
-7.13985e-06
-4.94229e-06
-2.69428e-06
-3.56938e-06
-8.47397e-07
-1.01822e-06
3.43051e-08
1.41402e-06
3.81337e-07
-8.23512e-07
2.37575e-06
2.14744e-07
1.89975e-06
9.29829e-07
2.75279e-06
-5.17365e-07
1.45077e-06
9.92654e-07
3.75239e-07
7.63739e-07
3.14697e-07
-2.78282e-06
-3.21573e-06
-4.86192e-06
-2.73532e-06
-3.04444e-06
-4.99953e-06
-7.24279e-06
-6.81424e-06
-5.92649e-06
-3.6684e-06
-3.00925e-06
-2.40896e-06
-8.69948e-07
4.48982e-07
5.74546e-07
-1.0228e-06
8.3332e-07
1.48053e-07
1.45442e-06
7.18197e-07
8.26195e-07
8.63275e-07
1.71804e-06
1.61599e-06
-7.04319e-07
-1.24767e-06
-2.8364e-07
-1.92721e-06
-1.18042e-06
-2.15908e-06
-2.94475e-06
-4.80967e-06
-6.25484e-06
-4.32063e-06
-5.90368e-06
-6.73544e-06
-4.54527e-06
-3.71442e-06
-4.56266e-06
-2.19144e-06
-3.2044e-06
-1.30661e-06
6.67603e-07
1.43762e-06
1.29327e-06
2.00331e-06
-7.59209e-07
1.62788e-06
4.43089e-07
1.3421e-06
5.7348e-07
-2.65034e-07
1.01317e-06
8.38613e-07
-1.11318e-06
-1.14961e-06
-5.03234e-07
-2.23409e-06
-3.16036e-06
-5.66964e-06
-3.76181e-06
-2.98492e-06
-3.39312e-06
-2.53637e-06
-4.14464e-06
-3.00146e-06
-2.49231e-06
-4.48419e-06
-1.66473e-06
-2.66221e-07
6.00797e-07
3.10205e-07
2.62624e-06
1.04052e-06
8.79242e-07
6.45547e-07
-6.76232e-07
7.80108e-07
1.83783e-06
-3.94674e-07
-6.67185e-07
-2.80775e-07
-6.49391e-07
4.45057e-07
2.24075e-07
-1.60829e-06
-2.50881e-06
-3.24491e-06
-5.2877e-06
-4.44332e-06
-4.37614e-06
-2.94032e-06
-3.62322e-06
-1.2141e-06
-4.13542e-06
-5.70983e-06
-4.48986e-06
-1.10609e-06
1.24644e-06
6.54697e-07
8.50812e-07
2.43823e-06
-1.41078e-06
-3.37189e-07
-6.06351e-07
-2.28205e-07
6.14761e-07
1.24725e-06
5.35339e-07
-4.49915e-08
-7.40299e-07
2.28622e-08
-1.49834e-06
-1.95381e-06
-3.60764e-06
-2.87423e-06
-4.23553e-06
-1.90061e-06
-3.43623e-06
-8.57877e-07
-9.97343e-07
-8.35505e-07
-3.73498e-06
-3.73342e-06
-3.19448e-06
-1.40445e-06
-1.8942e-06
1.1054e-06
1.09213e-06
1.09196e-06
4.48124e-07
1.52192e-06
2.60538e-07
6.95193e-07
1.18758e-06
-1.0927e-06
1.01004e-06
-1.8108e-06
-5.43272e-07
4.59504e-07
-2.32866e-06
-1.47505e-06
-4.5157e-06
-5.40673e-06
-3.08439e-06
-3.68836e-06
-8.95553e-07
-1.01846e-06
-1.53412e-06
-1.10927e-06
-3.38994e-06
-3.55147e-06
-1.30789e-06
-1.08819e-06
-1.54759e-07
-2.58264e-07
1.64006e-07
-2.2625e-06
2.38252e-06
-8.55367e-07
5.5289e-07
-9.07058e-09
-7.27861e-07
-8.17234e-08
2.30794e-06
1.11669e-06
-1.46243e-06
9.11684e-07
-1.63152e-06
-5.16302e-06
-5.31977e-06
-6.62755e-06
-1.56136e-06
7.22353e-09
-1.58815e-06
-1.28805e-06
-2.8224e-06
-1.93952e-06
-9.01084e-07
-2.69477e-06
-3.10239e-06
-8.45067e-07
1.2664e-06
2.18183e-06
-4.69841e-07
1.79405e-06
6.00311e-07
1.21395e-06
5.48139e-07
-2.92763e-07
-5.16044e-08
1.11935e-06
9.17345e-07
7.28344e-07
-6.5988e-07
-6.9559e-08
-4.09176e-06
-3.38567e-06
-5.10027e-06
-4.61974e-06
-4.0468e-06
-3.71978e-07
-2.01353e-06
-1.56665e-06
-5.64337e-07
-4.0139e-06
-2.12776e-06
-3.50932e-06
-3.2428e-06
-1.04956e-06
9.4129e-07
1.73016e-06
-7.38747e-07
-2.13282e-07
-5.05599e-07
-1.0466e-07
-6.15727e-07
1.54785e-06
4.18846e-07
1.43861e-06
-3.98534e-07
1.91907e-07
-3.11491e-06
-3.22236e-06
-2.6864e-06
-2.71135e-06
-3.57481e-06
-2.35658e-06
-8.38762e-07
2.89142e-07
1.04275e-07
-1.15322e-06
-1.13945e-06
-1.29201e-06
-4.03323e-06
-4.12333e-06
-8.25172e-07
-2.48916e-06
-5.06534e-07
6.63351e-07
1.06568e-06
2.45786e-06
1.87367e-06
-1.565e-06
-4.16895e-07
-1.02959e-07
1.34293e-06
-2.19874e-06
-3.70772e-07
-1.76185e-06
-2.4076e-06
-4.06516e-06
-3.44868e-06
-3.97091e-06
-1.82927e-06
-1.66272e-06
-1.90331e-06
-6.91333e-07
2.48101e-07
-3.43928e-07
-2.57511e-06
-3.63801e-06
-5.79072e-06
-2.62504e-06
-1.79863e-06
-1.45092e-06
-2.16087e-06
1.45013e-06
5.22418e-07
2.04223e-06
1.16268e-06
5.8725e-07
2.66926e-07
6.46475e-07
8.47411e-07
2.05244e-06
-3.21714e-07
-3.12509e-06
-3.00135e-06
-5.80509e-06
-2.0276e-06
-2.03106e-06
-1.4345e-06
-1.20525e-06
2.3215e-06
7.40209e-07
-5.22459e-07
-2.41672e-06
-9.57599e-07
-2.99265e-06
-2.49132e-06
-3.48896e-06
-3.93896e-06
-3.53058e-06
7.00775e-08
5.54624e-07
7.45049e-07
3.24077e-07
4.10416e-07
-9.9456e-08
1.13313e-06
2.54951e-06
6.31295e-07
3.15079e-07
-6.17161e-07
-2.1317e-06
-2.34636e-06
-3.83754e-06
-3.58419e-06
-2.32299e-06
-1.56913e-06
-4.22213e-07
1.46589e-06
2.30999e-06
2.29905e-06
-8.01527e-08
-3.24775e-06
-4.9031e-06
-4.26724e-06
-3.75213e-06
-3.38851e-06
-1.767e-06
2.45993e-07
2.69677e-07
5.92128e-07
-3.2663e-07
-5.19473e-08
4.92481e-07
-4.96139e-07
1.76967e-06
1.88794e-06
1.2137e-06
-5.01451e-07
-2.24625e-06
-4.69085e-06
-3.06354e-06
-2.71881e-06
-4.94033e-08
-6.9623e-07
3.65767e-06
2.48483e-06
3.64702e-06
2.57338e-06
-1.48683e-06
-4.021e-06
-5.34972e-06
-3.66857e-06
2.12618e-07
-2.77386e-06
-3.39465e-07
-1.67075e-06
-1.84664e-08
2.30929e-06
-8.33454e-07
1.90339e-06
-1.47265e-06
3.6289e-07
1.63034e-06
1.80588e-06
9.1239e-07
-8.75703e-07
-6.53386e-08
-3.01257e-06
-3.88312e-06
-8.56191e-07
-9.97596e-07
4.94725e-07
1.1784e-06
2.54146e-06
4.8944e-07
4.16526e-07
-2.31874e-06
-4.90011e-06
-6.45642e-06
-3.11711e-06
-1.56838e-06
-7.04109e-07
-1.35078e-06
-6.23339e-07
1.68076e-07
2.38916e-07
1.63583e-06
1.36429e-06
6.97032e-07
2.44593e-06
2.08117e-06
1.33048e-06
3.10169e-07
3.46748e-08
4.56463e-07
-2.57093e-06
-4.49328e-06
-2.81933e-06
-2.58299e-06
8.70095e-07
2.3455e-06
2.59076e-06
-9.96497e-07
-2.44928e-06
-5.03178e-06
-4.92958e-06
-2.80428e-06
-5.03419e-07
-1.27218e-06
6.97652e-07
-5.44596e-07
-4.4413e-07
1.78608e-06
3.10142e-07
1.26168e-06
1.80484e-06
1.25175e-06
1.0945e-06
-1.0393e-08
4.5439e-07
2.92116e-07
-4.7707e-07
-6.33282e-07
-3.96875e-06
-4.99186e-06
-2.83889e-06
-3.2412e-06
-7.2043e-07
-1.07151e-06
-2.26322e-06
-1.12475e-06
-5.46217e-06
-5.53036e-06
-4.86821e-06
-2.60256e-06
-3.47318e-06
-1.15085e-06
-1.63593e-07
1.70556e-07
9.65332e-07
2.76091e-07
1.71188e-06
7.13944e-07
1.07713e-06
1.01456e-06
5.54847e-07
-1.4345e-07
3.96181e-07
1.79915e-06
-6.42863e-07
3.2918e-07
-1.4646e-06
-4.88009e-06
-5.44379e-06
-5.60723e-06
-4.9847e-06
-5.41284e-06
-3.5848e-06
-5.13206e-06
-5.31192e-06
-3.99224e-06
-1.12163e-06
3.46837e-07
-5.68844e-08
-1.51413e-06
-1.22954e-06
1.03492e-06
1.75257e-06
2.95053e-07
3.52645e-07
5.41138e-07
2.49737e-06
4.98004e-07
1.53904e-06
3.09111e-06
1.47969e-06
5.81228e-07
7.41707e-07
-7.28063e-09
-8.54248e-07
-2.86409e-06
-4.47233e-06
-3.84593e-06
-5.17572e-06
-6.04993e-06
-6.13775e-06
-4.33724e-06
-3.13376e-06
-2.39221e-06
-1.9346e-06
-2.07325e-06
-3.63868e-07
7.88115e-07
-5.48854e-07
7.11386e-07
9.69483e-07
1.62446e-06
1.26747e-06
1.71859e-06
3.58301e-07
2.23365e-07
7.13874e-07
2.70972e-06
3.27732e-06
7.71504e-07
6.96517e-07
7.77358e-07
-9.25963e-07
-5.4542e-07
-1.72414e-06
-2.16646e-06
-1.0956e-06
-3.588e-06
-6.56072e-07
-4.53755e-07
4.14006e-07
-1.99119e-06
-6.44812e-07
-8.08157e-07
-7.66777e-07
-1.46714e-07
2.03232e-06
1.17698e-06
1.47157e-07
9.65285e-07
1.40252e-06
1.60543e-06
2.09373e-06
4.41615e-07
-1.33483e-06
4.53335e-07
9.32936e-07
-1.35136e-07
2.07451e-06
2.92376e-06
-8.67993e-07
9.32823e-07
4.60011e-07
-1.19686e-06
2.46892e-06
-4.96853e-07
-1.21372e-07
1.43427e-06
6.9131e-07
1.38868e-06
6.57621e-07
1.72491e-06
9.40451e-07
-1.08394e-06
1.54421e-06
1.43455e-06
5.79636e-07
1.76461e-06
1.67668e-06
6.46476e-07
6.84516e-07
1.3908e-06
8.15495e-08
2.64542e-07
7.90887e-07
-4.54561e-08
-8.97614e-07
1.36068e-06
1.6557e-06
-1.48585e-08
5.08503e-07
1.37813e-06
1.65144e-06
-1.57121e-07
8.6874e-07
1.27569e-06
1.08032e-06
3.69233e-07
1.00168e-06
7.14346e-07
8.87601e-07
1.51579e-06
1.42017e-06
1.99362e-06
1.29345e-06
9.37768e-07
1.81529e-06
6.6417e-07
5.85293e-08
1.79109e-06
9.8543e-07
2.35722e-06
1.45516e-06
5.67423e-07
1.19882e-06
1.22524e-06
1.31884e-06
7.82402e-07
-1.46852e-06
2.47302e-06
1.64894e-06
5.20754e-07
-5.11834e-07
8.92444e-07
1.37033e-06
-9.08606e-07
-3.81359e-07
1.32643e-06
4.77151e-07
1.5056e-06
7.33625e-07
2.5361e-06
9.56729e-07
5.01979e-07
-1.8998e-07
1.65377e-06
1.10151e-06
2.64579e-07
1.26689e-06
-1.07379e-06
3.21126e-07
1.09622e-06
6.83959e-07
-7.66555e-07
7.53172e-07
-6.49812e-07
1.43079e-06
-4.87764e-07
-1.78999e-06
-4.62582e-07
-7.93778e-08
2.30409e-06
-5.6866e-07
-8.17393e-07
-4.90725e-07
1.085e-06
-4.89094e-07
-6.12823e-07
3.39325e-07
-2.04196e-06
1.88971e-07
-4.84578e-07
5.11239e-07
-1.23041e-08
9.63104e-07
7.41542e-07
7.83101e-07
7.14543e-07
-1.42671e-07
-9.59815e-07
5.25483e-07
3.87235e-07
-3.87997e-07
1.05085e-06
-7.81526e-07
-2.83993e-06
-1.75592e-06
-4.39467e-07
-7.70276e-07
3.99936e-07
-4.36299e-07
-2.09009e-06
-3.93891e-07
8.87292e-07
-1.82635e-07
1.52209e-06
1.28556e-07
-1.30829e-06
3.73706e-08
-6.63289e-07
6.28891e-07
-1.74193e-06
1.35265e-06
1.26345e-06
-1.172e-06
-8.63879e-07
-3.82341e-07
-1.55347e-06
-4.41899e-07
-1.90886e-07
-4.59505e-07
-3.01477e-07
-1.13571e-06
8.04775e-08
-1.28562e-07
8.44083e-07
5.80883e-07
-2.01099e-06
-1.38902e-06
4.08184e-07
-1.43755e-06
-7.32467e-07
2.33721e-07
6.74545e-07
3.06733e-07
-3.96619e-07
6.2078e-07
-3.80145e-07
-2.05641e-06
-6.97942e-07
1.02941e-06
8.27244e-07
-5.65107e-07
2.76014e-07
7.1099e-07
-1.80861e-06
1.81795e-06
8.91034e-07
-4.76398e-07
6.15854e-07
-4.9713e-07
-1.78675e-07
-1.25534e-06
-1.54213e-06
-2.003e-07
-9.42359e-07
-1.01535e-06
1.87185e-06
1.77516e-06
1.43811e-06
-9.14907e-07
-5.47797e-07
-1.15966e-06
-1.93983e-07
3.40829e-07
-4.68399e-07
6.47007e-07
-7.28069e-07
-5.7383e-07
-1.11717e-06
-1.00369e-06
3.14641e-07
-1.93367e-06
1.84753e-06
1.40732e-07
-7.53342e-07
4.95924e-07
-3.47737e-07
-1.32754e-06
1.1667e-06
-2.45591e-08
-6.18514e-07
-3.84824e-07
1.0246e-07
2.04144e-06
7.85394e-07
-4.66719e-07
1.56058e-06
-1.70755e-08
-2.53756e-06
1.72603e-07
-6.71966e-07
-1.44978e-06
-8.82459e-07
-1.8427e-06
6.39892e-07
-1.04584e-07
4.95949e-08
-1.06672e-06
9.61071e-09
4.53377e-07
-1.39253e-06
-2.14274e-07
-1.96649e-06
1.31057e-06
-1.58087e-06
-3.42891e-06
-3.89396e-07
-3.3268e-07
4.30288e-06
-8.01073e-08
2.04801e-06
-1.10128e-07
-8.00709e-07
-5.03279e-07
-9.77732e-07
1.29717e-06
-2.21263e-06
-9.90576e-08
4.7814e-07
2.06274e-06
3.53122e-07
1.10181e-07
1.55041e-06
-9.70297e-07
-5.056e-07
2.12814e-07
1.91326e-06
-2.2518e-06
7.46193e-07
-7.5316e-07
-2.15105e-07
3.524e-07
8.01534e-07
-4.88272e-07
2.1691e-06
1.47365e-06
-8.33465e-07
1.39455e-06
2.31207e-06
4.11198e-07
-1.79268e-07
-1.73401e-06
-1.67348e-06
-1.51454e-07
-9.03268e-07
-1.82206e-06
-1.86316e-06
-1.17318e-06
-2.47301e-07
-9.40859e-07
-8.79461e-07
6.93997e-07
-4.23394e-07
2.63327e-07
-1.28757e-06
9.5324e-07
4.68274e-07
-5.92508e-08
-1.09834e-07
-3.42172e-07
1.96209e-06
9.09783e-07
7.75995e-07
2.07858e-06
1.75985e-06
2.21803e-06
4.37743e-07
2.16891e-06
2.61816e-07
-1.12391e-06
5.47667e-07
-1.2636e-06
-3.52615e-06
1.83863e-07
-4.44599e-07
-8.78598e-07
1.2527e-06
2.0829e-06
-7.32075e-07
-1.71106e-07
-1.28333e-06
5.62328e-07
-1.57804e-06
1.92247e-06
-8.4472e-07
2.25256e-07
-4.83471e-07
-1.30966e-06
2.22873e-07
-5.30377e-07
-1.80752e-06
5.32213e-07
6.27016e-07
-9.76857e-08
1.23805e-07
2.30272e-06
-1.02039e-06
-1.58014e-07
-1.53587e-06
-3.81505e-06
-2.15842e-06
-1.77938e-06
9.78186e-07
3.13517e-07
-8.33702e-07
-5.85692e-07
-6.87106e-08
8.33309e-07
1.69593e-06
-1.62815e-07
-4.60119e-07
8.32074e-07
-1.03119e-06
5.8494e-07
-2.88859e-06
-1.53603e-07
-3.50243e-07
-1.5528e-06
-1.18366e-06
-4.81379e-07
1.98113e-07
1.96533e-06
1.00489e-06
2.2766e-06
7.15431e-07
-1.30218e-06
-1.16157e-06
-1.80334e-06
-1.22689e-06
-9.28968e-07
-1.26406e-06
7.00426e-07
2.41703e-07
6.81603e-07
6.68873e-07
-9.51178e-07
4.43718e-07
-3.81251e-07
-3.88224e-07
-6.61664e-07
6.63198e-07
-1.29256e-07
-4.40735e-07
-6.44197e-07
-2.0237e-07
-2.67471e-06
-2.4449e-07
1.07873e-06
1.98858e-06
2.41202e-07
1.76872e-07
2.13665e-06
1.1714e-06
-2.07391e-07
-2.15294e-06
-1.79705e-07
-2.86115e-06
-1.84006e-06
-2.85022e-07
-9.32193e-07
-1.47139e-06
-2.80041e-06
-6.0129e-07
-8.21226e-07
-7.56166e-07
-8.48948e-08
-6.2313e-07
-1.133e-06
-1.77453e-07
-3.90824e-07
4.66324e-07
-1.16289e-06
-1.39085e-06
-1.06504e-06
-9.64785e-07
-1.90446e-06
-1.26263e-07
2.63975e-06
3.01784e-06
1.87382e-06
3.0623e-06
5.14481e-07
3.43166e-07
-2.58447e-06
-2.04829e-06
-1.06423e-06
3.22986e-07
-2.87352e-07
-1.00093e-06
-2.61352e-08
-4.99803e-07
-9.79521e-07
-5.36225e-07
4.13773e-07
-1.01617e-06
-1.12212e-06
-5.73613e-07
1.36914e-07
-5.99505e-07
-1.4834e-06
-8.19109e-07
-1.69598e-06
5.50758e-07
9.92709e-07
5.11079e-08
5.56033e-07
1.02473e-06
1.12323e-06
-3.42647e-07
6.1052e-07
-1.26322e-06
-1.30028e-06
4.50468e-07
-1.37499e-07
-2.59485e-06
-4.69013e-07
-9.59966e-07
7.15623e-07
1.42698e-06
1.04958e-06
1.83075e-08
-2.1815e-06
-1.0039e-06
2.09633e-07
-1.5254e-06
-2.30969e-06
-7.84457e-07
-3.78148e-07
-3.00375e-07
-1.03869e-06
9.91796e-07
1.41841e-06
-4.49736e-07
7.65579e-07
4.44791e-06
1.47882e-06
5.01442e-06
6.13973e-07
1.42468e-07
-8.02977e-07
-8.50592e-07
-1.40227e-06
-7.87109e-07
-1.78022e-06
1.20894e-06
1.50763e-07
5.09754e-08
-8.52962e-07
-5.24229e-07
2.76617e-07
1.39853e-06
-5.77263e-07
3.02783e-07
-1.81155e-06
-1.14185e-06
-1.87247e-06
-3.27965e-07
1.3901e-07
9.35716e-07
3.17682e-07
2.21016e-06
4.57216e-07
2.64523e-06
3.20106e-06
1.92244e-06
1.37609e-07
2.3283e-06
6.6693e-07
-2.10353e-07
-7.8419e-07
1.03077e-06
-3.47872e-07
-6.64712e-07
-2.23992e-06
-6.91643e-07
-3.27012e-07
1.05531e-06
-1.5405e-07
-1.19382e-06
-6.59239e-07
-1.8633e-07
-1.7478e-07
9.58612e-08
-2.18194e-06
-2.40169e-06
-1.58069e-06
-1.52873e-06
7.57634e-07
-4.52468e-07
1.95173e-06
2.16002e-06
1.65412e-06
-7.90519e-07
5.30537e-07
-2.57057e-07
-8.26455e-07
-6.2774e-07
8.11357e-07
-1.42275e-06
-2.08394e-06
-7.48875e-07
6.88931e-07
-1.00701e-06
-1.3214e-06
4.77062e-07
-1.15645e-06
-9.23772e-07
-1.17278e-07
-8.7612e-07
-5.44696e-07
-1.62846e-06
-1.84204e-06
-4.11133e-07
3.65942e-08
-8.84269e-07
-9.87054e-07
3.59561e-07
1.22355e-06
1.21877e-07
-4.35256e-07
-5.3306e-07
2.72087e-08
2.25857e-07
6.09893e-07
1.15546e-06
-1.20827e-07
-3.38134e-07
-1.50361e-06
-4.00398e-07
-1.03295e-06
-1.47065e-06
-6.26703e-07
-1.85387e-06
1.70945e-06
-1.7237e-06
-1.84332e-07
3.27224e-08
-1.35867e-06
-2.28048e-06
-2.51142e-07
-1.42247e-06
-1.78142e-06
1.84008e-06
-4.55535e-07
-8.12231e-07
1.97844e-07
-3.45928e-07
4.71549e-08
8.24844e-08
7.81272e-07
1.86521e-06
9.36178e-07
2.07104e-06
-1.53706e-06
1.2597e-06
9.96545e-08
6.5643e-08
1.45717e-06
-4.37996e-07
-2.43567e-06
1.31201e-06
-9.21759e-07
-4.03968e-07
9.08113e-07
-7.83131e-07
-1.17944e-06
-1.81412e-06
-1.15108e-06
-6.8982e-07
-1.35949e-06
-1.60433e-06
1.97637e-06
7.70284e-07
1.78732e-06
1.16834e-06
-9.03069e-07
-2.93282e-07
6.14872e-07
-1.13854e-06
1.7059e-07
-9.48636e-07
1.84079e-07
2.70753e-07
-1.75861e-06
-2.41955e-06
-8.11841e-07
-1.52125e-06
-6.6407e-07
-7.2271e-07
-3.70516e-07
-1.77446e-07
-1.09602e-06
9.78337e-07
-1.84111e-06
-6.26395e-07
-1.80445e-06
-6.3862e-07
2.31713e-06
-7.4735e-07
8.25393e-07
1.19447e-06
2.27432e-07
1.79744e-06
1.70035e-06
7.30653e-07
6.98957e-07
1.72858e-06
-3.26857e-07
-9.24032e-07
8.83739e-07
-2.4923e-07
-1.01363e-06
-8.5774e-07
1.85251e-08
-2.86504e-07
2.06571e-07
-9.0238e-07
-1.90915e-06
-3.41551e-07
2.98161e-07
6.09688e-07
-8.33746e-07
1.59502e-06
-1.95889e-06
-1.69117e-06
8.47635e-08
8.29733e-07
6.10646e-07
-5.72137e-08
6.98061e-07
1.41636e-06
1.14525e-07
5.10626e-07
1.8795e-06
1.06856e-06
1.55269e-06
1.42709e-06
9.23888e-07
-1.15062e-06
9.17546e-07
-3.75847e-07
-1.1271e-06
1.06337e-06
8.92335e-07
-6.83553e-07
-1.88307e-06
-4.90006e-07
-1.11963e-06
-7.27877e-07
1.0687e-06
6.56159e-07
-1.85584e-06
-3.27627e-06
1.31651e-06
-2.39053e-07
9.05496e-07
2.29624e-07
1.28387e-06
2.03347e-06
-5.40079e-07
1.92513e-06
1.03071e-06
-2.8799e-07
-1.15112e-06
-1.44541e-06
-1.29543e-06
-8.21379e-08
-4.17795e-07
-8.35582e-07
2.16909e-07
-1.40553e-06
-2.89454e-07
1.24603e-06
-5.4543e-07
-1.08305e-06
-1.58513e-06
-8.83738e-07
2.92135e-07
-1.46724e-07
-1.77679e-06
4.11726e-07
-9.62435e-07
-5.75597e-07
2.1194e-07
-1.49825e-06
8.77305e-07
-3.28109e-07
6.88982e-08
-8.62851e-07
-8.7493e-08
6.59757e-07
-3.3593e-07
-5.36064e-07
-5.41964e-07
6.35543e-07
-1.94822e-06
7.64252e-07
-8.18079e-07
5.74447e-07
1.17659e-07
-7.17746e-08
3.60174e-07
-8.64732e-07
-6.54597e-07
-2.88888e-06
-1.70205e-06
-9.44506e-07
-7.79197e-07
-2.16165e-06
2.22641e-07
5.57358e-07
-3.59585e-07
2.07801e-08
1.08144e-06
-2.17637e-06
2.58083e-07
2.19706e-08
-1.78237e-06
-2.08955e-06
5.02115e-07
-2.93831e-07
-4.11344e-07
-3.17684e-07
-2.74903e-07
-1.07968e-06
-1.84579e-06
8.61184e-07
-5.08916e-08
-1.03677e-06
1.39455e-06
-2.72067e-07
3.96127e-07
-4.25133e-07
-4.58762e-07
-3.04347e-07
1.81292e-06
-1.62325e-06
-1.69997e-06
-3.89512e-07
8.11719e-07
-8.33517e-07
3.68996e-07
1.30527e-06
1.45267e-06
7.1472e-07
-7.79928e-08
-1.49317e-07
1.68507e-07
7.07735e-07
2.01941e-07
9.20553e-07
1.11076e-06
1.48744e-06
1.96561e-07
6.96624e-07
-1.64356e-06
-5.58884e-07
-1.24473e-07
-7.22526e-07
-7.51595e-07
-1.06205e-06
9.18706e-07
1.77864e-07
-1.11351e-06
-6.93797e-07
7.24605e-07
-1.95892e-06
-9.49408e-07
-6.97701e-07
1.18926e-06
-8.12489e-07
3.22729e-07
5.36516e-08
1.39903e-07
1.75506e-06
-5.00769e-07
-1.14949e-06
-1.89605e-06
-2.27538e-07
-1.18335e-06
-6.82881e-07
-2.93034e-07
2.32624e-07
-1.65681e-06
1.40348e-06
-7.60879e-07
6.79116e-07
-1.54042e-06
-1.32937e-06
-3.23779e-06
-8.73242e-07
4.42527e-07
1.59878e-06
9.84335e-08
-7.83375e-07
-4.03449e-07
3.26568e-07
6.64682e-07
1.1945e-06
-1.57992e-07
4.37104e-07
-1.78355e-06
3.62794e-07
-2.60185e-06
8.57764e-07
7.39743e-07
-1.12051e-06
1.73663e-07
-6.87264e-07
8.39776e-07
-7.71565e-07
3.49603e-07
-8.11732e-07
-6.96614e-07
-9.9805e-07
1.01941e-06
4.42721e-07
-6.77153e-07
2.38665e-07
-8.31094e-07
-1.97555e-06
7.82739e-07
-1.02051e-07
4.89305e-08
6.8244e-07
1.49886e-06
1.00583e-06
3.51519e-07
2.03682e-06
-7.02532e-07
-4.53952e-07
4.80362e-07
-3.78664e-08
-1.01656e-06
-7.2646e-07
-8.92971e-07
3.96579e-07
-3.86142e-07
4.73595e-07
4.13949e-07
1.84416e-06
-8.59035e-07
-1.57534e-06
9.5338e-07
1.81392e-06
-6.83421e-07
5.95199e-07
9.33166e-07
6.22793e-07
1.18433e-06
-5.08128e-07
2.21281e-06
1.25876e-06
1.86899e-06
5.10795e-07
1.31221e-06
-2.17329e-07
2.13839e-06
-4.85218e-07
1.93477e-07
1.51351e-07
5.01445e-07
4.28037e-07
1.18252e-06
2.52199e-06
1.89796e-06
9.90977e-07
5.39013e-07
-4.13077e-07
1.55897e-06
-3.2327e-07
4.61687e-07
3.5207e-07
7.66582e-07
1.61041e-06
1.39856e-06
1.22779e-06
-1.17127e-06
-1.43901e-07
-2.44209e-06
6.38878e-07
9.89306e-07
1.13848e-06
2.68943e-07
1.96438e-06
8.14482e-07
1.47969e-06
-8.9213e-07
1.64253e-08
3.73357e-07
2.02479e-06
1.4353e-06
-1.03075e-07
1.43802e-06
1.41807e-06
-3.03278e-07
2.4697e-06
1.32266e-06
-1.06764e-07
1.07357e-06
1.13848e-06
-1.36012e-06
1.73399e-06
-1.02143e-07
6.63678e-07
-1.87146e-07
6.01395e-07
1.20926e-07
1.87913e-06
-2.67604e-07
5.1881e-07
-5.98709e-07
-1.39451e-06
4.46305e-07
1.90906e-06
4.08761e-07
5.54974e-07
-8.04951e-07
2.26049e-06
9.2193e-07
2.1029e-06
-1.1668e-06
-1.19317e-07
8.06474e-07
7.18292e-07
5.18545e-07
1.45694e-06
5.257e-07
1.42967e-06
1.75824e-06
-1.52252e-06
-2.76346e-07
-1.09071e-07
5.49806e-07
1.00699e-06
5.66508e-07
7.40688e-07
1.46516e-06
1.36579e-06
3.54471e-06
2.86216e-07
1.4079e-06
-6.45929e-07
1.61321e-06
3.84839e-07
-2.62417e-07
-8.66516e-07
-3.51023e-07
1.20752e-06
-2.58289e-07
7.39176e-07
1.42521e-06
8.74661e-07
-7.85632e-07
5.49004e-07
4.52541e-07
2.18104e-06
-1.90473e-07
4.81066e-07
4.31214e-07
2.36767e-06
-5.03746e-07
5.83065e-07
-6.56802e-07
-1.89809e-06
-5.64267e-08
2.65859e-07
1.26901e-07
1.18705e-06
-1.075e-06
1.93688e-06
1.61848e-06
-2.72887e-07
1.10765e-06
-2.05061e-06
-1.34851e-06
-6.29042e-07
1.05516e-06
1.40104e-06
2.9873e-06
-1.85228e-07
-2.17595e-07
2.21061e-06
1.53929e-07
-6.01958e-07
1.84223e-06
8.83709e-07
1.9953e-06
5.44001e-07
1.24501e-07
4.6674e-07
5.44394e-07
-1.23933e-06
-8.01505e-07
-1.48462e-06
-9.73593e-07
-1.08332e-06
-1.4445e-06
-1.6092e-06
-9.37233e-07
-2.73932e-06
8.99554e-07
-8.61166e-07
4.69315e-07
1.05052e-06
2.57552e-07
-8.46957e-07
2.89318e-06
1.98598e-07
1.17145e-06
-1.72788e-06
9.83327e-07
1.52011e-07
7.33444e-07
-1.38865e-07
-6.05367e-07
-1.45333e-06
1.68013e-06
-1.35151e-06
-1.40101e-06
-1.42181e-06
-1.7565e-06
-3.07289e-06
-1.9539e-06
-2.94964e-06
-4.15364e-06
-3.93671e-06
-2.64589e-06
-6.23581e-08
-8.57618e-07
-2.31079e-06
2.03812e-06
8.48253e-07
-2.04207e-07
1.80699e-06
-1.50347e-07
-1.40198e-08
1.31245e-06
-1.9892e-06
1.00316e-06
7.85462e-07
4.37896e-07
-6.60516e-07
-1.60345e-06
-3.18069e-07
-1.33415e-06
-3.28456e-07
-3.38739e-06
-1.61227e-06
-1.75116e-06
-3.8704e-06
-2.32026e-06
-4.04488e-06
-7.92906e-07
-4.05991e-06
-1.90154e-06
-1.73503e-06
-1.46546e-06
5.18961e-07
2.99025e-06
6.8944e-07
6.83765e-07
1.62319e-07
7.07086e-07
-4.6229e-07
2.26904e-07
5.27727e-07
6.75365e-07
8.20654e-07
1.19583e-07
6.61524e-07
6.40696e-07
1.03406e-07
-1.93009e-06
-8.88602e-07
-2.60512e-06
-2.06209e-06
-3.13822e-06
-3.42223e-06
-3.29095e-06
-3.57537e-06
-1.41544e-06
-3.40357e-06
-1.64941e-06
-3.18104e-06
-1.30458e-06
-6.50632e-07
8.89734e-07
-8.43926e-07
1.62181e-06
-2.82225e-07
7.89381e-07
1.37347e-08
5.44729e-07
1.61028e-06
4.87072e-07
1.40944e-06
-7.7886e-07
6.06512e-07
-3.7714e-07
-2.81528e-08
-6.42359e-07
-1.75613e-06
-1.16906e-06
3.15645e-07
-1.27888e-06
-8.37453e-07
-2.72446e-06
-2.58353e-06
-2.4191e-06
-1.92276e-06
-1.96556e-06
3.27996e-07
-1.26412e-06
1.98608e-06
1.66898e-06
9.08629e-07
1.20399e-06
-1.27562e-06
1.40695e-06
6.48828e-07
-2.23838e-07
4.30208e-07
-5.07263e-07
2.77672e-06
1.7501e-06
6.16859e-07
4.66486e-07
8.80266e-07
1.10781e-07
-1.94173e-06
4.92076e-07
-4.76075e-07
-1.67081e-06
-2.96512e-06
-2.56181e-06
-9.79884e-07
-1.38608e-06
-2.14223e-06
-1.38475e-06
-1.61016e-06
1.0273e-07
-2.28552e-06
1.44715e-06
1.12612e-06
-5.6583e-07
4.12128e-07
-1.46789e-07
4.91095e-07
4.67699e-07
2.37563e-06
5.47896e-07
4.6117e-07
-1.17736e-06
1.79005e-06
7.29034e-07
-7.12749e-07
-2.54554e-06
-5.70242e-07
-1.86105e-06
-1.82722e-06
3.0543e-07
-2.18173e-06
-8.88001e-07
-3.75278e-07
-2.69237e-07
-2.16581e-06
-7.81261e-08
-5.32003e-07
-1.18844e-06
-3.79433e-07
-4.25726e-07
-5.4162e-07
-5.82611e-07
7.5351e-07
-1.20658e-06
7.86725e-07
1.11907e-06
1.13266e-07
2.15577e-06
1.63385e-06
9.35327e-07
7.13039e-07
-7.89737e-07
-1.53656e-07
-2.96859e-07
-3.47126e-07
-1.04876e-06
-7.78554e-07
-2.30576e-06
-4.19957e-06
-2.81621e-06
-1.48711e-06
9.09999e-07
5.6195e-07
-3.2472e-07
-3.11796e-07
-1.22783e-06
1.2811e-06
6.77083e-08
4.1241e-07
1.34463e-06
2.65924e-06
-1.65656e-06
2.8206e-07
-7.46587e-07
7.58489e-07
3.14811e-07
1.5767e-07
1.43905e-06
4.65829e-07
6.34514e-07
3.04284e-07
-1.07937e-06
1.17542e-06
-7.96175e-07
-1.55029e-07
-2.19517e-06
-3.60662e-06
-3.29671e-06
-2.05111e-06
-7.78054e-07
6.9587e-07
1.16774e-06
-1.13192e-06
3.78821e-07
-1.06837e-06
-1.1363e-06
-2.08108e-07
1.20375e-06
9.13674e-07
1.83731e-06
3.05161e-07
4.56524e-07
3.70863e-07
7.73832e-08
7.97089e-07
-3.62796e-07
1.04472e-06
1.17288e-06
3.33691e-07
2.19148e-07
-4.80953e-07
-5.05652e-07
-2.81966e-06
-1.12515e-06
-1.22907e-06
-1.77892e-06
-2.36083e-07
1.19984e-06
4.90774e-07
3.36563e-07
3.29014e-07
-3.43652e-07
-1.3223e-06
-5.32477e-07
-1.53019e-06
2.10476e-06
2.74174e-07
-1.04569e-06
1.10737e-06
1.64018e-06
2.22085e-07
-1.51759e-07
1.4269e-06
8.59865e-07
4.41135e-07
1.22941e-06
-2.05129e-07
-1.01134e-06
-1.56705e-06
6.29846e-07
-6.45218e-07
2.11445e-07
-2.43541e-06
-1.67992e-06
-1.59318e-06
1.11936e-06
-3.77324e-07
1.31711e-07
3.87412e-07
-2.21817e-07
-4.84234e-07
-1.7041e-06
-1.2131e-06
-1.8527e-07
1.60318e-06
-3.31218e-07
-4.10929e-07
1.15274e-06
8.81419e-07
1.07081e-06
1.62923e-06
1.42433e-06
-6.00563e-07
1.15971e-06
-6.35661e-07
3.14125e-06
2.51047e-06
-1.1126e-06
-2.19708e-07
-4.85663e-07
-8.41739e-08
8.65685e-08
-1.1146e-06
1.86754e-06
2.05343e-06
-9.58092e-07
-5.51747e-07
-5.62973e-07
8.30016e-07
1.99077e-06
-1.12205e-06
-1.28743e-06
1.08855e-06
1.48842e-06
1.71491e-06
1.08315e-06
4.72846e-07
9.56842e-08
3.02274e-06
-1.3015e-06
9.62088e-08
-2.58342e-07
-5.33636e-07
-5.33833e-07
1.35848e-06
-9.73554e-07
-3.73412e-07
-4.95396e-08
-4.87958e-07
1.73399e-06
-6.89037e-07
-7.52311e-07
1.33417e-06
-9.00684e-07
-9.15828e-07
-1.49943e-06
-7.73989e-07
1.43406e-07
-1.07024e-07
-3.93145e-07
-2.97e-07
3.48763e-07
-9.50609e-07
1.34553e-06
-1.61158e-07
1.3492e-06
-2.70726e-07
5.96555e-07
-1.18034e-06
-9.38487e-07
8.0663e-08
-4.07817e-07
-7.25107e-07
-1.3627e-06
-3.67952e-07
1.54934e-06
3.65508e-07
3.04777e-06
9.02697e-08
-5.78375e-07
-9.35169e-07
4.04366e-08
1.18559e-07
-7.33756e-07
-1.09126e-06
1.85909e-06
-2.38532e-07
5.29348e-07
-7.31247e-07
-1.61794e-06
-2.64493e-07
-1.40543e-06
1.12982e-06
3.02278e-07
-2.83537e-07
-4.39046e-07
-1.076e-06
-9.91736e-07
-2.06468e-06
-1.30377e-06
-5.49742e-07
6.95514e-08
1.44069e-06
9.56869e-07
1.72628e-06
-3.9383e-07
-1.36503e-06
-1.56682e-06
-2.18336e-06
-1.76093e-06
8.97174e-08
2.22777e-07
1.68746e-06
1.90718e-07
2.35978e-07
2.64908e-06
-8.92429e-07
-1.30235e-06
2.2806e-06
-2.593e-07
1.63725e-06
-6.56881e-07
-2.51169e-07
-1.55492e-06
-3.4577e-08
-2.32677e-06
-1.08584e-06
-5.27605e-07
1.11575e-06
-4.16476e-08
-4.77102e-07
1.44713e-06
-1.72337e-06
-1.77801e-06
-2.22999e-07
-3.539e-06
-1.80128e-06
-1.47698e-06
-2.03448e-07
9.22449e-08
-1.3506e-06
6.02516e-07
8.23025e-07
2.79603e-07
4.64047e-07
-1.10514e-06
1.25131e-06
-2.52474e-07
3.54884e-06
-1.32301e-07
1.70241e-06
1.6634e-06
-5.0368e-07
-2.35174e-06
-2.59455e-06
-2.43575e-06
-3.17477e-06
-1.85923e-06
-1.15051e-06
7.32585e-08
-2.45093e-07
2.21841e-07
-2.02036e-07
-8.1389e-07
-1.99257e-07
-2.45716e-07
-2.78714e-07
2.58975e-07
5.98033e-07
1.69422e-06
-1.53123e-07
7.1456e-07
-2.86988e-07
1.73008e-06
4.93226e-07
1.37761e-06
-1.71086e-06
8.51061e-07
7.61039e-07
-6.60697e-07
-1.63171e-06
-2.3675e-06
-1.02598e-06
-4.62659e-06
-2.74324e-06
-3.52679e-06
-3.77877e-06
-2.43737e-06
-2.91611e-06
-1.33536e-06
-2.90167e-06
-9.14571e-07
-1.29958e-07
4.8318e-07
6.887e-07
1.26976e-06
9.665e-07
-1.37499e-07
-6.28827e-07
1.67858e-06
-1.16994e-06
2.75065e-06
-5.33602e-07
1.17334e-07
-5.76826e-07
-2.88959e-07
-3.67679e-07
1.42295e-06
-1.35222e-07
1.46701e-06
-1.26472e-06
-2.60053e-06
-4.06597e-06
-3.07002e-06
-2.72323e-06
-8.39378e-08
-1.76876e-06
-4.96304e-07
-2.95906e-06
5.78877e-07
2.12038e-06
-2.54485e-07
-4.02425e-07
5.82574e-07
2.29898e-06
3.24641e-07
1.90516e-07
2.89046e-06
2.64938e-07
1.81647e-09
1.49994e-06
1.45398e-06
-6.81643e-07
-1.05837e-06
4.61488e-07
7.56046e-07
9.10633e-07
-7.42104e-07
-5.0261e-07
-3.63184e-07
-1.98927e-06
-1.76544e-06
-2.68215e-06
8.16457e-07
-1.91144e-06
-1.252e-06
5.57585e-07
3.69177e-07
9.22041e-07
-3.26753e-07
1.26347e-06
-9.35008e-07
3.59155e-07
9.87382e-07
1.7675e-06
-4.64078e-07
1.43993e-06
1.74337e-07
1.61407e-07
8.95846e-07
1.21461e-07
-5.18333e-07
1.00376e-06
-1.55013e-07
-5.93452e-07
2.23329e-07
1.81671e-06
1.37042e-06
-5.26985e-07
5.54889e-07
9.85739e-07
3.35923e-08
-3.12438e-07
-5.36041e-07
-4.33184e-07
-3.80782e-07
-3.56837e-07
1.86078e-06
5.6823e-07
1.48659e-06
1.56605e-07
2.26979e-07
-2.37099e-07
1.27237e-06
1.19676e-06
-1.16247e-06
1.8381e-07
3.81645e-07
-2.42239e-07
3.37273e-07
-5.12713e-08
-2.2758e-06
1.34638e-06
-1.36536e-06
2.35593e-06
9.71386e-07
-3.60691e-07
3.66649e-07
8.63936e-07
-4.77722e-07
1.43724e-06
1.65027e-06
7.63988e-07
-2.00116e-07
-5.13984e-07
-2.46604e-07
6.75225e-07
1.97344e-06
1.06578e-06
1.11618e-06
4.0495e-07
-1.84495e-07
-5.56389e-07
9.55268e-07
-1.83953e-07
4.66892e-07
6.09707e-07
-1.16492e-06
1.70388e-06
9.26726e-07
-1.54972e-07
3.43664e-07
-4.77111e-07
-1.5096e-09
-1.56687e-06
3.01608e-07
-2.37651e-07
3.46286e-06
-2.52439e-07
-1.90918e-08
1.14363e-06
4.31175e-08
1.63703e-06
1.70602e-06
4.08878e-08
-1.04377e-06
-4.12182e-07
-4.66744e-07
5.02221e-07
8.37864e-07
-2.86017e-07
-6.00681e-07
-1.21288e-09
-9.41157e-07
5.40317e-07
4.02968e-07
1.22024e-06
2.31507e-07
-6.02195e-07
-1.49188e-06
6.54171e-07
-9.90598e-07
5.28324e-07
-1.23152e-06
-3.36043e-07
3.91731e-07
-9.99088e-07
1.29274e-06
4.82635e-07
-1.10729e-07
1.29523e-06
-1.47284e-06
-1.00781e-06
4.35419e-07
-1.46466e-06
-8.73048e-07
-1.16635e-06
-1.2871e-07
-1.55683e-08
1.51957e-06
1.08881e-06
-3.88614e-07
-4.64074e-07
1.29196e-06
1.71229e-06
-1.1263e-06
-3.01999e-07
-4.54401e-07
2.14948e-07
1.49558e-06
5.8793e-07
1.5704e-06
-1.1637e-07
9.99765e-07
3.01845e-07
-2.24492e-07
-2.01035e-08
-2.43885e-06
-3.53061e-07
-1.66045e-06
-2.06467e-06
5.95219e-08
1.79905e-06
9.19809e-08
-2.24631e-06
-3.00609e-07
-1.34319e-07
-1.75153e-06
9.03031e-07
3.09199e-07
-5.98683e-07
-1.80142e-07
6.38819e-07
5.77883e-07
1.03974e-06
-1.07278e-06
7.75061e-07
-7.72524e-07
-1.60107e-06
-1.73818e-06
-4.19705e-07
-5.39158e-07
3.05808e-07
1.55667e-06
1.18146e-07
-3.58945e-07
-1.55908e-07
-2.65218e-07
1.40624e-06
-2.28827e-07
-2.59382e-07
1.50996e-07
1.563e-06
6.76215e-07
-1.66763e-06
2.04942e-07
-8.17734e-07
1.57939e-06
-2.50434e-08
7.08199e-07
-9.31285e-07
-2.97561e-08
-1.30739e-06
-1.09736e-06
5.70694e-07
-7.64312e-08
-2.43235e-08
2.14837e-06
1.71789e-06
1.25338e-06
-1.74349e-07
-3.84866e-07
-3.4304e-07
-6.95781e-09
-1.67e-07
-3.84082e-08
1.03541e-06
6.73997e-07
-8.39661e-07
8.15126e-07
7.63235e-07
9.54169e-08
3.06132e-07
5.51259e-07
-3.0465e-06
4.2725e-07
-9.6127e-07
-1.16498e-06
-1.27743e-06
-1.1934e-06
-5.80014e-07
-2.13693e-07
2.6397e-07
-5.60204e-07
-1.77679e-06
-1.08371e-06
5.791e-07
-8.03239e-07
-3.36269e-07
2.93153e-07
2.23494e-06
-2.98627e-08
-1.55357e-06
9.71841e-07
-6.17508e-07
-8.34084e-08
-8.91394e-07
-1.62298e-06
-1.31289e-06
-8.34054e-07
-9.0595e-08
1.72345e-07
1.08928e-07
1.50585e-07
1.24328e-06
-8.98124e-07
6.64692e-07
-8.81334e-07
-3.55192e-07
6.55231e-07
1.19909e-06
1.17757e-07
9.11851e-08
-1.48583e-06
-1.64558e-06
-9.95951e-07
2.92867e-06
2.76832e-06
4.00395e-06
2.93714e-06
1.80832e-06
-3.89246e-07
6.58931e-07
-7.46492e-07
1.84106e-06
-6.03835e-08
2.38885e-06
-1.96502e-06
-1.41098e-06
1.15856e-06
-1.98417e-07
5.46428e-07
-9.0146e-07
-1.01734e-06
-5.43543e-07
4.83539e-07
6.54446e-07
-8.07212e-07
-3.78155e-08
-2.71769e-07
2.61786e-06
-2.26236e-07
6.26945e-07
9.68567e-07
4.06663e-06
3.99948e-06
3.49182e-06
3.14713e-06
2.72005e-06
2.04978e-06
1.40311e-06
1.0982e-06
-6.02264e-07
-4.07801e-07
-1.19588e-06
7.88627e-07
-4.64196e-08
2.09834e-07
-1.80283e-06
-2.88843e-07
-1.79721e-07
-1.10744e-06
-1.61163e-06
-5.38264e-07
-2.71315e-07
8.19038e-07
-7.78049e-07
9.87396e-07
1.90509e-06
1.55441e-06
-1.10744e-06
2.68656e-06
3.38196e-06
3.81582e-06
3.57359e-06
2.32644e-06
1.18501e-06
2.0468e-06
2.3678e-06
-2.3982e-08
-9.14427e-07
9.56102e-07
4.2998e-07
-2.40554e-06
7.17657e-07
1.48506e-06
1.39676e-06
2.55631e-07
-5.05355e-07
-2.55921e-07
3.26498e-07
-7.80852e-07
1.3634e-06
-5.03858e-07
-1.94853e-06
9.44826e-07
1.33635e-06
1.72532e-06
1.91879e-06
1.45117e-06
2.53975e-06
1.73276e-06
1.10562e-06
1.56868e-06
1.1713e-06
1.9802e-06
2.36093e-06
-3.28006e-07
1.60414e-06
-1.04237e-06
-1.1414e-07
-3.06656e-07
-7.20898e-07
-8.71145e-07
-2.15389e-07
-5.78078e-08
-6.67802e-07
-8.24765e-07
-1.65344e-06
-8.62761e-07
-7.42554e-07
-8.24573e-07
5.77285e-07
6.67733e-07
7.20253e-08
1.32832e-06
2.3215e-06
2.45566e-06
1.77589e-06
2.00291e-06
4.69289e-07
2.30431e-06
1.78318e-06
1.09098e-06
2.09685e-07
6.04728e-07
-4.93943e-07
-2.90281e-07
4.02061e-07
1.52005e-06
-2.66304e-06
2.46247e-07
1.80703e-07
1.18139e-06
-1.64991e-06
6.15439e-07
-8.95728e-07
-7.70597e-07
-1.2175e-07
-1.88855e-07
1.12838e-06
2.12113e-06
1.28535e-06
2.37331e-06
3.07689e-06
2.22989e-06
1.82545e-06
4.07384e-07
6.15109e-07
-7.40073e-07
1.33198e-06
-1.42823e-07
1.97051e-06
1.36133e-07
-5.37214e-09
-1.07431e-06
1.83785e-06
-8.08404e-07
1.37578e-07
-1.08009e-06
4.13165e-07
4.79217e-07
-2.45515e-07
5.08034e-08
-8.29747e-08
9.51567e-07
1.17772e-06
-1.07522e-06
-7.87465e-07
-2.46072e-07
4.58191e-07
2.33534e-06
2.17522e-06
9.35512e-07
2.31988e-06
6.56979e-07
5.99515e-07
-7.57573e-07
1.03467e-06
1.09773e-06
3.77467e-06
2.5766e-06
1.09056e-07
6.08721e-07
-2.24018e-07
-1.62474e-07
-2.86876e-07
-1.19829e-06
-1.90757e-06
-3.56659e-07
-1.37139e-07
5.06452e-07
1.46722e-06
1.67669e-06
-8.21645e-07
-4.5978e-08
1.27796e-06
1.61127e-06
4.0358e-06
2.82624e-06
2.6113e-06
1.03759e-06
-3.25897e-07
1.49137e-07
1.82315e-07
3.18391e-07
9.54206e-07
3.30649e-07
1.22431e-06
1.21424e-06
-4.53651e-07
2.20337e-07
1.28806e-06
-1.55942e-07
-4.55039e-08
-5.42979e-07
-3.21587e-06
-2.18752e-07
-1.40218e-06
1.42312e-06
3.85339e-07
-5.53047e-07
-5.44891e-07
5.29925e-07
1.96897e-06
5.31589e-07
2.94175e-06
2.04521e-06
1.73825e-06
1.94102e-06
-1.26275e-07
1.16778e-06
-4.71872e-08
-1.42989e-06
1.46258e-06
1.42244e-06
4.03431e-06
4.30263e-06
1.15956e-06
-9.86289e-07
-6.93963e-07
1.32185e-07
6.72855e-07
-2.10547e-06
-4.19742e-07
9.10958e-07
1.03431e-06
-1.35496e-06
8.96426e-07
-7.88226e-07
9.50826e-07
-5.02114e-07
-2.20576e-07
1.43861e-06
4.29688e-06
2.23098e-06
-5.82151e-07
-1.16193e-06
7.81847e-08
-4.98253e-07
-8.32451e-07
-1.00486e-06
1.50177e-06
2.22243e-06
5.7331e-07
3.57052e-06
1.64933e-06
4.09553e-07
-5.42108e-07
-5.50668e-07
9.39829e-07
6.16287e-07
1.90852e-06
-7.38122e-07
-1.10679e-06
-1.44587e-07
6.04818e-07
1.06028e-06
7.49615e-07
1.48098e-06
3.96103e-06
1.13735e-06
3.15648e-06
1.27545e-06
-7.88145e-07
-8.99315e-07
-1.35228e-06
-1.89428e-06
-1.81952e-06
-7.8987e-07
-5.29197e-07
3.41853e-07
2.88606e-06
2.29784e-06
2.92257e-06
1.33573e-06
4.35013e-07
-1.1371e-06
6.87708e-07
1.29262e-06
-4.46206e-07
-2.57263e-07
8.83873e-07
1.04667e-06
-9.14728e-07
2.21984e-06
1.85017e-07
9.51629e-07
1.87168e-06
4.07375e-07
2.97572e-06
-5.41944e-08
-1.22008e-06
-2.87785e-06
-8.95379e-07
-2.11337e-06
-1.32884e-06
1.5659e-07
1.95096e-06
1.85834e-06
3.89762e-06
1.26687e-06
-2.15111e-07
-1.40397e-07
-1.47163e-06
-3.06627e-07
2.1833e-07
-4.88324e-07
4.13801e-07
9.67352e-08
-1.7008e-06
-2.5331e-06
1.89947e-07
1.14872e-06
-2.0539e-07
-3.4976e-07
4.70147e-06
3.29194e-06
1.48573e-06
-1.94395e-06
-1.40238e-06
-8.97916e-07
-2.02007e-06
-3.72508e-06
-1.16356e-06
-1.08748e-06
3.23791e-06
2.69313e-06
1.88381e-06
2.97325e-06
3.04152e-07
2.99257e-07
1.8011e-06
9.20585e-07
3.14544e-07
9.7497e-07
-1.2375e-06
-2.68605e-06
5.2308e-07
2.80542e-07
-3.08452e-07
1.01622e-06
1.04354e-06
3.93765e-06
3.28808e-06
1.89787e-06
2.2002e-06
1.85985e-06
2.54682e-07
2.51776e-07
-4.12845e-06
-1.76087e-06
4.4402e-07
1.73204e-06
1.39374e-06
3.40396e-06
2.35821e-06
9.5551e-07
-1.82856e-06
1.77244e-06
3.3148e-07
-1.04361e-06
-3.66065e-07
-6.46987e-07
-1.46273e-06
-1.19257e-06
8.28938e-08
-8.3447e-07
7.93564e-07
7.49441e-07
1.41725e-06
2.82013e-06
3.65788e-06
2.48344e-06
8.02048e-07
8.149e-07
-2.33205e-06
-6.99159e-07
-2.97941e-06
1.59742e-06
-2.74004e-07
2.93511e-06
3.5158e-06
2.66559e-06
2.03219e-06
5.39408e-07
-4.13715e-08
-1.35193e-07
-2.48749e-06
-1.45554e-06
-7.05685e-07
-3.18982e-07
1.22894e-06
-9.99926e-07
1.68288e-07
-1.06856e-06
2.91029e-07
1.931e-06
6.20706e-07
4.11046e-07
1.99615e-06
2.85507e-06
1.45229e-06
5.51588e-07
1.43172e-07
-1.42468e-08
6.77377e-07
3.12756e-06
3.05496e-06
5.5809e-06
3.6597e-06
1.03576e-06
-5.9093e-08
6.90738e-07
1.85842e-07
-1.38e-06
-1.6223e-06
1.29193e-06
-1.87234e-07
-3.86459e-07
1.25767e-06
-1.62443e-06
-4.65378e-07
-1.35379e-06
-5.62735e-07
4.42196e-07
-6.80854e-07
1.74804e-06
4.11927e-06
3.66607e-06
1.9459e-06
1.31599e-06
2.11102e-06
1.32373e-06
3.68128e-06
2.67531e-06
4.29541e-06
3.90416e-06
6.87304e-07
1.45317e-06
6.33964e-07
2.85365e-08
9.20633e-07
-5.26459e-08
-6.47889e-07
-1.15429e-06
-1.03027e-06
5.43889e-07
8.31765e-07
-3.45624e-07
-5.84251e-07
7.36349e-07
1.68683e-06
1.14246e-06
4.47411e-07
2.00277e-06
1.85403e-06
4.20784e-06
3.39195e-06
2.13759e-06
2.42724e-06
3.02102e-06
3.20484e-06
2.47134e-06
1.45505e-06
1.64106e-06
1.10872e-06
-2.30139e-06
-1.08312e-06
1.50016e-06
-5.41871e-07
-1.23402e-06
-3.66538e-07
-2.28519e-07
-5.05927e-07
-1.28776e-07
-2.54461e-07
-9.08642e-07
6.10216e-07
9.225e-07
-8.94846e-07
1.33526e-07
-4.97904e-07
1.17776e-06
2.27466e-06
8.00374e-08
2.19392e-06
3.4302e-06
3.13584e-06
2.98358e-06
2.66457e-06
2.20289e-06
1.87369e-06
2.13794e-06
-4.01683e-07
2.06834e-07
-1.61301e-06
-1.20527e-06
1.65477e-07
2.49452e-07
-1.23672e-06
-1.44451e-06
1.78663e-07
1.98463e-07
4.74798e-07
1.05362e-06
-9.16458e-08
-1.32433e-06
1.01633e-06
-5.21176e-07
1.24692e-06
1.64322e-06
8.79557e-07
7.00306e-07
1.09701e-06
1.37631e-06
7.31924e-07
1.54392e-07
-2.64381e-07
-7.85001e-07
-7.97943e-07
-1.16233e-06
4.41624e-07
7.03317e-07
9.66562e-07
-2.29044e-07
-2.06744e-07
-1.02988e-06
3.20148e-07
8.20219e-07
6.13309e-07
1.74137e-06
5.16736e-07
8.69939e-07
9.63345e-07
-1.66768e-06
-1.57343e-06
-1.56203e-06
-7.21498e-07
-6.78397e-07
-2.47265e-07
5.19664e-07
3.99933e-07
-1.59995e-07
3.86229e-07
-5.72294e-07
-1.32284e-06
-5.61495e-07
-1.28429e-06
1.70663e-06
-6.53826e-07
-1.78232e-08
-2.09308e-06
1.02387e-08
-1.18646e-07
8.74055e-07
-2.06363e-06
-2.00067e-06
-3.18423e-07
-1.71055e-06
-1.44649e-07
-1.21839e-06
-1.16639e-06
1.01849e-07
-6.5488e-08
-4.12585e-07
3.02534e-07
1.19828e-06
-1.00587e-06
-2.25069e-06
-3.60642e-07
2.95009e-06
1.89316e-07
-2.20268e-07
1.53757e-08
4.60046e-07
-2.46411e-06
5.77884e-07
-4.31431e-08
-6.56619e-07
-1.52428e-06
1.56032e-07
-1.93289e-07
-4.21524e-07
4.81166e-07
-7.5365e-07
-9.00165e-07
-3.96254e-07
7.92117e-07
5.82682e-07
1.08711e-06
1.09947e-06
2.29515e-06
6.90867e-07
-1.22997e-06
-3.92904e-07
-1.47336e-06
-2.35384e-07
-6.69513e-07
-5.36875e-07
5.81821e-08
-7.09865e-07
-9.74063e-07
-7.82318e-07
-9.62598e-07
1.69965e-06
-6.29455e-08
7.19107e-08
8.42745e-07
-9.31894e-07
2.08775e-06
2.29445e-07
-2.97504e-07
1.02971e-06
1.64985e-07
-1.26313e-06
9.5095e-07
1.23431e-06
9.50193e-07
1.08908e-07
-3.21834e-07
7.0111e-07
7.3454e-07
1.74323e-06
-4.81618e-07
7.48198e-07
3.25222e-07
1.38383e-06
1.16153e-06
-3.09176e-07
1.40022e-06
-6.56625e-07
1.25383e-06
-1.11523e-06
8.90693e-07
1.09642e-06
2.45456e-07
1.26512e-06
1.51177e-06
1.79088e-06
8.4517e-07
-1.53333e-06
8.62189e-07
1.67098e-06
5.53853e-07
7.80445e-08
-1.67825e-07
-3.46435e-07
2.94346e-07
2.74564e-06
-7.8414e-07
5.0277e-07
2.92023e-07
6.36441e-07
-4.44774e-07
-2.06279e-07
3.42825e-07
-9.73004e-07
1.08185e-06
6.64859e-07
-2.88372e-07
1.52716e-06
-8.57371e-08
6.39316e-07
1.14737e-06
1.98175e-07
-1.02173e-06
1.59516e-06
3.9705e-07
4.84054e-07
1.4568e-06
9.96206e-07
1.5046e-06
-1.94854e-07
1.3327e-06
6.21176e-07
2.13747e-06
1.54302e-08
-4.83144e-08
-9.48048e-07
1.62874e-06
2.02596e-06
1.46397e-06
8.18287e-07
4.79909e-07
1.71317e-06
3.07686e-06
1.38534e-06
-1.31997e-06
-9.52034e-07
-4.53388e-07
8.25791e-07
-2.05109e-07
1.36555e-06
8.62677e-07
-1.58591e-06
1.63212e-06
3.05752e-06
3.05362e-06
-6.70514e-07
1.36695e-06
3.35162e-07
-1.44062e-06
-9.95868e-07
8.34258e-07
5.77977e-07
5.93021e-08
3.77399e-08
5.20022e-07
9.74812e-07
-1.30558e-06
1.3674e-06
1.30177e-06
3.51644e-07
8.76671e-07
1.45415e-06
-1.36925e-06
6.63792e-07
6.61607e-07
2.19007e-07
1.24894e-06
2.4589e-06
1.51739e-06
9.57667e-07
1.74788e-06
1.75574e-07
3.51717e-07
-2.87589e-07
3.75746e-07
2.28144e-06
-1.75091e-07
-1.36429e-07
2.49054e-07
1.02941e-06
1.21834e-06
-2.28551e-07
5.57173e-07
1.07789e-06
6.61635e-07
1.28164e-06
1.91154e-06
-7.80307e-07
-1.15537e-06
-6.50887e-07
-8.19386e-07
-1.42775e-06
-7.7496e-07
2.94625e-07
-1.60695e-06
1.02411e-06
1.3632e-07
2.86932e-06
-6.45891e-07
5.5107e-07
3.30556e-07
1.4996e-06
6.32614e-07
3.54922e-07
5.35162e-07
1.44662e-06
1.48167e-06
1.62867e-06
7.57839e-07
2.26851e-06
7.69646e-07
1.2572e-06
7.22869e-07
6.66445e-07
-1.44966e-07
5.72059e-07
-3.43747e-06
-1.20589e-06
-4.64567e-06
-1.01629e-06
-2.33449e-06
-1.38083e-06
-1.0565e-06
-5.90903e-07
1.55236e-06
1.86119e-06
1.1908e-06
5.74167e-07
1.18484e-06
-3.03829e-07
8.41265e-07
-1.09525e-06
-5.95794e-07
1.82029e-06
1.84493e-06
8.15118e-07
-4.67111e-08
-1.34416e-06
1.15721e-06
1.08958e-06
6.00087e-07
-6.77757e-08
-9.83875e-07
-8.49548e-07
-3.59722e-06
-4.65798e-06
-4.90545e-06
-5.49207e-06
-3.40865e-06
-1.03043e-06
-1.22198e-06
5.45755e-08
-4.02476e-08
8.30823e-07
3.04341e-07
-2.36577e-07
-5.90595e-07
1.61391e-06
1.29725e-06
-5.50494e-07
9.15594e-07
3.75967e-07
1.6448e-07
1.66743e-06
1.26058e-06
1.89145e-06
-2.94012e-07
-4.99127e-08
-2.88747e-06
-1.93948e-06
-2.93135e-06
-5.12767e-06
-4.14312e-06
-4.46215e-06
-4.38507e-06
-4.72032e-06
-3.89482e-06
-4.35797e-06
-2.60744e-06
-1.25323e-06
1.23907e-06
2.15603e-06
1.37816e-06
7.01091e-07
-4.8685e-07
9.45496e-07
-3.57636e-07
-4.23345e-08
1.80971e-06
1.30308e-06
8.78186e-07
-5.0406e-07
1.65007e-06
8.03996e-07
-1.71585e-07
-1.09942e-06
-1.06217e-06
-2.37359e-06
-6.11443e-06
-5.40038e-06
-5.54226e-06
-3.63441e-06
-8.07413e-07
-4.70944e-06
-2.36286e-06
-4.28167e-06
-3.64663e-06
-2.13053e-06
-1.27274e-07
1.34933e-07
1.15478e-06
2.15904e-06
2.17709e-07
1.06204e-06
6.87587e-07
1.03387e-06
2.26425e-07
8.14903e-07
9.4645e-07
1.11372e-06
8.45371e-07
-3.21156e-07
-3.41363e-07
-1.00836e-06
-2.5261e-06
-5.17324e-06
-3.96836e-06
-4.01421e-06
-1.68178e-06
-2.48507e-06
-6.05121e-07
-3.34633e-06
-3.26957e-06
-5.74449e-06
-6.10199e-06
-2.55758e-06
6.52783e-07
5.35719e-07
-2.63984e-07
-8.39765e-07
1.66127e-08
1.22599e-06
1.73324e-06
1.59164e-06
8.06837e-08
3.05421e-07
1.51582e-06
5.2264e-07
-2.18384e-07
-1.72355e-06
-1.0295e-06
-3.15211e-06
-4.50837e-06
-6.16264e-06
-6.32943e-06
-2.20457e-06
-4.10634e-06
9.43418e-07
8.51612e-07
-1.16316e-06
-3.95296e-06
-6.14475e-06
-5.86629e-06
-3.94729e-06
-2.073e-07
1.27576e-06
2.06203e-07
3.92964e-07
2.14536e-06
9.89234e-08
2.74937e-06
4.20562e-08
1.62014e-07
1.27877e-06
-4.13515e-07
8.29049e-07
1.0528e-06
-1.13713e-06
-6.95296e-07
-1.99951e-06
-2.2156e-06
-6.78427e-06
-6.37786e-06
-1.34939e-06
1.19859e-06
2.22388e-06
-2.51475e-07
-2.71197e-06
-3.81496e-06
-2.45728e-06
-3.46307e-06
-1.77187e-06
-1.7766e-06
8.77958e-07
2.04695e-07
-5.88229e-08
-1.17828e-07
1.09424e-06
9.64267e-07
1.86604e-06
-8.61818e-08
1.35534e-06
2.53883e-06
-1.31598e-07
-6.69984e-07
-5.98742e-08
-4.61702e-08
-4.49101e-06
-5.87615e-06
-3.35177e-06
-4.86725e-06
-1.36441e-06
1.29523e-06
1.4129e-06
-1.92397e-06
-2.15063e-06
-4.87533e-06
-2.88017e-06
-5.89551e-06
-2.61776e-06
-2.07394e-06
-9.08939e-08
-1.07166e-06
3.28845e-07
1.29921e-06
1.52046e-06
1.41404e-06
9.2955e-07
3.14174e-07
8.0312e-07
1.40739e-06
2.66508e-07
-1.63787e-06
-2.49269e-06
-2.50939e-06
-5.12324e-06
-2.84852e-06
-2.79115e-06
-3.40058e-06
-4.98974e-08
5.78286e-07
1.63446e-06
-1.35883e-06
-2.23365e-06
-3.38328e-06
-2.11946e-06
-3.7873e-06
-3.10914e-06
-4.85397e-07
-1.62135e-06
-1.19566e-06
6.43219e-07
7.28047e-07
7.67113e-08
1.75309e-06
-1.86459e-07
8.82445e-07
7.89592e-07
5.99517e-07
3.77142e-07
-1.60132e-06
-3.4991e-07
-2.5878e-06
-2.99474e-06
-4.42113e-06
-3.58123e-06
-2.22232e-06
1.27101e-06
7.89879e-07
1.87593e-07
-7.30134e-07
-2.83383e-06
-2.44222e-06
-2.59088e-06
-4.24076e-06
-1.9742e-06
-1.16233e-06
-1.36598e-06
-6.00802e-07
6.23442e-07
1.24797e-06
1.14423e-06
3.3045e-07
1.12248e-06
7.72085e-08
-1.08154e-06
-4.73846e-07
1.01942e-06
-1.86069e-06
-3.86351e-06
-3.41172e-06
-2.20044e-06
-1.69672e-06
-1.26922e-06
-1.43665e-07
2.08421e-06
2.17285e-06
4.31383e-07
-1.89146e-06
3.49215e-07
-1.40874e-06
-2.22536e-06
-2.93295e-06
-5.22008e-06
-1.41042e-06
-2.25662e-07
2.63585e-07
1.86347e-06
1.29098e-06
8.23502e-07
5.06217e-07
-1.81817e-07
-1.85928e-08
1.27104e-07
7.34397e-07
1.23662e-07
-2.12428e-06
-2.74076e-06
-3.30569e-06
-3.94931e-06
-3.04431e-06
-1.48897e-06
-1.2064e-06
1.98336e-06
2.4233e-06
-2.19494e-06
-1.49836e-06
1.96542e-07
-1.89075e-06
-3.35761e-06
-6.15724e-06
-2.04575e-06
-1.2292e-06
5.41748e-07
6.81424e-07
-2.13827e-07
6.26843e-07
1.42704e-06
1.57333e-06
-7.47202e-08
1.41666e-06
-6.11153e-07
-1.2399e-06
1.09273e-07
-1.25476e-06
-1.92152e-06
-3.79604e-06
-3.65237e-06
-2.68177e-06
-6.85624e-07
-8.69256e-07
3.51727e-06
1.33137e-06
-1.43142e-06
-2.63107e-06
-2.36036e-07
-2.57639e-06
-3.2281e-06
-1.47027e-06
-2.43255e-06
5.9698e-07
3.81473e-07
1.34223e-06
1.66085e-06
3.9254e-07
1.77155e-06
2.49643e-07
1.22331e-07
1.66721e-06
-1.98685e-07
-8.38183e-07
4.7323e-07
-1.10915e-06
-4.13784e-06
-3.29333e-06
-1.28608e-06
6.50588e-07
-1.59907e-06
9.22899e-07
2.16988e-06
9.42415e-07
-1.65561e-07
-8.76214e-08
-1.20749e-06
-2.96924e-06
-3.29324e-06
-3.16116e-06
-1.2934e-06
2.53498e-07
7.61429e-07
2.0316e-06
9.45772e-07
1.46235e-06
6.50596e-07
-7.1811e-07
2.50862e-06
1.46141e-06
7.90623e-07
8.60678e-07
2.90822e-08
6.75189e-07
-1.10163e-06
-3.54037e-06
-3.65654e-06
-1.5201e-06
1.74155e-06
3.52876e-06
1.59962e-06
-1.24799e-06
-1.73674e-06
-3.01989e-06
-2.7205e-06
-2.93341e-06
-1.70902e-06
-2.17188e-06
-4.70599e-07
2.40268e-07
2.70791e-07
-1.09391e-07
1.36995e-06
1.93544e-07
6.03481e-08
8.38879e-07
3.67588e-07
3.80218e-09
5.26576e-10
4.52211e-07
1.03179e-06
-5.95081e-07
-3.5673e-06
-2.53555e-06
-4.36032e-06
-1.75838e-06
1.75337e-06
1.18295e-06
3.72723e-07
-2.81566e-06
-5.80238e-06
-3.16611e-06
-2.05102e-06
-2.90784e-07
-1.93455e-06
3.48545e-07
-1.54921e-06
2.19874e-06
9.04909e-07
3.10286e-07
7.70498e-07
1.25099e-07
1.41571e-06
1.89587e-06
-1.02559e-06
1.01969e-06
1.52819e-06
2.35357e-06
-9.26378e-07
-1.36801e-06
-2.76611e-06
-5.14615e-06
-4.52128e-06
-1.99986e-06
-4.69229e-07
-3.60037e-06
-4.24971e-06
-3.47078e-06
-3.76918e-06
-4.10899e-06
-2.53128e-06
-4.71696e-07
-2.58094e-07
-2.69657e-07
1.56226e-06
1.25915e-06
4.63558e-07
6.24332e-07
9.03478e-07
1.20019e-06
1.75646e-07
1.48593e-06
9.23909e-07
9.39576e-07
1.04863e-06
1.07924e-06
3.06397e-06
1.99596e-07
-1.44434e-06
-3.72159e-06
-2.50618e-06
-4.20922e-06
-4.51383e-06
-6.9148e-06
-4.95957e-06
-4.58069e-06
-3.26e-06
-1.92328e-06
-2.5731e-06
-2.68041e-06
-7.11924e-07
-1.02673e-06
2.04408e-06
2.13507e-06
1.53438e-06
2.88134e-08
2.22566e-07
1.86866e-06
6.98072e-07
-6.09279e-07
1.63266e-06
-3.35558e-07
1.72202e-06
1.87634e-06
-3.53002e-08
-2.22569e-07
3.62478e-07
-2.19114e-06
-2.37867e-06
-2.08652e-06
-3.23294e-06
-4.7716e-06
-3.57681e-06
-4.56111e-06
-1.16121e-06
-1.16718e-06
6.10395e-07
-2.29775e-06
1.6748e-07
1.11428e-06
4.1891e-07
1.23341e-06
9.3131e-07
3.66102e-07
8.0471e-07
4.37662e-07
-1.06503e-06
2.00493e-06
3.63951e-07
2.33843e-06
-2.20792e-07
1.31915e-06
6.97441e-07
-1.31681e-07
-1.11778e-06
-7.61951e-07
-2.49017e-06
-3.01467e-06
-2.16552e-06
-2.1472e-06
-1.56478e-06
-5.60441e-07
-1.26251e-07
-6.6634e-07
-2.70169e-08
-8.7135e-07
7.96714e-07
-1.43148e-06
1.34635e-06
9.57089e-07
3.22514e-07
8.70718e-07
-1.89913e-07
1.53655e-06
-2.77383e-07
1.51856e-06
5.28011e-07
8.39826e-07
9.34778e-07
5.51221e-07
1.273e-06
2.98659e-07
1.69536e-06
-8.77898e-08
-1.6757e-06
2.02803e-06
-3.84586e-08
1.20712e-06
2.11064e-06
1.10767e-06
6.36226e-07
9.12817e-07
-6.59551e-07
4.04198e-07
1.52674e-06
2.63583e-06
1.23042e-06
6.36729e-07
8.03505e-08
7.70572e-07
1.26121e-06
3.44602e-07
2.26756e-06
2.26636e-07
1.66002e-06
-7.85618e-07
1.66851e-06
5.73677e-07
-8.65136e-07
-8.69248e-07
1.84184e-07
8.39734e-07
-2.16542e-08
-1.3799e-06
1.02156e-06
2.13136e-06
2.2493e-06
-1.30935e-06
1.97283e-06
-4.21343e-07
3.38366e-06
1.53899e-06
3.32196e-07
2.35554e-06
4.08846e-07
2.05412e-06
-1.35412e-06
-1.86616e-07
-7.23035e-07
6.95006e-07
4.84351e-07
-9.75062e-07
5.41736e-07
-3.59429e-07
-5.46003e-07
3.31027e-07
-1.00607e-07
1.13936e-06
-4.99026e-07
2.69513e-06
4.26966e-07
5.81205e-07
9.47254e-07
1.16664e-06
2.98671e-07
6.46222e-07
9.51665e-07
6.48805e-07
2.22771e-06
-1.69644e-06
7.39177e-07
7.15117e-07
-3.19041e-07
-1.86668e-07
3.58731e-07
-6.88803e-07
-7.48056e-08
6.65919e-07
9.42858e-08
6.99561e-07
1.90427e-07
6.20203e-07
2.19405e-07
7.89816e-07
2.54194e-07
2.02349e-06
8.37508e-07
1.00541e-06
1.29042e-06
8.46563e-07
-2.89333e-08
-2.51479e-07
1.68612e-06
3.19587e-07
1.07834e-06
1.91834e-06
9.60622e-07
1.0748e-07
-1.61957e-08
4.54922e-07
5.83678e-07
2.11615e-06
1.24154e-06
-1.8706e-06
-9.06379e-07
7.6372e-07
-1.31992e-07
7.71405e-07
6.59758e-07
-1.09842e-06
-1.95116e-06
-9.38456e-07
-9.9204e-07
-6.32955e-08
1.23606e-07
-4.46494e-07
1.16869e-06
1.62106e-06
8.98543e-07
-2.90563e-07
-4.18656e-07
5.7505e-07
1.50773e-06
9.34471e-07
1.47496e-06
7.57203e-07
1.76321e-06
-4.9099e-07
6.81291e-07
1.55454e-06
5.2394e-07
1.21376e-06
1.54601e-06
6.42218e-07
-2.07348e-07
-8.3829e-08
2.82389e-07
-5.60932e-07
-1.08846e-06
-2.55014e-07
6.30993e-07
3.7321e-07
-2.88976e-07
-9.60638e-07
1.75138e-07
4.77121e-07
-3.94541e-07
5.42929e-07
2.13781e-06
1.49788e-06
1.06662e-06
3.71303e-07
3.9721e-07
1.46723e-07
1.55262e-07
-1.09354e-06
9.08324e-07
6.81624e-07
1.49804e-06
9.36466e-07
-2.23639e-06
1.10932e-06
8.95209e-07
8.10459e-07
1.87536e-06
5.42013e-07
1.41089e-06
1.88086e-06
1.37417e-06
-3.92557e-07
1.73366e-06
-2.80701e-07
-6.23565e-07
-2.05681e-07
1.47215e-07
4.19314e-07
8.21159e-08
6.61256e-07
-7.25329e-07
2.57244e-06
3.61445e-06
2.36273e-06
3.05087e-06
1.15452e-06
-5.70158e-07
-1.09705e-06
1.45753e-07
9.14285e-07
1.21597e-06
1.62775e-06
-3.20988e-07
7.04967e-07
1.79203e-06
9.29946e-07
1.35208e-06
6.44498e-07
1.96548e-06
9.90507e-07
1.64511e-06
-6.75776e-08
-2.1943e-07
2.26764e-06
1.09141e-06
-1.07946e-06
-3.64717e-06
1.05512e-06
-6.60193e-07
2.48821e-06
9.25139e-07
-8.39082e-07
2.87879e-07
1.00308e-07
-4.11938e-07
9.63678e-07
7.19499e-07
-2.1577e-07
-3.07545e-07
3.46072e-07
-1.16296e-06
6.40057e-07
-1.20218e-06
-3.17715e-07
1.20585e-06
-2.75663e-06
8.44665e-07
-1.34541e-06
2.11754e-06
-1.41919e-06
-1.62507e-07
3.67063e-07
-6.98155e-07
-9.88362e-07
-1.04e-06
-2.97993e-06
-1.56426e-06
-2.6139e-06
-2.65599e-06
-2.56855e-06
-1.57531e-06
-1.69399e-06
3.07019e-07
5.5405e-07
1.11846e-06
-7.80219e-07
2.00789e-06
3.8296e-08
-1.52203e-06
1.84135e-07
2.75139e-07
-7.93576e-07
2.66013e-06
-1.02729e-06
5.34128e-07
1.9857e-06
-3.87143e-07
1.47253e-07
6.60502e-08
-6.16493e-07
-1.41527e-06
-2.02744e-06
-3.33294e-07
-2.41787e-06
-3.62904e-06
-3.55081e-06
-4.14542e-06
-4.8839e-06
-1.07658e-06
-4.71655e-07
-1.10948e-06
1.39732e-06
-1.38069e-06
1.04441e-06
-3.07826e-07
1.45093e-06
-1.16755e-06
2.48446e-06
1.17354e-06
1.86757e-06
-1.14827e-07
1.79528e-06
-1.13778e-08
8.74704e-07
-1.15136e-06
2.79354e-07
-2.20585e-07
-1.50149e-06
-1.08034e-06
-5.5919e-07
-2.56383e-06
-2.11294e-06
-2.22365e-06
-3.27138e-06
-5.12647e-06
-3.70063e-06
-4.24721e-06
-4.08359e-06
-1.09822e-06
-4.60383e-07
3.09612e-06
-3.42484e-07
6.86269e-08
1.33781e-06
1.6526e-06
7.07682e-07
1.87545e-06
3.42891e-07
-8.46644e-07
-2.14773e-06
1.4112e-06
-1.09318e-06
-3.96537e-07
-7.89691e-07
-1.11957e-06
-7.11622e-07
-2.54602e-06
-1.96449e-06
-3.7586e-06
