0.00508188
0.00507927
0.00507877
0.00507992
0.00508039
0.00508247
0.00507946
0.00507889
0.00507937
0.00507868
0.00508083
0.00508024
0.00507872
0.00507974
0.00508041
0.0050812
0.00507938
0.00508085
0.00507887
0.0050794
0.00508034
0.00508121
0.00507883
0.00508194
0.00507905
0.00507981
0.00507984
0.00507993
0.00507875
0.00507984
0.00508056
0.00508019
0.00508012
0.0050819
0.00508031
0.00518517
0.00551513
0.00574771
0.00566228
0.00547329
0.00540468
0.00525682
0.0051887
0.00182484
-0.00261872
0.0050488
0.00579233
0.0051743
0.0050665
0.00517683
0.00512152
0.00507811
0.00507939
0.00507998
0.0050796
0.00508059
0.00507982
0.00507849
0.00507996
0.00508155
0.00506669
0.00506988
0.00504043
0.00514758
0.00587856
0.00957507
0.00459962
0.00308138
1.30218e-05
-0.000676957
0.000306028
0.00299412
0.00864142
0.0182798
0.0218682
0.0165104
0.00800252
0.00493574
0.00478002
0.00476941
0.0049562
0.00507941
0.00507977
0.00508069
0.00507958
0.00508105
0.00507984
0.00507911
0.00507858
0.0043915
0.00402306
0.00421821
0.0070097
0.00320731
-0.00787511
-0.0153089
-0.0137545
-0.014884
-0.00452888
0.00148775
0.00776877
0.0145893
0.0260564
0.0300134
0.0192845
0.0140945
0.00930478
0.00423688
0.00329173
0.00508133
0.00508084
0.00507938
0.00507933
0.00508065
0.0050808
0.0050942
0.00575116
0.00527592
0.00450024
0.00106571
0.000201861
-0.00871533
-0.0153546
-0.0213743
-0.0263276
-0.024327
-0.0239833
-0.016931
-0.0109484
-0.0203371
-0.0157891
0.0111751
0.0141414
0.00816038
0.0137614
0.00589675
0.0024857
0.00523988
0.00507888
0.00507876
0.00507947
0.00508049
0.00512505
0.00499291
0.007241
0.00845945
0.00478594
0.00416203
-4.59326e-05
-0.0100174
-0.00768411
-0.0231952
-0.0253021
-0.0257901
-0.0213765
-0.0161336
0.00808568
0.0115117
-0.0122304
0.00040395
0.00630629
0.00295568
0.00664778
0.00773542
0.00530856
0.00757448
0.00513582
0.00505868
0.00507991
0.00508073
0.00514331
0.00524721
0.00912337
0.0159958
0.0153216
0.00151329
0.00236474
-0.00299638
-0.0179118
-0.0285785
-0.0372723
-0.0371473
-0.0230693
-0.0226844
-0.0265909
-0.0313177
-0.0352564
-0.0255746
-0.0020462
-0.00620205
0.00574986
0.0200882
0.00896491
0.00967964
0.00425456
0.0051959
0.00508036
0.00513595
0.00511639
0.00415042
0.00716409
0.0147686
0.0100555
-0.0170276
-0.00795156
-0.0050544
-0.021265
-0.0403702
-0.0516986
-0.0476857
-0.0435356
-0.0568954
-0.0544022
-0.0368497
-0.0292481
-0.0441606
-0.0259785
-0.0113649
-0.000974056
0.0151395
0.0135559
0.00323289
0.0013605
0.00607191
0.0050911
0.00513079
0.00485434
0.00255274
0.00767688
-0.000359761
-0.00248605
-0.00767054
-0.0173019
-0.0140036
-0.0183643
-0.0312608
-0.0570752
-0.0623659
-0.0643486
-0.0490282
-0.0386016
-0.0484952
-0.0467043
-0.036466
-0.0313162
-0.0145851
-0.00523711
0.00257764
0.0118501
0.00453929
0.00402132
0.00451504
0.00508031
0.00451906
0.00342104
-0.0007293
0.00664109
-0.000437269
-0.010445
-0.00137681
-0.00602304
-0.0248233
-0.00316765
-0.0169875
-0.0280982
-0.0366441
-0.0439204
-0.0335303
-0.0219094
-0.0483038
-0.03841
-0.0118591
-0.0284449
-0.0164553
-0.017859
-0.0111549
0.00155294
0.00821524
0.00402375
0.00533547
0.0050796
0.00362541
0.00253411
-0.000658644
0.00230126
-0.00744801
-0.0134563
-0.00141655
-0.00196159
0.000725826
0.0182401
0.0107901
0.0244813
0.00311545
-0.00832609
-0.0112985
-0.0305837
-0.0244143
-0.0247246
-0.0306138
-0.015951
-0.0181945
-0.0197413
-0.00772386
0.00502003
0.00840104
0.00539892
0.00507837
0.00507941
0.00494657
0.00513375
0.00431406
0.00279261
-0.00634521
-0.00592961
0.00454895
0.022167
0.0210155
0.026551
0.0324122
0.0287111
0.0165314
0.0022991
-0.0107118
-0.00841559
-0.00402339
-0.0148247
-0.000693288
-0.0242956
-0.0136575
-0.00480578
-0.002636
0.00482497
0.00426312
0.00579681
0.00511168
0.00507904
0.00613111
0.00634701
0.00507935
0.00315308
0.00474003
0.00718703
0.0251673
0.0237732
0.0375125
0.0321809
0.035922
0.0389108
0.0266412
0.0112372
0.00206294
0.00612093
0.00155235
0.00725424
-0.00129925
-0.0149891
-0.00638296
0.00218366
0.0059153
0.0113291
0.00432761
0.00453865
0.00519435
0.00507986
0.00655128
0.00548502
-0.00110712
0.00869252
0.0173723
0.0238858
0.0276299
0.0268087
0.0433545
0.0474569
0.055451
0.0483937
0.00881007
0.0101537
0.00779704
0.00210812
0.0153471
0.0137371
0.00190554
0.0219016
0.00812158
0.00840127
0.0184217
0.0226539
0.0103355
0.00450986
0.00508073
0.00507822
0.00576176
0.00628735
0.00136335
0.00773067
0.0259282
0.0382467
0.02626
0.022775
0.0401321
0.0361947
0.0378548
0.0285502
-0.00519966
0.00462461
0.00731557
0.0109603
0.0139438
-0.00122749
0.00533543
0.0191962
0.0123918
0.017615
0.0168853
0.0197137
0.0144823
0.00446238
0.0050813
0.0050797
0.0051129
0.00611763
0.00216209
0.00428886
0.0074901
0.025147
0.027402
0.0360598
0.0291357
0.0237167
0.021053
0.00945575
-0.0123643
2.525e-05
0.0239806
0.00496884
-0.00902996
-0.00980745
0.00499019
0.00210642
0.00925544
0.00357802
0.0141465
0.00980146
0.00612992
0.000452409
0.00512625
0.00507875
0.00507968
0.00524269
0.00147772
-0.0104384
0.00165248
0.00546437
0.0181481
0.0323329
0.011434
0.0196512
0.0175919
0.012513
0.0012609
0.0108066
0.00247296
-0.00530311
-0.00419562
-0.00266278
0.00914482
0.0175271
0.014996
0.00222104
0.00700861
0.000365708
-0.00859685
0.00291068
0.00516428
0.00507871
0.00507863
0.00507607
0.00013907
-0.0198224
-0.0131601
-0.00318371
0.019137
0.0313716
0.0266332
0.0148401
0.0258645
0.0189194
0.0106123
0.011521
-0.00496545
0.00278857
-0.00822807
-0.015121
0.0047113
0.0151028
-0.00476263
-0.00611936
-0.00247864
-0.0113016
-0.006479
0.00192147
0.00453103
0.0050801
0.00507877
0.00426174
-0.000547221
-0.0243706
-0.0199301
-0.019985
-0.0140981
0.0128786
0.0321731
0.0234376
0.0217408
0.0264118
0.0220339
0.0215444
0.0113842
0.00884929
-0.00805083
-0.00503223
0.00647277
0.00385515
-0.0118201
-0.0166878
-0.0103528
-0.0206402
-0.00453581
0.00357458
0.00511404
0.00507985
0.00508081
0.00495427
-0.00048098
-0.0156177
-0.0276988
-0.0269796
-0.0336975
-0.0281047
-0.000739016
0.0158882
0.0103151
0.00628672
0.0186384
0.00409761
0.0316755
0.0190699
-0.00229994
0.00511244
-0.0034502
-0.00549063
-0.0189307
-0.0220659
-0.00579098
-0.00752794
6.70861e-05
0.00482286
0.00526512
0.0050807
0.0050803
0.00482961
0.000999892
-0.0103244
-0.0271077
-0.0334455
-0.0310248
-0.0225272
-0.0246967
-0.0180698
-0.000698946
0.00644991
0.00200218
0.00467602
0.0275825
0.0103382
0.00863361
0.00786005
-0.0155961
-0.00987064
-0.018808
-0.0145702
-0.00151488
-0.0040294
0.00475897
0.00464603
0.0050784
0.0050789
0.00507974
0.00472082
0.0021777
-0.00509563
-0.019807
-0.0328511
-0.0332064
-0.0274542
-0.0303615
-0.0223264
-0.0112186
-0.00619851
0.0104872
0.00772994
0.00598594
0.0229538
0.0143955
0.0162339
-0.00950209
-0.00675027
-0.0210065
-0.0114373
-0.00722181
-1.30524e-05
0.00576308
0.00503162
0.00507976
0.00507821
0.00507955
0.00522136
0.00470985
0.00327368
-0.00801317
-0.0256176
-0.0235002
-0.0246908
-0.0284976
-0.01283
-0.0175414
-0.029185
-0.00645316
-0.0168909
-0.00861177
0.00200722
-0.00465191
0.0119393
-0.00120032
-0.00371913
-0.00183062
-0.00130065
-0.000346426
0.00460207
0.00516215
0.00507249
0.00507836
0.00508107
0.00507883
0.00512627
0.0056407
0.00555526
0.00318321
-0.00539376
-0.0120476
-0.00961839
0.00545779
-0.000901503
-0.0118521
-0.021846
-0.0266806
-0.0197997
-0.0161537
-0.0162346
0.00202103
0.00337264
0.00962065
0.0177027
0.00806864
-0.00246124
0.00400359
0.00517817
0.00491516
0.00510479
0.00508012
0.00507822
0.00507874
0.00507979
0.00559945
0.00609037
0.00521534
0.000288732
-0.0101766
-0.0020312
0.012817
-0.00226345
0.00436267
-0.00417256
-0.0117207
0.00412663
-0.00598383
-0.00324389
-0.00893359
-0.0112554
0.00230238
0.00656433
-0.000400036
-0.004896
0.000206073
0.00525062
0.00498502
0.0050812
0.0050793
0.00507966
0.00508113
0.00507858
0.00510562
0.00513032
0.0024952
-0.00360077
-0.013649
-0.0136223
-0.0167448
-0.0390424
-0.0407651
-0.0424609
-0.0417268
-0.0138897
-0.0166577
-0.0325163
-0.0419669
-0.0423008
-0.0203995
-0.00975109
-0.0100733
-0.000151123
0.00517596
0.00531093
0.0050789
0.00507786
0.00507954
0.00507788
0.00507875
0.00508038
0.0049517
0.00405379
0.00419786
-0.000317636
-0.0044051
-0.00771233
-0.0140131
-0.0102547
-0.00739334
-0.00706541
-0.0123943
-0.0307452
-0.0271078
-0.0149406
-0.0180345
-0.0122212
-0.000260897
0.000996568
-2.59777e-05
0.0021845
0.00425871
0.00507919
0.00507968
0.00508018
0.00508106
0.00508037
0.00508085
0.00507901
0.00507782
0.00508084
0.00537891
0.00568565
0.00548297
0.00510307
0.00516769
0.00586438
0.00606894
0.00573505
0.0043418
0.00169224
-0.000244959
0.00426728
0.00559098
0.00296778
0.00327009
0.00427702
0.00461515
0.00494608
0.00508117
0.00508129
0.00508118
0.00508033
0.00507861
0.000299203
0.000300453
0.000301728
0.000299821
0.000300987
0.000298812
0.00030101
0.000300457
0.000300131
0.000299964
0.000302505
0.000300764
0.000300044
0.000300436
0.000299215
0.000300913
0.000301527
0.00030011
0.000300025
0.000301754
0.000300035
0.000301665
0.000301382
0.000299169
0.000300638
0.000301261
0.000299951
0.000300536
0.000302009
0.000299529
0.000300772
0.000301763
0.000301172
0.000299973
0.000299332
0.000321533
0.000332139
0.000301157
0.000210385
-0.000294866
-5.88211e-05
-0.000209494
-0.000414584
-0.000529305
0.000610947
0.000614568
0.000535826
-0.000181624
-0.000902817
7.1512e-05
0.00030193
0.000299959
0.000299983
0.000301946
0.000299194
0.000300066
0.000300223
0.000299964
0.000300974
0.000299863
0.000172447
0.0002844
0.000294092
0.000242511
0.000107297
-0.00014073
0.000608352
0.00120336
0.00296
0.00223667
-0.00100624
-0.00307041
-0.00948517
-0.0139463
-0.014243
-0.00759534
-0.00703371
-0.00474663
-0.00176366
0.00105953
0.000666566
0.000300719
0.000300913
0.000299262
0.0003008
0.000300217
0.000302296
0.000301933
0.000271994
3.70498e-05
4.25453e-05
0.000164238
-0.00208959
-0.00269413
-0.00167388
-0.00215312
0.00333339
0.00595026
-0.00454605
-0.0110832
-0.0107195
-0.023913
-0.0236763
-0.0135815
-0.0085434
-0.00621259
-0.00386069
0.000761386
0.000483046
0.000299864
0.000300373
0.00030191
0.000300634
0.000300691
0.000301111
0.000289012
0.00024159
-7.28744e-05
-0.000298933
-0.00679342
-0.0133785
-0.011656
-0.00524265
-0.00246497
0.00944472
0.0133682
0.0109316
0.0171216
0.00145388
-0.000188697
0.000586211
0.004334
0.0094126
-0.00322107
-0.003076
0.000142751
0.000644464
0.0014593
0.000301419
0.000299159
0.000300972
0.000298825
0.000252947
0.000724243
0.0014728
0.00701746
0.0051459
0.00623071
0.0139196
0.000303689
0.0110882
0.0121921
0.0165714
0.0162746
-0.00260594
-0.000505437
0.0110297
0.00802218
0.0217245
0.0033407
0.00168552
0.00339813
0.0013569
-0.00220595
0.00575416
0.00538435
0.000700121
0.000306714
0.000300517
0.000301903
0.000312532
0.00149009
0.00463795
0.0085623
0.00652559
0.0213855
0.0149402
0.0198732
0.0226142
0.0215212
0.0281803
0.0184853
0.0256539
0.0187189
0.0312928
0.0172471
0.0373274
0.0299205
0.023527
0.0151738
0.00348934
0.00307374
0.0106218
0.00786781
0.00363692
-0.000815625
0.000300205
-4.3807e-05
-0.00135942
0.00334099
0.00265063
0.00391127
0.00665717
0.00589506
0.0004479
0.013361
0.0127433
0.00686564
0.0229517
0.0209798
0.0279265
0.0367118
0.0224273
0.0302043
0.0286089
0.0148739
0.0194902
0.0053195
0.00930672
0.00554546
0.0135843
0.0101129
0.0043399
-0.000236228
0.000299849
-0.000879063
-0.00170789
-0.00086639
0.00156722
0.00228746
-0.00784909
-0.0169862
-0.0103735
-0.0036796
-0.00760721
-0.000620742
0.0107282
0.0148295
0.0223511
0.0230958
0.017626
0.0237704
0.00332124
0.00207108
0.00272804
-0.00591513
-0.00643236
0.00550973
0.00956573
0.0196507
0.00566464
0.00120141
0.0003018
-0.000234514
-0.00135494
-0.002905
-0.0087793
-0.0125017
-0.0111583
-0.0139157
-0.0144169
-0.00965999
-0.0335251
-0.018074
-0.0127255
-0.00961575
-0.00881293
0.0114573
0.000710878
-0.00369817
0.00371292
-0.000200786
-0.00328275
-0.0160738
-0.0182861
-0.0210895
0.00987271
0.019177
0.00481241
0.000846048
0.000299338
0.00013183
-0.000840043
-0.00282218
-0.0123751
-0.0172165
-0.0154564
-0.011986
-0.0177122
-0.0137303
-0.0336113
-0.0261092
-0.0275487
-0.0186222
-0.00411667
0.00566619
-0.0268325
-0.0234784
-0.0146684
-0.0138865
-0.0160775
-0.0221242
-0.026956
-0.0169557
0.00242257
0.00799699
0.0023133
0.000302331
0.000301244
0.000181331
-0.00150312
-0.00366695
-0.0151914
-0.0152633
-0.0102911
-0.022005
-0.0300511
-0.0156206
-0.0166697
-0.0154218
-0.0320435
-0.0380095
-0.00747619
-0.0179765
-0.0156945
-0.0231111
-0.0250473
-0.00432877
-0.0269351
-0.024203
-0.0214676
-0.00826855
-0.00531384
0.000940808
0.00269072
0.000260175
0.000300944
-0.000387085
-0.00154088
-0.0019345
-0.0110137
-0.011564
-0.0159848
-0.0267335
-0.0121894
-0.00881987
-0.0059539
-0.00258562
0.000264747
-0.00273271
-0.0168052
-0.0258641
-0.0186232
-0.00532
0.00201472
-0.00717505
-0.00864516
-0.0137666
-0.00789969
0.0014978
-0.000163769
0.000168324
0.000169547
0.000157546
0.000300609
-0.00120394
-0.00147877
-0.00165984
-0.00622013
-0.00481122
-0.00350538
-0.0103576
-0.00668107
-3.50029e-05
0.00897516
0.000617138
-0.0137323
-0.0186081
-0.0229966
-0.0307674
-0.0197647
0.00519088
-0.00257796
-0.00468657
0.00425848
-0.00423589
-0.0046085
0.0107642
0.00509794
0.00064806
0.000441836
0.000300351
0.00030111
-0.000424013
-0.00126418
-0.00260464
-0.00378628
0.00626187
0.0131604
0.00150995
0.0032086
0.0115611
0.0115936
-0.0267298
-0.0266495
-0.0263004
-0.0398787
-0.0280466
-0.0311086
-0.0229204
-0.00700757
-0.00297909
0.0172106
0.00885683
0.00902105
0.00976599
0.00194298
8.26315e-05
0.000485801
0.000301516
0.000301625
0.000262795
-0.000801729
-0.00287686
-0.00107082
0.0173215
0.00993099
-0.00256105
0.0133862
0.0185411
0.00133844
-0.0322546
-0.0329867
-0.0251243
-0.0260918
-0.0418094
-0.030057
-0.0346652
-0.0177005
-0.00250542
0.0176433
0.0189637
0.0135057
0.0135451
0.00415847
7.57975e-06
0.002641
0.000302396
0.0002988
0.000300156
0.000147014
-0.00150668
-0.000919365
0.0159193
-0.00555088
-0.0118173
-0.0203774
-0.0151134
-0.0161968
-0.0287207
-0.00535086
-0.0201574
-0.0281169
-0.0387867
-0.0485967
-0.0229647
0.00451367
0.0245017
0.000675423
0.0121136
0.0104187
0.00770701
0.00249629
0.000353814
0.00113431
0.000302948
0.000300713
0.000302862
0.000203706
0.000152044
0.00483711
0.0145242
0.00430771
-0.00294503
-0.0319254
-0.0400495
-0.0401849
-0.0259368
-0.027796
-0.0242003
-0.0436719
-0.0198738
-0.0135748
-0.00205664
0.0193134
0.0300915
-0.00783116
0.0116906
0.011012
0.000452317
-0.00119512
0.00201202
0.00109252
0.000450336
0.000301089
0.000299309
9.18634e-05
0.00462066
0.0159583
0.0156531
0.0222535
0.00486566
-0.0149489
-0.0398047
-0.0405958
-0.0288341
-0.0343269
-0.0383739
-0.0275529
-0.0121985
0.00998897
0.026495
0.0166965
0.0165397
0.00332524
0.00556166
0.00463675
-0.00276957
0.00229522
0.00261085
0.000372552
0.00025631
0.000301679
0.000301058
0.000274037
0.00526447
0.0225878
0.0267224
0.0221469
0.0162093
0.0193939
-0.01144
-0.0116229
-0.00654506
-0.0118609
-0.00570007
-0.00878824
0.00207049
0.0191426
0.0221736
0.0125149
0.00489721
0.0116485
0.00478837
0.00430282
-0.00646128
0.00308698
0.00278053
0.000427843
0.000168559
0.00030206
0.000298438
0.000577304
0.0101924
0.0278377
0.027983
0.0293087
0.017681
0.015594
0.0055386
-0.00315486
0.0183992
0.00399911
0.021585
0.0202577
0.0350565
0.0420279
0.0291388
0.00551284
0.0109326
0.010336
0.00698283
0.00194961
0.00229981
0.00249789
-0.000911698
0.000619835
0.000301453
0.000299689
0.000301065
0.00062261
0.00803416
0.0251545
0.0313375
0.0226235
0.0194525
0.0143566
0.0281946
0.021448
0.0371791
0.0190659
0.0133259
0.0168547
0.0161295
0.0253522
0.0012805
0.013731
0.0297866
0.0244583
0.0157609
0.00752657
0.00283115
0.0052564
-0.000239177
0.000555735
0.000298001
0.000299854
0.00030006
0.00052776
0.00612006
0.0200817
0.0251484
0.0171203
0.027346
0.0280895
0.0358603
0.0154068
0.0430964
0.0365904
0.0210021
0.0253673
0.0270893
0.015076
0.0236993
0.0300729
0.0143098
0.0240308
0.0208327
0.00884909
0.00589443
0.00316238
5.63417e-05
0.000540405
0.000301301
0.000301616
0.000301155
0.000352686
0.00566612
0.0225602
0.0263024
0.0357274
0.0294915
0.00705172
0.010326
0.00814489
0.00886925
0.0035058
0.000823762
0.00976558
-0.00657576
0.00432607
0.00646516
0.0032643
0.00372376
-0.00382162
0.00149868
0.00695471
0.00371209
0.0023095
0.000630433
0.000787965
0.000300911
0.000301172
0.000300463
0.000300976
0.00675645
0.0205424
0.0257698
0.0179461
0.0180663
0.00821034
-0.0121093
-0.00967313
-0.000392618
0.00823992
0.00574351
-0.00139414
-0.00602348
-0.0076568
0.000260134
0.00533099
0.000771538
-0.00114171
0.000613454
0.00204339
0.000603046
0.0016999
0.000580873
0.000300126
0.000300783
0.000300426
0.000298795
0.000299678
0.000323707
0.00247909
-0.000394733
0.00100587
-0.00471296
-0.0116754
-0.0102659
-0.0111539
-0.017214
-0.00607248
0.00350066
-0.0169125
-0.00932509
-0.0053931
-0.00120051
0.00192289
-0.00317892
-0.00312215
-0.000948728
0.000451455
0.000876917
0.000439105
0.000299443
0.000299801
0.000299557
0.000301387
0.00030061
0.000301818
0.000420945
0.00135855
-0.00148069
-0.00303348
-0.00456729
-0.00565895
-0.00878248
-0.0151695
-0.0195129
-0.0157833
-0.0135934
-0.016259
-0.0128906
-0.00877425
-0.00750235
-0.00713001
-0.00348622
0.000228463
-0.000447478
0.00026458
0.000148317
0.000301745
0.000301302
0.000301309
0.000303123
0.000301026
0.000300515
0.000300796
0.000300612
0.000302625
0.000298545
0.000248249
0.000229094
0.000582566
0.000582853
0.0004073
8.62135e-05
2.94059e-05
-0.000990557
-0.00189347
-0.0014096
-0.0012265
-0.000641355
-0.000153408
0.000226357
0.000357495
-0.000283616
-8.65348e-05
0.000300254
0.000300293
0.000299524
0.000299205
0.00030289
-0.0026136
-0.00261396
-0.00261504
-0.00261303
-0.002611
-0.00261425
-0.00261345
-0.00261424
-0.00261395
-0.00261489
-0.00261529
-0.00261381
-0.00261492
-0.00261374
-0.00261358
-0.00261299
-0.00261369
-0.00261395
-0.00261507
-0.00261375
-0.00261386
-0.00261302
-0.00261321
-0.00261287
-0.00261066
-0.00261532
-0.00261438
-0.00261446
-0.00261411
-0.00261291
-0.00261293
-0.00261152
-0.0026145
-0.00261228
-0.00261373
-0.00256132
-0.00270588
-0.0030037
-0.00326582
-0.00407547
-0.00306152
-0.00292475
-0.00368955
-0.00439616
-0.00279663
-0.00293159
-0.00303067
-0.00325544
-0.00370864
-0.00290225
-0.00267371
-0.00261405
-0.00261536
-0.00261369
-0.00261379
-0.00261216
-0.00261427
-0.00261324
-0.00261428
-0.00261327
-0.0026222
-0.00264101
-0.00274112
-0.00270307
-0.00317228
-0.00649918
-0.00636291
-0.0044365
-0.00190461
-0.00281668
-0.00692268
-0.00710372
-0.0100478
-0.0123006
-0.012356
-0.0111837
-0.00845866
-0.00589037
-0.00389866
-0.00224431
-0.00240592
-0.00261271
-0.00261304
-0.00261419
-0.0026145
-0.00261445
-0.00261398
-0.00261564
-0.00262739
-0.00298754
-0.00281354
-0.00245959
-0.00395451
-0.0060578
-0.00563174
-0.00391716
-0.000396158
0.00100176
-0.000152431
-0.00645146
-0.0118795
-0.0141252
-0.0184964
-0.0147211
-0.0101255
-0.00461372
-0.00306483
-0.00222367
-0.00218846
-0.00261285
-0.00261357
-0.00261374
-0.00261426
-0.002614
-0.0026134
-0.00265409
-0.00258573
-0.00304953
-0.00166803
-0.00119474
-0.00424962
-0.00465645
0.00338032
0.0040785
0.00768128
0.0112579
0.00743913
0.00540284
0.000937404
-0.000502436
0.000956568
0.00226203
-0.00196664
-0.00457147
-0.00710229
-0.00432393
-0.00079074
-0.00234887
-0.00261406
-0.00261355
-0.00261244
-0.00261291
-0.00272598
-0.00213228
-0.00147998
0.000926897
0.00109534
0.00313285
-0.0035833
-0.00390292
0.00689002
-0.00515487
-0.00232774
0.00485032
0.00473457
0.00352269
0.00584488
0.00155801
0.00823162
0.00518331
0.000963656
-0.00189543
-0.00588169
-0.0013462
0.000745565
-0.000578224
-0.00248052
-0.00259965
-0.0026136
-0.00261436
-0.00272226
-0.00126997
0.000373083
0.00451339
0.00660529
0.00692614
0.000276064
0.00250953
0.00232953
-0.00956927
0.0001164
0.00723631
0.00195426
-0.00867396
-0.00126664
-0.00666163
-0.000905889
0.0108256
0.009997
0.00912838
0.00276101
0.00575147
0.00436642
0.00290294
-0.00197418
-0.00243036
-0.00261256
-0.00251751
-0.00452323
0.000609329
0.0045187
0.00369721
0.00706191
0.001438
-0.00424666
0.00126845
-0.0119292
-0.0126874
0.00442646
0.000804278
-0.000548511
0.00154943
-0.00417469
0.00660571
0.0141127
0.00604838
0.00668888
0.00387146
0.00894441
0.0116927
0.00702101
0.0046681
0.00214807
-0.00217567
-0.00260815
-0.00295985
-0.00371059
-0.000384886
0.00431129
0.00339253
0.00829107
0.00216503
-0.0100856
-0.01111
-0.00398893
-0.00750338
0.00442391
0.0110876
0.0138129
0.00837959
0.00962895
0.011635
0.0217779
0.0208127
0.0105924
0.0133725
0.0223972
0.0164431
0.00855145
0.00448668
0.000460996
-0.00314028
-0.00261168
-0.00214386
-0.00226258
0.000150626
0.00199025
0.00419729
0.00367915
0.00237522
-0.000612448
-0.00869703
-0.0020804
-0.00246765
0.0036214
0.0143439
0.0159853
0.017629
0.0237921
0.0177764
0.020818
0.0232741
0.0140497
0.0142281
0.0162958
0.0121627
0.0079291
0.000364158
-0.00218562
-0.0026424
-0.00261363
-0.00191733
-0.00139746
0.00245238
0.00252459
-0.00112239
-0.00104596
0.00190412
0.000364677
-0.00197378
-0.00569693
-0.00990984
0.00400159
0.0125535
0.0124551
0.0217072
0.0152502
0.0122429
0.00898119
0.00268205
0.009561
0.0120174
0.00826803
0.00763095
0.00622107
-0.00284362
-0.00296958
-0.0026136
-0.00261177
-0.00188529
-0.000210653
0.00354766
0.00460329
-0.00682479
-0.0059651
-0.00103158
0.00222689
-0.00220823
-0.0146657
-0.00466403
-0.00087947
-0.00507135
0.0094321
0.00563534
-0.00298992
-0.0120322
-0.00858138
-0.000720942
-0.001274
0.00233059
0.00541904
-0.000872604
-0.00249794
-0.0031074
-0.00269678
-0.00260374
-0.00261399
-0.00232227
0.000358057
0.00432995
-0.000967126
-0.00871763
-0.0120264
-0.00633742
4.16313e-05
-0.00174354
-0.0071254
-0.0115532
-0.000510046
0.00375728
0.00301609
-0.00486957
-0.00971246
-0.0193975
-0.0165946
-0.0124895
-0.0122128
-0.00941514
0.000204409
-0.00188048
-0.00405204
-0.00193278
-0.00232729
-0.00257598
-0.00261367
-0.00333322
-0.00136166
-0.000736894
-0.00299268
-0.00904908
-0.00366665
-0.0104112
-0.00698465
-0.0089136
-0.00840881
-0.00895967
0.00700635
0.00854788
0.00881968
-0.000586171
-0.00247007
-0.00371595
-0.0147209
-0.0216353
-0.0114941
-0.0155346
-0.00315888
0.000691076
-0.00132562
-0.00238174
-0.00269944
-0.00261446
-0.0026125
-0.00300627
-0.00330753
-0.00422565
-0.00628056
-0.00475177
0.00140249
-0.00889507
-0.00734294
6.1008e-05
-0.00758121
4.77441e-05
0.00814624
0.0108192
-0.000680002
-0.0021272
-0.00201611
-0.0172146
-0.0110123
-0.0199934
-0.0183909
-0.0102736
-0.00635333
0.00429424
-0.00221248
-0.00255343
-0.00287095
-0.00261376
-0.00261332
-0.00263368
-0.00320976
-0.0046804
-0.00544585
-0.00573451
-0.00860107
-0.013198
-0.0109906
0.000654273
-0.00944336
-0.00277198
0.0122697
-0.00124805
0.000387657
0.00290092
-0.0138048
-0.0191241
-0.0134362
-0.019256
-0.0154714
-0.00935045
-0.0045915
0.00308367
-0.00304235
-0.00503856
-0.0024448
-0.00258884
-0.002614
-0.00261284
-0.00203335
-0.00360285
-0.00803168
-0.00576084
-0.00784393
-0.00766185
-0.0112275
-0.0110114
-0.00329737
-0.00419001
0.004412
-0.0048389
0.00510839
-0.00256155
-0.0116463
-0.00348534
-0.0106746
-0.00291073
-0.00472317
-0.00269792
-0.00587047
0.00245843
-0.00280506
-0.00707473
-0.00228127
-0.00256734
-0.00261363
-0.00261343
-0.00138179
-0.00198648
-0.00305147
0.000248333
0.00023434
-0.00296036
-0.011946
-0.00224516
-0.00205959
-0.00229202
0.00299322
-0.000857197
-0.00308191
0.00403573
0.00353392
-0.00123355
-0.00958395
-0.0054606
-0.0110922
0.00669458
0.00260947
-0.00254137
-0.00247196
-0.00383883
-0.00181182
-0.00228144
-0.00261452
-0.00261367
-0.00169102
0.00174811
0.00135347
0.00246598
0.00737596
0.00316024
-0.00171273
0.00328966
-0.000186875
0.000824965
0.00824125
0.00703887
0.00558724
0.00269356
-0.000644321
-0.00142468
-0.00672911
-0.0037044
0.00250618
0.0135104
0.00262813
-0.00879339
-0.00276058
-0.00291039
-0.00237552
-0.00265316
-0.00261398
-0.0026132
-0.00381082
0.00134821
0.00796559
0.00909068
0.0105025
0.0120597
0.00502623
0.00559475
0.0106382
0.0035636
0.0128911
0.0076758
0.000524945
0.00130093
-0.000841653
0.00117512
0.00228408
0.00267998
0.00762056
0.0105362
-0.0065509
-0.00709032
-0.00470213
-0.00300793
-0.00254624
-0.00269149
-0.00261439
-0.00261513
-0.00187023
0.00268561
0.00722746
0.00801044
0.0048092
0.00440861
0.00986085
0.0130276
0.0159915
0.0157363
0.0130117
0.00976893
0.00428542
0.00069574
-0.000841286
0.00829787
0.00622131
0.00330618
0.0100065
0.00643342
-0.00312429
-0.00116844
-0.00700825
-0.00268036
-0.00213043
-0.00261418
-0.00261334
-0.00261315
-0.00140099
0.00118234
0.00715614
0.00782089
0.00157257
-0.0025376
0.00108683
0.0072366
0.00529099
0.00822508
-0.00575873
-0.00184382
-0.00368911
-0.00516195
0.00726948
-0.000163582
0.00303848
-0.00081173
0.00678875
0.01106
0.00055448
-0.00491778
-0.00708306
-0.00327014
-0.00252234
-0.00261293
-0.00261331
-0.00261359
-0.00173446
-0.000524412
0.00238144
0.00619541
0.00548879
-0.00179439
0.00110228
0.00421362
-0.00585834
0.00343896
0.00366895
0.00376705
-0.00344664
0.00615808
0.00384309
-0.00218865
0.00195575
0.00014506
0.00419962
0.00341294
-0.00351191
-0.0054741
-0.00427447
-0.00330986
-0.00249588
-0.0026137
-0.0026142
-0.0026139
-0.00241357
1.15392e-05
0.00479232
0.0039
0.00647798
0.00673842
-0.00270942
0.00318213
0.00696169
0.00483195
0.0100182
0.00717765
0.00704716
0.00188841
0.00279606
0.00120747
0.00517097
0.00165588
-0.0104175
-0.00866954
-0.00928852
-0.0053136
-0.003114
-0.0029177
-0.00258688
-0.00261189
-0.00261249
-0.00261395
-0.00261364
0.000600435
0.00558773
0.00489038
0.00673505
0.00799444
0.00777084
0.00574007
-0.00441231
0.00146074
-0.0003921
0.00266108
0.00803831
0.0030365
0.000131517
-0.00528853
-0.00627106
-0.0121351
-0.0176832
-0.0134294
-0.0102922
-0.00654842
-0.00278509
-0.00256182
-0.00261316
-0.00261434
-0.00261557
-0.00261369
-0.00261399
-0.00246561
-0.000778081
-0.00148185
-0.000798117
0.00233086
0.00143525
0.00341102
-0.00228456
-0.00620291
-0.00835329
-0.0061031
-0.0040237
0.00296867
-0.00650124
-0.0149989
-0.0124341
-0.0134986
-0.0165141
-0.0142095
-0.00776365
-0.00469053
-0.00306294
-0.00261343
-0.00261355
-0.00261416
-0.00261369
-0.00261314
-0.00261434
-0.00268274
-0.00306466
-0.00263134
-0.00389851
-0.00264808
-0.00391799
-0.00543343
-0.000747812
-0.00081327
-0.000237558
-0.00345793
-0.0114783
-0.00639307
-0.0018234
-0.00305339
-0.0037043
-0.000452403
-0.00289218
-0.00453727
-0.00485644
-0.00339478
-0.00261236
-0.00261346
-0.00261483
-0.00261516
-0.00261493
-0.00261352
-0.00261356
-0.00261463
-0.0026135
-0.00205507
-0.00163581
-0.00200787
-0.00289825
-0.00270315
-0.00142194
-0.000297914
0.00109136
-0.000574052
-0.00410074
-0.00389244
-0.00072082
-8.68565e-05
-0.00168262
-0.00254235
-0.00286131
-0.00222016
-0.00238041
-0.00261419
-0.00261396
-0.00261539
-0.00261365
-0.00261344
0.000628701
0.00063188
0.000629648
0.000629449
0.000629525
0.000629536
0.000629684
0.000629481
0.000630076
0.000629737
0.000629506
0.000630416
0.000629491
0.000629773
0.000630597
0.000631071
0.000630415
0.000630015
0.000629581
0.000630765
0.000629642
0.000632102
0.000630682
0.000631628
0.000629453
0.000627961
0.000631361
0.000629461
0.000628599
0.000630749
0.000629879
0.000629045
0.000631455
0.000630131
0.000630444
0.000648185
0.000659599
0.000634524
0.000558251
0.000479121
0.000554112
0.00057049
0.000382209
0.000384142
0.00053464
0.000660694
0.000673997
0.00063848
0.000604001
0.000662532
0.000658832
0.000629782
0.000629698
0.000629991
0.000628097
0.000628987
0.000629017
0.000630053
0.00063093
0.000628961
0.000625666
0.000631971
0.000639002
0.000666358
0.000797622
0.00282313
0.000968914
0.000627718
0.000761803
0.000749993
-0.000550205
-0.0012699
-0.00290186
-0.00245609
-0.00225358
-0.000428247
0.000184505
0.000606723
0.000711027
0.000815737
0.000714038
0.00062994
0.000630659
0.000631539
0.000630133
0.000627965
0.00062989
0.00063115
0.000629111
0.000261936
0.000298908
0.000637035
0.00332985
0.0024286
-0.000747199
-0.00478933
-0.00588032
-0.00589997
-0.0137978
-0.0194662
-0.0170841
-0.0151246
-0.010739
-0.00868265
-0.00753913
-0.00321939
0.000507763
0.000365367
0.000160931
0.000630563
0.000630519
0.00063005
0.00062808
0.000630826
0.00062945
0.00059228
0.000431425
-0.000562197
0.00124366
0.00173957
0.00324407
-0.00137297
0.00514357
0.00487051
0.0132091
0.00876742
-0.00396221
-0.0067217
-0.00334771
-0.00364246
-0.00682304
-0.00702031
-0.00711693
-0.0097539
-0.00552771
-0.00132328
0.000148126
0.000733452
0.000630273
0.000629376
0.000630337
0.000632342
0.000367754
0.0008094
0.000730678
0.00550087
0.00809376
0.0123918
0.0102099
0.00121718
0.00851058
0.01323
0.0144107
0.00319187
-0.00987349
-0.0170443
-0.0113755
-0.0204305
-0.00798432
-0.00931432
-0.00595603
-0.0049221
-0.0028355
0.00111324
0.00124137
0.00144753
0.000958759
0.000621242
0.000631491
0.000630486
0.000525403
0.000902432
0.000229672
0.00422534
0.00982632
0.0181183
0.0137005
0.00553649
0.0155945
0.0149309
0.0109181
0.00912299
0.000968167
-0.00860474
0.00684568
0.00258251
0.00244936
0.0105328
0.014504
0.0108144
0.00291501
-0.00541084
-0.00344313
-0.00272862
0.0001504
5.82665e-06
0.00063337
0.00069688
-0.000289909
0.00304408
0.00835736
0.00443716
0.0160071
0.020962
0.00822346
0.0149551
0.0223167
0.0139671
0.0191342
0.00909939
0.00821113
0.0113319
-0.000255536
0.0137517
0.013634
0.0110375
0.0105628
0.00147724
0.00025724
-0.0077531
-0.00828999
-0.00683811
0.00215803
0.00105585
0.000646358
0.000596346
0.00139914
0.00487587
0.0120117
0.0142558
0.0229449
0.0219536
0.0144958
0.0164924
0.0216472
0.0100775
0.0114047
0.0154506
0.0116718
0.0137515
0.011877
0.0165929
0.00574103
0.0181856
0.00905248
0.00392438
0.0125335
0.00560285
-0.00351488
0.000830944
0.000762032
9.4836e-05
0.00063472
0.00143628
0.00353837
0.00669051
0.00964238
0.016582
0.0162846
0.0160703
0.0101885
0.00324201
0.0124448
-0.000226228
0.00361937
0.00620002
0.0151587
0.0334198
0.0459637
0.0371578
0.0322436
0.0244271
0.0260982
0.00476017
0.0129285
0.00508505
-0.00172683
-0.00483615
-0.00060652
0.000388558
0.000631098
0.00126037
0.00560774
0.0116817
0.014712
0.0103418
0.00445809
0.00446799
-0.0016128
-0.00616779
-0.00491279
-0.00527835
-0.00647577
0.00697376
0.0117467
0.0309576
0.0429849
0.040725
0.0349972
0.0314127
0.0295738
0.0126419
0.00596566
0.00885679
0.000212705
-0.00519113
0.000487644
0.000629255
0.000628698
0.00135459
0.00514638
0.0121662
0.0112685
-0.00332036
-0.00728173
-0.0129443
-0.0142477
-0.0067001
-0.0126774
-0.0118112
-0.00813543
-0.00969868
0.00860993
0.013875
0.0159208
0.00617094
0.017768
0.0219075
0.0150458
0.0113626
0.005521
0.00982123
0.000899847
-0.00234046
2.48426e-05
0.00058663
0.000631582
0.00106326
0.0046251
0.0103588
0.00095474
-0.00871077
-0.0183567
-0.0263207
-0.00655365
-0.01162
-0.00955113
-0.0115706
0.00776872
0.00462833
-0.0151885
-0.00941169
-0.00842981
-0.0123038
-0.00901917
-0.00471399
-0.00139375
-0.00737617
0.00661372
0.00866828
0.0052514
-4.12441e-06
0.000424058
0.000484811
0.000629261
0.000295543
0.00442074
0.00456468
-0.00126411
-0.00305977
-0.01261
-0.0227995
-0.0121404
-0.0151405
-0.00965997
-0.0194663
0.00531525
-0.00201567
-0.0321997
-0.0309197
-0.0178151
-0.0136168
-0.0170443
-0.0218868
-0.0113549
-0.0111328
0.00150645
0.00939302
0.00632869
0.000385828
0.000669213
0.000628799
0.000629157
0.000426096
0.000712417
0.000311688
-0.00436313
0.00177629
-0.00772603
-0.0158848
-0.0154343
-0.0119539
-0.0225
-0.029438
-0.0214433
-0.0256798
-0.0437521
-0.0323328
-0.0205985
-0.029339
-0.0108874
-0.0169919
0.000743866
0.00535075
0.000787265
0.00874653
0.00272376
0.00349004
0.000602266
0.000629368
0.000627524
0.000617889
0.00031854
-0.00119973
-0.00332253
0.00624715
-0.00556796
-0.0101853
-0.0119963
-0.022979
-0.0398573
-0.0445629
-0.0238106
-0.0516568
-0.0342517
-0.0196462
-0.0158944
-0.0172978
0.00296885
0.00906016
0.0163127
0.0138399
0.00488495
0.00707275
-0.00212469
-0.00117707
0.000985916
0.000628135
0.000630115
0.000627189
0.000945288
-0.00184947
0.00206096
0.00542839
0.00569912
0.00327375
-0.000829961
-0.0202978
-0.0443549
-0.0529353
-0.0395365
-0.036961
-0.0146544
-0.00555833
0.000495435
0.00532898
0.0183991
0.0318619
0.0120202
0.00568424
0.00137514
0.00391701
-0.00872874
-0.00408618
0.000449199
0.000631592
0.000629596
0.000628854
0.00120823
-0.000543881
0.00331701
0.00424613
0.00204457
-0.000523017
-0.00276824
-0.0163772
-0.0420001
-0.0419
-0.037328
-0.0217028
-0.00919609
0.0109325
0.00319593
-0.00147431
0.0212934
0.0254889
0.00236006
0.00461065
0.00176538
-0.00725204
-0.0133847
-0.00039192
0.000962214
0.000739192
0.000629793
0.000630076
0.00164036
0.00228938
0.00702582
-0.00277156
-0.00166782
0.000533816
-0.00322188
-0.0213091
-0.0415325
-0.0473257
-0.034739
-0.028384
-0.00556925
-0.0104581
-0.013653
-0.000556843
0.0121887
0.00463803
-0.00726262
0.00292002
-0.00396036
-0.0163972
-0.00685093
-9.37795e-05
0.000640935
0.000235358
0.000630158
0.000628795
-0.00208212
0.000456628
0.00748377
0.0063837
0.00788924
0.0194929
0.00342206
-0.00995404
-0.0302005
-0.0334461
-0.0159418
-0.0182257
-0.0134804
-0.0168172
-0.0127778
-0.00505571
-0.0150989
-0.018757
-0.0114571
-0.00544785
-0.0128992
-0.0127856
-0.0071504
0.000425938
0.000640148
0.000373738
0.000630894
0.000630816
-0.000688484
-1.89544e-05
0.00145571
0.00362506
0.0020563
0.00801457
0.00442041
0.0093121
0.00547873
-0.00853133
-0.00567435
-0.00632536
-0.0107938
-0.00313078
-0.0146869
-0.0111316
-0.0216979
-0.0237957
-0.0115539
-0.00897643
-0.0111244
-0.00378827
-0.00900314
0.000219112
0.000736834
0.000630826
0.00063144
0.000630319
0.000843277
-0.00106974
0.00291389
0.00165128
-0.00266651
-0.000913561
-0.00647175
0.0188152
0.0138657
0.0196212
0.00336344
-0.00748978
-0.00353664
-0.0114161
-0.00725928
-0.013491
-0.0113684
-0.010347
-0.00758784
-0.00238986
-0.0079147
-0.00641852
-0.00553799
-0.000569289
0.000281479
0.000627754
0.000628654
0.000630028
0.000439148
-0.000483064
0.000923743
0.00239851
0.00283487
-0.00167
0.00794243
0.0211612
0.0189314
0.0268676
0.0250605
0.0113286
0.0131841
0.0182659
0.00999554
0.00155997
-0.0042712
-0.00425527
0.00196152
0.000506759
-0.00602098
-0.00539229
-0.00263166
-0.000254592
0.000690666
0.000629908
0.000632604
0.00062983
0.000561117
0.00408164
0.00811895
0.00660174
0.0119854
0.0183137
0.00476326
0.0102668
0.0297985
0.037448
0.0309712
0.0291755
0.0246669
0.0171421
0.016169
0.00556641
0.00468868
-0.000275518
-0.00840523
-0.00577614
-0.00586132
-0.00322656
0.000106988
0.000593426
0.000659385
0.000629317
0.000629901
0.000627255
0.000631382
0.00347234
0.00958406
0.0113336
0.0123254
0.0246573
0.017882
0.00208673
-0.00146119
0.0115267
0.000292654
0.0040578
0.0108811
0.0151533
0.00554832
0.000213027
-0.00345232
-0.00816888
-0.011109
-0.00447217
-0.003891
-0.00209612
0.000380875
0.000627755
0.00063102
0.000631105
0.000630409
0.000630926
0.000629966
0.000585692
0.00295145
0.00828643
0.0129312
0.0225851
0.0137391
0.0147498
0.0142406
0.012685
0.00886779
0.0158227
0.0136845
0.020642
0.0160379
0.00423452
0.00254749
-0.000300479
-0.00463799
-0.00342351
-0.00174777
-0.000387817
0.000401742
0.000630061
0.000630348
0.000628974
0.000629749
0.00063034
0.000630784
0.000670037
0.00165813
0.00525581
0.00357749
0.00501674
0.00560904
0.00154863
0.00360526
0.00336971
0.00715684
0.00776364
0.00310041
0.006578
0.0111096
0.00759426
0.00484362
0.0062849
0.00232082
0.00117183
0.00019955
4.40984e-05
0.000628027
0.000628318
0.00062969
0.000629663
0.000627808
0.000632039
0.000629426
0.000629726
0.000630365
0.00107903
0.00169733
0.00211483
0.00110011
0.00113939
0.00262464
0.00369073
0.00444024
0.0030784
0.00113355
0.00107497
0.00371971
0.00389215
0.00157847
0.000873376
0.000672457
0.00155737
0.00123816
0.000629091
0.00062976
0.000630038
0.000630216
0.000629361
0.000484157
0.000482987
0.000485918
0.00048489
0.00048519
0.000483623
0.000483875
0.00048443
0.000483934
0.000485624
0.000484794
0.000484052
0.000485401
0.000485612
0.000485301
0.000485308
0.000484533
0.000485086
0.000484267
0.000485897
0.00048487
0.000485394
0.000483944
0.000483164
0.000485665
0.000485174
0.000484033
0.000486627
0.000483402
0.000485611
0.000486329
0.000482891
0.000484399
0.000485973
0.000484993
0.000790148
0.00152715
0.00190678
0.00105263
0.000206134
0.000189641
0.000290808
0.00041852
0.000787009
0.000957792
0.00161065
0.00184361
0.000903074
0.000674436
0.000997203
0.000816907
0.000483721
0.000485439
0.000484301
0.000485166
0.00048469
0.000483995
0.000484085
0.000484679
0.000484118
0.000458712
0.000555965
0.000829296
0.000990088
0.00225336
0.00557985
0.00615379
0.00484931
0.00525353
0.00672689
0.010484
0.0122495
0.00797423
0.00705012
0.00498493
0.00627645
0.00295672
0.00256465
0.00131519
0.00159233
0.00101711
0.000485747
0.000484216
0.000485165
0.000485
0.000485343
0.000485223
0.00048483
0.000465312
0.00118172
0.0023788
0.00156265
0.00499505
0.00821048
0.0116912
0.0073111
0.00623509
0.00758742
0.00648365
0.00553152
0.0188339
0.0202954
0.0293415
0.0274511
0.0177195
0.00795056
0.00218467
0.000622197
-0.00123613
0.00048562
0.000484309
0.000483428
0.000484606
0.000485609
0.000484158
0.000342712
-0.000264822
0.00108791
0.002632
-0.00204763
-0.00409082
0.00159929
0.0078232
-0.000194679
-0.00686126
-0.0102435
-0.00111861
0.00935434
0.0104779
0.00453011
0.00128947
0.00227845
0.0138974
0.000744305
-7.88339e-05
0.00363377
-0.00110838
0.00174077
0.000483104
0.00048553
0.000484879
0.000483822
0.000152837
-0.000223568
-0.00104577
0.00728815
0.0119257
0.00748926
0.0118993
0.00444361
0.00515032
-0.00161823
-0.00619105
-0.0174422
-0.0292067
-0.0227244
-0.0144319
-0.0198833
-0.0229621
-0.0170048
-0.0085025
-0.0115039
-0.00133341
0.000972209
0.000384388
0.00337165
0.000986809
0.000478514
0.000485068
0.000483833
0.000343042
-0.000194314
0.000151031
0.00503356
0.00653088
0.00803625
0.00282658
-0.00255215
-0.00416762
-0.00749029
-0.00953005
-0.0192482
-0.0210479
-0.0147976
-0.00341895
-0.00832878
0.00181399
-0.0160087
-0.0174984
-0.0107861
-0.00763406
-0.0149503
-0.00617737
0.000632546
0.00471363
0.000822241
0.000497344
7.49444e-05
0.000289754
0.00117004
0.00329103
-0.000345203
0.00385669
0.00136803
-0.0057618
-0.00853465
-0.00729158
-0.00266045
-0.00205291
-0.0156758
-0.0151174
-0.0151429
-0.00895067
-0.00627864
-0.0153366
-0.0133412
-0.00489178
-0.00822187
-0.00157208
-0.0186379
-0.0075646
-0.00324565
0.00201715
0.00128383
0.00054244
0.000240929
0.000776661
0.0010239
0.00729804
0.00798952
0.00546044
0.00719548
-0.000678571
-0.0013146
-0.00388662
0.00119367
0.00767513
-0.0100101
-0.0216725
-0.014584
-0.0208362
0.0013952
-0.0298463
-0.0108916
-0.00623731
-0.00709351
-6.41796e-05
-0.0179511
-0.03202
-0.00841683
-0.00144166
-0.00226117
0.000495426
0.00122736
0.00190717
0.0053658
0.00707461
0.0101549
0.00926436
0.00767168
0.00753315
0.00773727
0.00347794
-0.000754322
0.0172121
-0.00769574
-0.0137198
-0.00125995
-0.00495876
-0.000698469
0.000826842
-0.0180488
0.00328122
-0.00772358
-0.006708
-0.0321621
-0.0311064
-0.0079516
3.17264e-06
0.000377629
0.000483852
0.000786494
0.00446323
0.0122712
0.0124632
0.0130057
0.00785917
0.00980842
0.0047929
-0.00203856
-0.0141139
0.00586383
-0.00778006
0.00170606
-0.0061171
-0.0127149
0.000986701
0.0127364
0.0217968
0.00600065
-0.000972655
0.00640028
0.000449441
-0.0157019
-0.0148055
-0.00344486
0.00277135
0.00048581
0.000482486
0.000600494
0.00348063
0.0125239
0.0101673
0.00702831
0.000874991
0.00410279
-0.0114888
-0.000125842
-0.0110323
-0.0176677
-0.0169453
-0.0181917
-0.00314384
0.00796774
0.0344096
0.0370809
0.027334
0.0130861
0.0113589
0.0185072
-0.00690644
-0.00193377
-0.0115263
-0.00316243
0.000531289
0.000331412
0.000485084
0.000220847
0.00187259
0.00824887
0.00916526
0.00266712
-0.00257274
-0.00498884
-0.00739721
-0.0213592
-0.0133674
-0.0311181
-0.0103822
-0.0151995
-0.0302104
0.0130953
0.0414882
0.0274076
0.0197934
0.0228083
0.0122412
0.00214994
-0.00569154
-0.00325869
0.00345745
-0.00138296
-0.00124287
-4.21586e-05
0.000484903
-0.000100708
0.00164424
0.00665884
0.00944182
0.00204617
-0.00729759
-0.0155376
-0.0101618
-0.0249044
-0.0125865
-0.0160264
-0.000459187
0.00508047
-0.00317139
0.0310597
0.0156962
0.0268919
0.0270925
0.0267281
0.00692728
-0.00281922
-0.0112189
-0.00163926
0.00363033
0.00385821
0.000583062
0.000485108
0.000485757
0.000203075
0.000204885
0.00453979
0.0042573
-0.00169345
-0.00845982
-0.00882463
-0.0102246
-0.0232813
0.00204731
0.00546346
0.0267228
0.0179674
0.0212613
0.0244878
0.0102883
0.0272155
0.0280393
0.0175055
0.0154903
0.00489673
-0.00566658
-0.00988171
-0.00132544
0.008509
0.00078173
0.000485943
0.000484226
0.000472757
5.37175e-05
0.00141878
-0.0016279
0.00202775
-0.00416205
-0.0104811
-0.00360571
-0.0123317
0.0203521
0.0241625
0.025062
0.00454061
0.018094
0.0160145
0.0368544
0.0345589
0.0291037
0.00148371
0.0112637
0.00365416
-0.00179746
-0.0100669
-0.00293361
0.00583061
0.0018885
0.000454026
0.000484946
0.000485332
-0.000498938
-0.00153442
0.00408955
-0.00116865
-0.000413129
-0.0102376
-0.00181699
0.00880371
0.0154332
0.0291255
0.0319874
0.000186744
0.0134163
0.0247209
0.0296642
0.0210797
0.0184677
-0.00692719
-0.0168586
-0.0149771
-0.00715844
-0.00720336
-0.00343093
0.00508533
-0.000222999
0.000424888
0.000484558
0.000484179
-0.00111568
0.000270949
0.00296214
-0.00565275
-0.011776
0.00211099
0.000848025
0.00544953
0.00978496
0.018333
0.00970801
0.0129204
0.00139834
0.0194636
0.0161128
0.00906705
0.011632
0.00530186
-0.005133
-0.0027429
-0.00173452
0.00193015
-0.002189
0.00745084
0.000126307
0.000582966
0.000484109
0.000483874
7.57447e-05
0.00180174
0.00756512
-0.00490963
-0.0139885
0.0023067
0.0100327
0.00117655
0.00855132
0.0211254
0.0210908
-0.00412995
0.0125507
0.00453264
0.000973105
0.0216823
0.0060495
0.0139076
-0.00329507
0.00234022
0.00174632
0.00362752
0.0075161
0.00534405
-3.60655e-05
-0.000124144
0.000484193
0.000484841
-0.00272142
-0.00167879
0.00576816
0.00518567
-0.00990902
-0.00752302
0.014599
-0.00130652
0.00820734
0.0210657
0.0142103
0.00518351
0.0116828
-0.00721613
0.00138938
0.0040099
-0.00154176
0.00628243
-0.00461836
-0.00480535
0.00693989
0.00432076
0.00522841
0.00557339
0.000661783
5.91499e-05
0.000485061
0.000483534
-0.00391945
-0.000320602
0.00696522
0.00899217
0.000171319
-0.015462
-0.0161578
-0.0213842
-0.0152152
-0.00933539
-0.00217649
0.00249154
0.0119509
0.0128851
0.0110302
0.00478752
0.00476985
0.0082849
-0.00421548
-8.07789e-06
0.00284559
0.00387174
0.00206772
0.00154434
0.000859222
0.000484655
0.000486227
0.00048513
-0.00274195
-0.00375522
0.00219906
0.00414329
-0.00352589
-0.00904842
-0.0262921
-0.0216663
-0.0268907
-0.027074
-0.00819175
-0.00711524
-0.0114249
-0.00898888
-0.00915821
-0.0107926
-0.00660161
0.0024002
-0.00255833
-0.00351266
-0.00296137
-0.00223251
0.00254484
-0.0010235
-0.000419707
0.000484896
0.00048501
0.000485051
-0.00143971
-0.00133212
-0.00380658
-0.00331415
-0.0110285
-0.00274462
0.006253
-0.0111115
-0.0270554
-0.0392464
-0.0276838
-0.0349102
-0.0210975
-0.00269623
-0.0184253
-0.0220447
-0.0300375
-0.0230931
-0.00291929
0.00241936
-0.00154227
-0.0026631
0.000521599
-0.000918546
1.98903e-05
0.000485486
0.0004845
0.000483949
1.26138e-05
0.00252371
0.00696191
0.00347255
0.00344022
0.00244481
-0.0146092
-0.026803
-0.0308569
-0.0328998
-0.05428
-0.039252
-0.0429798
-0.0431114
-0.033533
-0.048451
-0.0392352
-0.0260218
-0.0123241
-0.00203743
0.00401366
0.000534131
0.00154668
0.000885891
0.000486835
0.000484831
0.000485065
0.000484876
0.000483453
0.00262101
0.00841371
0.0128372
0.0114034
0.0212721
0.0162341
-0.00699858
0.000154348
0.00929712
0.000383461
-0.00954024
-0.0155411
-0.0110412
-0.0194513
-0.00910732
-0.00138065
-0.00264456
-0.00193241
0.00510848
0.00290216
0.00274843
0.000610296
0.000537635
0.000484532
0.000484264
0.000484277
0.000484256
0.000483593
0.000278545
0.00170866
0.00851181
0.016293
0.0262087
0.0257651
0.0274338
0.0297924
0.0282814
0.0331743
0.0361651
0.0104425
0.0165745
0.0244822
0.0219512
0.0228377
0.00814912
0.00805879
0.00984779
0.00309218
0.00356402
0.00103017
0.000486289
0.000483138
0.000485665
0.000484392
0.000483501
0.000485196
0.000814737
0.00369019
0.00573932
0.00788178
0.0118457
0.0158347
0.0129467
0.00449853
0.00493921
0.0108031
0.0159325
0.0176346
0.0119893
0.0116703
0.00780213
0.00402695
0.00219394
0.00390566
0.00553335
0.0038649
0.000152413
0.000485306
0.000486091
0.000486151
0.000482703
0.000484693
0.000486358
0.000484349
0.000483736
0.000482971
0.000897026
0.00131413
0.00219268
0.0031021
0.00389381
0.00387245
0.00349396
0.00681528
0.00695152
0.00648252
0.00529768
0.00350285
0.00272098
0.00294988
0.00165956
0.000933165
0.00195164
0.00138285
0.000485476
0.00048567
0.000486934
0.000483391
0.000484194
0.00100401
0.00100248
0.00100334
0.00100442
0.00100243
0.00100376
0.00100282
0.00100229
0.00100286
0.00100455
0.00100407
0.00100542
0.00100259
0.00100369
0.00100451
0.00100263
0.00100419
0.00100303
0.00100277
0.00100364
0.00100199
0.00100381
0.00100324
0.0010064
0.00100495
0.0010035
0.00100391
0.00100359
0.00100223
0.00100424
0.00100358
0.00100458
0.0010033
0.00100367
0.00100339
0.000962187
0.000847908
0.000769011
0.00082684
0.000805627
0.000866775
0.000862046
0.000781097
0.00182342
0.00481003
0.00132525
0.000762206
0.000810033
0.000569885
0.000800859
0.000934414
0.00100422
0.00100465
0.0010027
0.0010056
0.00100514
0.00100503
0.00100428
0.0010048
0.00100405
0.00100812
0.00100016
0.000990641
0.000949127
0.000645535
-0.00142295
0.000228085
0.00157954
0.0053712
0.00487933
0.00298612
0.00227243
0.00292373
0.000485548
-0.00307296
-0.00268287
-0.000806665
0.000347983
0.000845481
0.00112371
0.0010639
0.00100532
0.00100332
0.00100395
0.00100154
0.00100447
0.00100201
0.00100421
0.00100137
0.00154526
0.00198456
0.00246114
0.0023124
0.00492834
0.00779637
0.00927505
0.00744223
0.00793868
0.00693156
0.00616761
0.00943329
0.00834372
-0.000907879
-0.00316592
-0.00275134
-0.00121672
5.83239e-05
0.000768255
0.00147324
0.00100357
0.00100469
0.00100321
0.00100491
0.00100366
0.001003
0.000924893
0.000251314
0.00201171
0.00237103
0.00257561
-0.00253633
0.00516856
0.00240457
7.95492e-05
-0.0025171
0.000403599
0.00662807
0.00354511
0.00615668
0.00932757
0.00311077
0.000431252
-0.000851901
-0.00323715
-0.00721947
-0.00224085
0.00167121
0.00086775
0.00100433
0.00100392
0.00100298
0.00100313
0.00092864
0.000834858
0.000520571
0.00198254
0.00221606
-0.0036463
-0.00319512
-0.00232118
-0.00427434
0.00108934
0.00402661
0.00681218
0.0108906
0.0049402
0.000504928
-0.0035039
-0.00373343
-0.00556916
-0.0039124
-0.00354018
-0.00620564
-0.0055335
0.000167906
0.000784229
0.00101195
0.000997634
0.00100319
0.00100398
0.000977277
0.000341077
0.000125882
-0.000669526
-0.0031563
-0.00349379
-0.00779709
-0.0065137
-0.00148415
-0.000669818
0.00533609
0.00397618
0.000627913
-0.00553632
-0.00996585
-0.0139932
-0.0124364
-0.00962825
-0.00886037
-0.00481826
-0.00719434
-0.00848907
-0.00251011
0.000312502
0.000700742
0.000717072
0.000978457
0.000850222
0.000836052
0.000566694
-0.00255018
-0.00294869
-0.00385035
-0.00593904
-0.00584411
-0.00499291
0.0050997
0.005212
-0.000996567
-0.00119689
-0.0110996
-0.00655548
-0.0100079
-0.020486
-0.0230048
-0.01502
-0.0118658
-0.0110617
-0.0108689
-0.00922033
-0.00368819
0.00193446
0.00343302
0.000583006
0.000900383
0.000500672
0.000734027
-0.00177665
-0.00474108
-0.00131735
-0.00458169
-0.00468301
-0.00410098
-0.00245825
0.00431297
-0.0048297
-0.00947571
-0.0108617
-0.0184058
-0.016593
-0.0213818
-0.0192325
-0.0193914
-0.015421
-0.0134282
-0.0107375
-0.00657148
-0.005445
-0.00781186
2.01518e-05
0.00232101
0.00138756
0.000985921
0.00110044
0.00011925
-0.00147228
-0.00542124
-0.00292855
-0.0010357
-0.00209643
-0.00187114
0.00642518
0.00315515
-0.00128481
-0.00351467
-0.00253791
-0.00443278
-0.00778723
-0.0161741
-0.00942003
-0.0130836
-0.00761795
-0.005858
-0.00780824
-0.00540565
-0.00208986
-0.00622263
-0.00386405
0.000721934
0.000836131
0.00100355
0.00161983
0.000303625
-0.00148627
-0.00441719
0.000686187
0.00114418
0.00154237
0.00498724
0.0111016
0.010031
0.008762
0.00021955
-0.00911554
-0.00864028
-0.0130018
-0.0114644
-0.00841344
-0.00662128
0.00194946
0.00393757
0.00711411
0.000182958
0.00263493
-0.00133377
-0.00432541
0.000523511
0.00100357
0.00100336
0.000930427
0.000751408
-0.00239827
-0.000240052
0.00455388
0.00603145
0.00596118
0.00497252
0.0103624
0.00929653
0.00794953
-0.000789737
-0.00904444
-0.0207307
-0.0113744
-0.0131922
-0.0110216
-0.00375376
0.00402499
0.0165486
0.0191427
0.00934518
0.0106917
0.00431118
0.000884005
0.000807061
0.000994225
0.00100441
0.000353444
0.000539017
-0.00100512
-0.000478709
0.00416305
0.00741417
0.00421582
0.0101807
0.0086183
0.00988934
0.00133882
-0.00491816
-0.018047
-0.0192561
-0.00466323
-0.00513067
-0.00492445
-0.0045067
0.0114968
0.0183353
0.0174647
0.0150431
0.0178302
0.00584381
0.00350633
0.00241488
0.000980305
0.00100262
0.000395608
0.000940617
0.000823202
-0.00366527
-0.000241386
0.00554693
0.00749462
0.014251
0.0107632
0.0113122
-0.00270131
-0.00939231
-0.0141723
-0.0137936
-0.00156132
-0.000476621
-0.00248078
0.00545668
0.0141144
0.00815072
0.0113565
0.0227882
0.0178777
0.0068202
0.00275585
0.00176672
0.00100298
0.00100454
0.000738036
0.000543304
0.000725186
-0.00288712
-0.00231654
0.00489935
0.0159201
0.015519
0.00995965
0.00889682
-0.00457025
-0.0105158
-0.0107769
-0.000115572
0.00309886
-0.00105265
0.00373174
0.00339882
0.00050005
0.00503468
0.00977685
0.0168549
0.0131912
0.00173436
-2.81487e-07
0.00139337
0.00100353
0.00100346
0.000991253
0.000597269
-0.000464655
-0.000451483
0.00358353
0.0108414
0.0166395
0.0185031
0.0107112
0.00538658
-0.00215446
-0.00954164
-0.00750025
-0.00112403
-0.000642928
0.00198396
-0.00127208
0.00174453
0.00241704
0.00795528
0.00561997
0.012074
0.00684363
0.00146773
0.00358488
0.00387559
0.000994971
0.00100437
0.00100347
0.000103227
-0.00236774
-0.00107451
0.00113233
0.00920005
0.0163044
0.0159863
0.0130222
0.00572219
-0.00108232
0.00346382
0.00318874
0.000179329
0.00409769
0.00334719
-0.00475609
-0.00200779
0.00327351
0.00811993
0.00342004
0.00951104
0.00623908
0.00609072
0.00833103
0.00393609
0.000985565
0.00100439
0.0010044
-0.000320558
-0.00407906
-0.00272681
-0.00203481
0.0101975
0.0131942
0.0132012
0.0180838
0.00966335
0.0121299
0.0113905
0.0114178
0.00399344
-0.00177514
-0.00243933
0.00177385
0.00152418
0.00184743
0.00654019
0.00609972
0.00803279
0.00688337
0.00907962
0.00630383
0.00444393
0.00153288
0.00100488
0.00100394
-0.000121593
-0.00769678
-0.00873969
-0.00591009
0.00581195
0.0157156
0.0176898
0.0171859
0.0154916
0.0227485
0.025435
0.0119282
0.0113074
0.0065435
0.00507281
0.010405
0.00216872
0.00995735
0.0040694
0.00376288
0.00616905
0.00198316
0.00833828
0.00481575
0.00184306
0.00062691
0.00100465
0.00100313
-0.00132279
-0.00667656
-0.0106963
-0.0123918
-0.0129782
-0.00170752
0.0112188
0.0175864
0.0157547
0.0326148
0.0327467
0.0166004
0.0134272
0.00313519
0.0096481
0.0114591
0.00355221
0.00764344
0.0017846
0.00560187
0.000624737
-0.00115381
0.00544365
0.00395872
0.00125365
0.000690891
0.00100476
0.00100584
-0.000462097
-0.00634916
-0.00541988
-0.0105149
-0.009506
-0.0128455
-0.00654662
0.00970549
0.0126032
0.0204852
0.0232508
0.0198807
0.01582
0.0115261
0.0163964
0.0137368
0.00902686
0.0106176
0.00289382
-0.000422864
-0.00179833
0.00322605
0.00390877
0.00146524
0.00213763
0.00100459
0.00100482
0.00100333
-0.000217288
-0.00427342
-0.00368343
-0.00412297
-0.00706357
-0.0081752
-0.00742365
-0.00343731
-0.000290407
0.000674945
0.00651699
0.00614387
0.00728873
0.00789535
0.00774173
0.00411738
0.00275251
0.00607745
-0.000284642
0.000385045
-0.0014026
0.0024015
0.000792969
-0.000912968
0.00122574
0.0010049
0.00100493
0.00100388
0.000122183
-0.00197918
-0.00520391
-0.00280739
-0.0011971
-0.00298496
-0.00160993
0.00256009
-0.00908722
-0.0114042
-0.00697747
-0.00462244
-0.00208527
-0.0024673
-0.00201256
-0.00422848
-0.00141689
-0.0044069
-0.00362199
-0.000933052
0.00306344
0.00155953
-0.00064017
0.000127743
0.00108478
0.00100437
0.00100491
0.00100439
0.000748822
-0.000453803
-0.00291567
-0.00455259
-0.00597664
-0.00317407
-0.000796648
-0.00292327
-0.00673599
-0.00975277
-0.014128
-0.0150409
-0.00838882
-0.00924564
-0.0122986
-0.0109333
-0.00676633
-0.00627164
-0.00686723
0.000241333
0.00452578
0.0043237
0.00260483
0.00149992
0.00111429
0.00100329
0.00100411
0.00100249
0.00100472
-0.000705788
-0.00287801
-0.00486303
-0.00646714
-0.00484107
-0.00593856
-0.00699842
-0.000965458
-0.00312552
-0.00566434
-0.005742
-0.00519527
-0.00136533
-0.00102345
-0.00342308
-0.00140154
2.05423e-05
-0.00134776
-0.000942054
0.000857355
0.00278723
0.00284091
0.00133359
0.00100212
0.0010015
0.00100247
0.00100403
0.0010046
0.000933468
0.000438934
-0.00175821
-0.00320944
-0.00610559
-0.00735524
-0.0102499
-0.00885722
-0.00678197
-0.0032574
-0.0025646
-0.00773273
-0.00232175
0.00159826
0.00414426
0.00886866
0.0029951
0.00185214
0.000949744
0.000247373
0.00105457
0.000975482
0.00100209
0.00100327
0.00100736
0.00100132
0.00100593
0.00100384
0.00114079
0.00209643
0.000351076
0.000682937
-0.000458256
0.000108578
-0.00105529
-0.00709692
-0.00477393
-0.00045863
0.000528621
0.0051167
0.00316502
0.0013999
0.0015861
-0.00202572
-0.00456275
-0.00187833
0.0001269
0.00125763
0.000959737
0.0010039
0.00100532
0.00100211
0.00100418
0.00100527
0.00100451
0.0010025
0.0010016
0.0010042
0.00112567
0.00101369
0.000518867
0.000247588
0.000492266
7.48945e-05
0.000277152
-0.000471905
-0.00100597
0.000176083
0.00119665
-0.000640166
-0.000499989
0.00135654
0.000902622
0.000645066
0.000716476
0.000731206
0.00100326
0.00100385
0.00100248
0.00100293
0.00100471
-0.00145366
-0.00145291
-0.00145367
-0.00145461
-0.00145334
-0.0014536
-0.00145249
-0.0014542
-0.00145302
-0.00145389
-0.00145536
-0.00145395
-0.0014547
-0.00145305
-0.00145604
-0.00145298
-0.00145204
-0.00145506
-0.00145602
-0.0014545
-0.00145391
-0.00145247
-0.00145374
-0.00145285
-0.00145287
-0.00145241
-0.00145383
-0.00145491
-0.00145315
-0.00145403
-0.00145292
-0.00145527
-0.00145346
-0.00145409
-0.0014552
-0.00141676
-0.00135857
-0.00135842
-0.0016322
-0.00217816
-0.00175663
-0.00179746
-0.00213449
-0.00177824
-0.00146074
-0.00129796
-0.00125316
-0.00154671
-0.00180123
-0.00158122
-0.00149754
-0.00145397
-0.0014549
-0.00145391
-0.0014541
-0.00145316
-0.00145573
-0.0014535
-0.00145464
-0.00145429
-0.00144588
-0.00145347
-0.00146147
-0.00144384
-0.0013859
-0.00165209
-0.00187407
-0.00131565
-0.00023825
0.000152201
-0.000373423
0.00155665
-0.000638472
-0.00161096
-0.00158299
-0.00125322
-0.00322203
-0.00295416
-0.00205789
-0.0013812
-0.00139845
-0.00145379
-0.00145412
-0.00145417
-0.00145343
-0.00145557
-0.00145426
-0.00145398
-0.00145514
-0.00142797
-0.00130257
-0.00119582
-0.00118597
-0.000333146
-0.00155303
-0.00249457
-0.00163427
-0.000211779
0.000568073
-0.00431185
-0.00415445
-0.00630554
-0.0042046
-0.00336229
-0.00672422
-0.00642666
-0.00452793
-0.00224701
-0.00159814
-0.00145429
-0.00145385
-0.00145471
-0.00145571
-0.00145511
-0.00145546
-0.00146688
-0.00164986
-0.00138508
-0.00151615
-0.00207342
-0.00379315
-0.00366038
-0.00109841
-0.00220656
-0.0035779
-0.00152969
-0.00124831
0.000328547
-0.000128129
-0.00427778
-0.00943834
-0.00577154
-0.00700918
-0.00963962
-0.00781397
-0.00358698
-0.00137216
-0.00122078
-0.00145462
-0.00145449
-0.00145252
-0.00145436
-0.00149723
-0.00147719
-0.00209795
-0.00107969
-0.00176516
-0.00437121
-0.00654258
-0.00638113
0.00253085
0.00328228
0.00612588
0.0151636
0.0173985
0.015754
0.0171188
0.0137619
0.00983912
0.00293129
-0.00146234
-0.00202486
-0.00325467
-0.000286289
-0.00263878
-0.00140763
-0.00134225
-0.00146823
-0.00145168
-0.00145298
-0.00151906
-0.0014416
-0.00171906
-0.00054218
-0.00352432
-0.00350756
-0.00312646
0.00457076
0.0109712
0.0104918
0.0127199
0.0158739
0.0149232
0.0114096
0.0091979
0.0126674
0.0152947
0.0115548
0.00829291
0.00395588
0.00026175
0.00408847
0.000428312
-0.000340651
-0.00168639
-0.00211953
-0.00140744
-0.00123325
-0.00191591
-0.00080221
-0.00240477
-0.00144526
-0.00139658
-0.00485385
0.00623234
0.0108042
0.0102375
0.00748887
0.0049585
0.00159643
8.89256e-06
0.000649119
-0.00237292
-7.23197e-05
0.000537389
0.00400529
0.00776233
-0.000487729
0.00483711
0.0102558
0.00516999
0.00159544
-0.00010502
-0.00127488
-0.00126673
-0.00115814
-0.00109139
-0.00135475
-0.00148933
0.00214929
0.00151039
0.0021435
0.00229232
0.00709322
0.01269
0.011067
0.0037911
-0.00201741
-0.00814914
-0.00888565
-0.00722865
-0.00612068
-0.00139392
0.000232176
0.00146599
0.0062404
0.010574
0.0142263
0.00749645
0.00577921
0.000896136
-0.00118184
-0.0014244
-0.00114169
-0.0010766
-0.00193561
-0.00123616
0.000838925
0.00568426
0.0040689
0.00827964
0.012277
0.0113181
0.00630835
0.00197171
0.00359906
-0.0139316
-0.0101357
-0.00544262
-0.00445569
-0.00947707
0.00571309
0.00336425
0.0096682
0.0147326
0.0106408
0.00672612
0.00435994
-0.000147577
-0.00128881
-0.00145465
-0.00110976
-0.00213858
-0.00387793
-0.00319808
0.00134449
0.00727372
0.00858796
0.00569414
0.0107573
0.0125051
0.00176093
0.00312344
-0.00397257
-0.00553039
-0.00667794
0.00935976
-0.00049203
-0.00267633
0.00291562
0.00130849
0.0149814
0.0138934
0.00675803
0.00362697
0.00136578
-0.000260927
-0.0014545
-0.00145343
-0.00123275
-0.00135952
-0.00624712
-0.00408489
0.00269603
0.0105863
0.0104454
0.0029436
0.00446807
0.00188629
0.00590711
0.00837011
0.00791882
-0.00310257
0.000615979
0.0116149
-0.000665254
-0.00529464
0.00497621
0.00349996
0.00915377
0.00350434
0.00130629
0.00109756
-0.00108671
-0.0001345
-0.00146199
-0.0014523
-0.00127233
-0.000741748
-0.00595842
-0.00395454
0.00624354
0.00750548
0.00430178
0.00233645
-6.35556e-05
-0.00313537
0.000219623
0.0182281
0.0186061
-0.0013404
0.0141265
0.0176549
-0.00168382
-0.00334054
0.00473514
0.00255163
0.00475881
0.00134309
0.00214815
0.000577796
-0.00178152
-0.00147756
-0.00148198
-0.00145295
-0.00132874
-0.00165703
-0.00440307
-0.00645293
-0.00317881
-0.00380458
-0.00624535
0.0023502
-0.00975334
-0.0102733
0.00883613
0.0333412
0.0152009
0.00907997
0.023066
0.0213156
-0.000800966
7.18056e-05
-0.00512986
-0.00507202
-0.00446287
0.001492
0.0062596
0.000733094
-0.00158522
-0.00150586
-0.00145545
-0.00145364
-0.00140224
-0.0014622
-0.00314886
-0.00466705
-0.00297558
-0.00521223
-0.00499242
-0.0152885
-0.0167337
-0.00466787
0.0198093
0.0345936
0.0124874
0.020848
0.025437
0.0184113
-0.00113466
-0.0036237
-0.00762808
-0.00957817
-0.00486741
0.00177331
0.000634652
-0.00269989
-0.00231247
-0.00156282
-0.0014546
-0.00145315
-0.00145081
-0.0013759
-0.00341169
-0.00295913
-0.00349114
-0.0127467
-0.0097646
-0.00938544
-0.0163327
-0.00129572
0.0246865
0.0325241
0.020484
0.0199241
0.0182343
0.00685073
-0.00941071
-0.0059144
-0.00769659
-0.00608392
-0.00468935
0.000751356
0.00157255
-0.000580203
-0.0027371
-0.00164592
-0.00145543
-0.00145329
-0.0014541
-0.00150412
-0.00468656
-0.00900458
-0.00589736
-0.011075
-0.00916766
-0.00900332
-0.00654866
0.00719804
0.0285997
0.0326386
0.0187709
0.0161645
0.00622665
-8.59504e-05
-0.0103282
-0.00338712
-0.00857786
-0.00575392
0.00204858
-1.47339e-05
0.00459719
0.000750968
-0.00185657
-0.00183515
-0.0014584
-0.00145385
-0.00145289
-0.00150388
-0.00259585
-0.00483956
-0.00452329
-0.00272746
-0.0010484
0.00219189
0.0129893
0.0165535
0.0243792
0.0262695
0.0139379
-0.00118895
-0.00747136
-0.00416499
-0.000354173
-0.00831836
-0.00843518
-0.00333452
0.00610849
0.00656238
0.00432815
0.00116594
-0.000741747
-0.0015332
-0.00130529
-0.00145429
-0.00145315
-0.00211604
-0.00169128
0.00105531
0.00660673
0.0120809
0.0156544
0.0203503
0.0247759
0.0184008
0.0190901
0.0158542
0.000357268
-0.00954241
-0.00408467
0.000344077
0.000605807
-0.00757066
-0.00105427
-0.00116799
0.00615108
0.00645863
0.000575813
-0.000262634
-0.00122813
-0.00156688
-0.001746
-0.00145253
-0.00145239
-0.0018549
-0.000646775
0.00755172
0.0144073
0.018611
0.0228045
0.0256464
0.024934
0.0187302
0.0127852
0.00448189
-0.00574954
-0.00591244
-0.00685729
-0.00866751
-0.00341506
-0.00434223
-0.00150721
-0.00440926
0.00336098
0.00551733
-0.00282432
-0.00257556
-0.0018233
-0.00146027
-0.00168919
-0.00145438
-0.0014532
-0.00090844
-0.00063571
0.00758059
0.0165423
0.019435
0.0169959
0.0182913
0.0177462
0.00917849
0.00137305
-0.00437787
-0.00635661
-0.00837382
-0.00733574
-0.00130182
0.00268701
-6.21595e-05
0.00556478
-0.000583126
-0.00147653
0.000132399
-0.00137238
-0.0030701
-0.00218661
-0.00140187
-0.00145336
-0.00145275
-0.00145521
-0.00139503
-0.00261656
0.00481879
0.0134322
0.0189932
0.0176837
0.0117197
0.00643213
0.00650282
0.00186366
-0.00443395
-0.00352012
-0.00328274
-0.0054497
0.00312353
0.0066614
0.0122233
0.0095942
-0.00162118
-0.00309512
0.00144106
-0.0026217
-0.00319558
-0.00237315
-0.00129069
-0.00145423
-0.00145367
-0.00145517
-0.00149069
-0.00181608
-0.000379925
0.00760194
0.013187
0.0111536
0.00397787
0.00682325
0.00789768
0.0127015
0.0127394
0.0124124
0.0038158
-0.000625207
-0.00182873
0.00610039
0.00802655
0.00538436
-0.00036933
-0.00114527
0.00452716
-0.00181404
-0.00341282
-0.00205998
-0.00133008
-0.00145374
-0.00145319
-0.00145455
-0.00148137
-0.00140306
-0.00126675
0.000449237
0.00112578
0.00153519
0.00104697
0.00410613
0.00459414
0.0151988
0.0230411
0.0241309
0.0146675
0.00693751
0.00647957
0.00751777
0.00853455
0.00539909
-0.00162276
0.000278516
0.00246554
-9.0406e-05
-0.000559803
-0.00128604
-0.0014305
-0.00145391
-0.00145428
-0.00145114
-0.00145278
-0.00109176
-0.000298881
-0.00123495
-0.00297498
-0.00236636
0.00125593
-0.000995651
-0.00317288
-0.00095849
0.0116287
0.012666
0.0136093
0.0160155
0.0165088
0.00658485
0.00664079
0.00324859
-0.00013098
-0.00106719
0.00137229
-9.04318e-05
-0.000512542
-0.001292
-0.00145279
-0.00145398
-0.00145421
-0.00145351
-0.00145346
-0.00147403
-0.00118348
-0.00440721
-0.00520527
-0.00927342
-0.0080367
-0.0121454
-0.0181025
-0.0201081
-0.00870936
-0.00221074
-0.0111986
-0.000972484
-0.00163042
-0.00272781
0.00138673
-0.00206303
-0.00213013
-0.00330777
-0.000877123
-0.000954452
-0.00145375
-0.00145286
-0.00145262
-0.00145251
-0.00145445
-0.0014536
-0.00145452
-0.00136443
-0.000631978
-0.00348786
-0.00229888
-0.00363874
-0.00440707
-0.00805173
-0.0127691
-0.00770956
-0.00403373
-0.00490053
-0.00401007
-0.00231738
-0.00190394
-0.00405057
-0.00502347
-0.00566681
-0.00265437
-0.00471616
-0.00221337
-0.00153126
-0.00145382
-0.00145506
-0.00145453
-0.00145455
-0.00145367
-0.00145384
-0.00145393
-0.00145375
-0.0014543
-0.0012477
-0.00121967
-0.00188877
-0.00154893
-0.000829735
-0.000432278
-0.000758802
-0.000903374
-0.00225928
-0.00192228
-0.000406627
-0.00188127
-0.00216659
-0.000426726
-0.00103199
-0.00173144
-0.00398362
-0.00320269
-0.00145353
-0.00145322
-0.00145253
-0.00145485
-0.00145385
-0.00218306
-0.00217996
-0.00218215
-0.00218008
-0.00218186
-0.00218257
-0.00218189
-0.0021811
-0.00218271
-0.00218244
-0.00218217
-0.00218306
-0.00218156
-0.00218374
-0.00218168
-0.00218199
-0.00218242
-0.00218271
-0.00218017
-0.00218274
-0.00218063
-0.0021808
-0.00218166
-0.00218145
-0.00218292
-0.00218337
-0.00218131
-0.00218185
-0.00218159
-0.00218252
-0.00218092
-0.00218146
-0.00218183
-0.00218189
-0.00218077
-0.0017647
-0.000959355
-0.000716709
-0.0016741
-0.00219525
-0.00184948
-0.00119923
-0.00218966
-0.00307317
-0.00366271
-0.00203647
-0.00176079
-0.00183566
-0.00174487
-0.00179185
-0.00194746
-0.00218095
-0.00218111
-0.00218177
-0.00218125
-0.00218163
-0.00218311
-0.00218329
-0.00218172
-0.00218159
-0.00215784
-0.00216428
-0.00210787
-0.00183235
-0.000608893
-0.000988847
-0.000295321
0.0018338
0.00270042
0.00465542
0.00804764
0.00793907
0.00708467
0.00742655
0.00496078
0.00360435
0.000192965
-0.000611554
-0.00152897
-0.0019575
-0.00206337
-0.0021804
-0.00218087
-0.00218418
-0.00218219
-0.00218087
-0.00218193
-0.00218233
-0.00218452
-0.00259711
-0.00306521
-0.00401349
-0.00217261
-0.00389984
-0.00308573
-0.00442042
-0.00382196
-0.00212557
0.00520065
0.00735014
0.0081725
0.0133473
0.0152403
0.0131879
0.00510598
5.98716e-06
-0.00338503
-0.00468598
-0.00444183
-0.00218393
-0.00218107
-0.0021821
-0.0021813
-0.0021832
-0.0021838
-0.00224479
-0.00253268
-0.00347038
-0.00260037
-0.00469258
-0.0061079
-0.00916513
-0.000455228
-0.00311698
-0.00285452
-0.000411032
-0.00438267
-0.00164665
-0.00224088
-0.00587747
-0.00364379
0.00402502
0.0032178
-0.00401466
-0.0069492
-0.00500419
-0.00556983
-0.00336895
-0.00218203
-0.00217991
-0.00217996
-0.00218077
-0.0022981
-0.00245083
-0.00193557
-0.00173597
0.00195186
0.00096951
-0.00598791
-0.00809771
-0.00152442
-0.0118292
-0.0118913
-0.00853214
-0.0147594
-0.0120951
-0.00947838
-0.013799
-0.00761881
-0.00686176
-0.0074162
-0.00694414
-0.00746173
0.000173347
-0.00336294
-0.00332451
-0.00199172
-0.00219302
-0.00218204
-0.0021808
-0.0022322
-0.00185837
-0.00248419
-0.000730496
0.00381872
0.000899484
-0.00716305
-0.00919173
-0.00572595
-0.0195257
-0.0193169
-0.0182987
-0.0226935
-0.0263973
-0.014416
-0.0153343
-0.0147193
-0.00932096
-0.00705934
0.00415892
0.00499336
0.00275001
-0.00636428
-0.00572912
-0.00139301
-0.000995805
-0.00213264
-0.00199252
-0.00363931
-0.0013029
0.00305657
0.00157263
0.00467246
9.37741e-05
-0.0182881
-0.00322063
-0.0113629
-0.0174258
-0.0118069
-0.0167342
-0.0218417
-0.0138315
-0.0135104
-0.00274044
-0.00202258
-0.00790713
-0.00348447
0.00706754
0.00722851
0.00105299
-0.00744069
-0.0091085
-0.00100069
-0.00072258
-0.00198689
-0.00157415
-0.00163689
0.000225085
0.00324497
0.00363923
0.00807303
0.00147102
-0.00352785
-0.00328113
-0.00605878
-0.0162119
-0.00335987
0.00501465
5.06202e-05
-0.0064218
-0.0077094
-0.00459095
-0.00850024
0.00107962
-0.00574198
0.000703038
0.0148644
0.000912758
-0.0136726
-0.0148041
-0.00593319
-0.00424323
-0.00215129
-0.000902803
0.000695165
0.000920307
0.00313714
0.00724567
0.00432027
0.00415804
0.0043288
-0.00450104
0.00261504
-0.00180846
0.0112501
0.014017
0.00949627
0.00781248
0.0122839
-0.00575513
0.00379908
0.00598611
0.00229202
-0.00849728
0.00550904
-0.00245416
-0.0167957
-0.0198113
-0.00703819
-0.00263061
-0.0021805
-0.00107542
0.00161537
0.00630804
0.00784485
0.00472688
-0.000388893
0.00488992
0.00590689
0.00570807
-0.00193091
0.00764357
0.0151681
0.0216056
0.0161695
0.00530428
-0.00459997
0.00500204
0.00138906
-0.00799437
0.0036152
-0.00698472
-0.00596129
0.000963577
-0.0071743
-0.0153866
-0.00463896
-0.00218227
-0.0021809
-0.00143682
0.00192034
0.00786396
0.00886412
-0.00467517
-0.0006758
0.00452511
0.0132428
0.0167851
0.00644583
0.011002
0.0137202
0.0133555
0.00165656
-0.0185631
-0.0216137
-0.0164257
-0.00742362
-0.0123266
-0.00313227
0.00603052
0.00441508
0.00655339
-0.00338408
-0.00934834
-0.00411722
-0.0022441
-0.00218193
-0.00173094
0.00150092
0.00679157
-0.000849956
-0.0051693
6.57738e-05
0.00852603
0.0207568
0.0125403
0.0131158
0.0116123
0.0208186
0.00616059
-0.0194742
-0.0187356
-0.0192875
-0.0222856
-0.0182274
-0.0169856
-0.0055111
-0.00739631
0.00823324
0.00941856
0.000745199
-0.00484231
-0.00283713
-0.00239864
-0.00218204
-0.00226398
0.000577674
0.00142957
-0.00330504
0.00486834
0.00695172
0.00666891
0.0127029
0.00999911
0.0244149
0.0136054
0.0154682
-0.00127568
-0.0150213
-0.0107595
-0.0086088
-0.00532702
-0.0106521
-0.00449408
0.00346026
-0.00514159
0.0042003
0.0146435
0.00656778
-0.00161145
-0.00255702
-0.00218261
-0.00218108
-0.00225631
-0.00204943
-0.0015788
-0.00465534
0.0139897
0.0159402
0.0153414
0.0178828
0.021714
0.0234219
0.0183515
0.00712507
-0.00167811
-0.0124274
-0.00660529
-0.00212992
-0.00495665
0.00179869
-0.000497607
0.00984572
0.00706571
0.00699964
0.0181518
0.00593114
0.00334606
-0.00242487
-0.00218216
-0.00218143
-0.00218612
-0.00229691
-0.0026147
-0.00483865
0.00936861
0.0137871
0.0131917
0.0143818
0.0177106
0.0147433
0.0135226
0.01572
-0.0159012
-0.00835606
0.00230287
-0.00268944
0.0018781
0.0122241
0.00301672
0.011942
0.0063339
0.00888979
0.0130251
-0.000263053
-0.0028766
-0.00319157
-0.00216688
-0.00218202
-0.00218175
-0.00257069
-0.00576213
-0.00535978
0.00322834
0.0116275
0.0115988
0.013756
0.00950845
0.00466966
0.00602855
-0.00607117
-0.0197717
-0.00841792
-0.00901991
-0.00144971
0.00568307
0.00741904
0.0105983
0.00948586
-0.00280848
0.00306726
0.00874291
-0.00683779
-0.00878278
-0.00293896
-0.00215764
-0.00218419
-0.00218078
-0.00256626
-0.00657184
-0.00915104
-0.00149435
0.000390572
-0.00169663
0.000542319
0.0105007
0.00201826
0.00388901
-0.00762241
-0.0119578
-0.00517058
-0.00176235
0.00159618
-0.00229584
-0.00395573
0.00705982
0.00776034
-0.00221056
0.000614989
0.00133798
-0.0114477
-0.00588371
-0.00292743
-0.00219139
-0.00218227
-0.00218106
-0.00224931
-0.00661185
-0.0104873
-0.00964322
-0.0177369
-0.00519698
0.00123295
0.00172131
0.00169638
-0.0068163
-0.00188014
-0.0110946
0.00604176
0.00111636
-0.00171275
0.00174952
-0.00388546
-0.00079412
0.00167043
0.00564531
-0.00267613
-0.00829212
-0.00747656
-0.00513433
-0.00286712
-0.00257049
-0.00218226
-0.00218174
-0.0061871
-0.00826676
-0.0087402
-0.00736661
-0.0113922
-0.00519496
-0.013256
-0.00329616
-0.00080604
-0.000241627
0.011567
-0.00169649
0.00482598
0.00663271
0.011971
0.00892025
-0.00218788
-0.00779623
-0.00406816
-0.000888446
-0.0114391
-0.00623008
-0.00802141
-0.00282071
-0.00221413
-0.00241608
-0.00218187
-0.00218106
-0.00446891
-0.00906844
-0.00828428
-0.00995432
-0.0172263
-0.0126067
-0.0106337
-0.0107227
-0.000886161
0.000465547
0.0179429
0.0191631
0.0175517
0.0149671
0.00273841
0.00758502
0.000238868
-0.00886049
-0.0067121
-0.00299958
-0.00769269
-0.00798459
-0.0112901
-0.000986269
-0.00163101
-0.0021825
-0.00218161
-0.00218176
-0.00276473
-0.0056912
-0.00618023
-0.00759058
-0.0173448
-0.0142064
-0.0193705
-0.00967273
-0.00907785
-0.0051016
-0.000556961
0.000555872
-0.00190974
-0.00146546
0.00379797
-0.0104929
-0.00483013
-0.0120619
-0.0109601
-0.00660676
-0.00960552
-0.0141774
-0.00961058
-0.00143062
-0.00193601
-0.00218095
-0.00218107
-0.00218449
-0.00219194
-0.00327673
-0.0090829
-0.00439894
-0.00675276
-0.0182469
-0.0103037
-0.00752293
-0.00831827
-0.0133642
-0.00309029
-0.0049347
-0.0087449
0.00498016
-0.00351
-0.0140745
-0.0129102
-0.0110871
-0.00656826
-0.00444786
-0.0128332
-0.0131452
-0.00668879
-0.00241715
-0.00202069
-0.00218256
-0.00218308
-0.00218326
-0.0022723
-0.0010431
-0.00359896
-0.00458879
-0.0030494
-0.0055223
-0.0108947
-0.00496188
0.00723595
0.00243493
0.00320931
0.00322182
-0.00422422
-0.0078764
-0.00605565
-0.00499498
0.00242363
-0.00406796
-0.00935896
-0.00921012
-0.0104648
-0.00764678
-0.00319155
-0.00228245
-0.00230634
-0.00218355
-0.00218153
-0.00217914
-0.00218087
-0.00138876
-0.00110083
-0.00295947
-0.00170469
0.00256243
-0.0041563
0.00212449
0.000291868
0.00691181
0.000800824
0.00045418
0.00411973
0.00540602
0.000191053
-0.000398284
-0.000887495
-0.00704148
-0.0135642
-0.00991782
-0.00849339
-0.00527381
-0.00221959
-0.00220936
-0.00218148
-0.00218107
-0.00218199
-0.00217991
-0.00218282
-0.0021521
-0.00121086
-0.000393927
0.00172087
0.00811715
0.00655818
0.0115349
0.00685061
0.00458418
-0.00339731
0.000130488
0.00625638
0.00787869
-0.00238781
-0.0101453
-0.00960751
-0.00891037
-0.0117234
-0.0108175
-0.00655889
-0.00324571
-0.00244219
-0.00218114
-0.00218256
-0.00218224
-0.00218052
-0.0021817
-0.00218075
-0.00231366
-0.00294719
-0.000350492
-0.00022221
0.00190775
0.00280018
0.00233364
0.00759428
0.0052813
0.00575733
0.00431933
-0.00125941
0.00147292
0.00519614
0.00167336
0.00157509
0.00257603
-0.00370823
-0.00416619
-0.00426264
-0.00304737
-0.00218279
-0.00218108
-0.00218257
-0.00218344
-0.00218212
-0.00218323
-0.00218327
-0.00218211
-0.00218215
-0.00182242
-0.00143471
-0.00131829
-0.0022879
-0.00227935
-0.00103446
0.000285777
0.00143665
0.000772842
-0.00201854
-0.00217116
-0.000103244
0.000205238
-0.000796991
-0.00199425
-0.00254747
-0.00124993
-0.00160255
-0.00218216
-0.00218356
-0.00218182
-0.00218118
-0.00218252
-0.00167555
-0.00167417
-0.00167536
-0.00167514
-0.00167427
-0.00167361
-0.00167353
-0.00167372
-0.00167462
-0.00167647
-0.00167656
-0.0016746
-0.00167561
-0.00167469
-0.00167497
-0.00167419
-0.00167667
-0.00167294
-0.00167656
-0.00167418
-0.00167462
-0.00167503
-0.00167643
-0.0016751
-0.00167359
-0.0016756
-0.00167446
-0.00167323
-0.00167434
-0.00167519
-0.00167491
-0.00167451
-0.0016762
-0.00167316
-0.00167534
-0.00161245
-0.00133996
-0.00110067
-0.000985514
-0.000489192
-0.00123275
-0.00147801
-0.000778836
-0.000679967
-0.00272246
-0.0015175
-0.00132918
-0.00168601
-0.00177095
-0.0018214
-0.00178072
-0.0016755
-0.00167496
-0.00167534
-0.0016745
-0.00167544
-0.00167676
-0.00167495
-0.00167641
-0.00167435
-0.00167513
-0.00167666
-0.00168412
-0.00169995
-0.00117183
0.000768673
9.66286e-05
-0.00136668
-0.00389573
-0.00324249
-0.000304012
0.00101074
0.00322154
0.00655525
0.00633114
0.00256046
0.000456275
-0.00122481
-0.00160776
-0.00235543
-0.00199603
-0.00167245
-0.00167476
-0.00167458
-0.00167253
-0.00167293
-0.00167301
-0.00167399
-0.00167064
-0.00180483
-0.00184315
-0.00158561
-0.000472037
-0.00034133
-0.00157339
-0.00296026
0.000727113
0.00540496
0.00419168
-0.000319384
0.00270091
0.00494129
0.00556657
0.00224981
-0.00100417
-0.000288791
-0.0001943
-0.000814487
-0.000833224
-0.00167414
-0.00167452
-0.00167593
-0.00167441
-0.00167317
-0.0016747
-0.00141329
-0.000595404
-0.000218298
-0.0017141
-0.00200679
0.00200959
0.00058288
-0.0013287
0.000360583
0.00534046
0.00835271
0.0028974
-0.00433413
-0.00146601
-0.00131189
-0.00137264
-0.00139786
-0.00588784
-0.00791186
-0.00405706
-0.0020272
-0.000786101
-0.000170159
-0.00167408
-0.00167375
-0.00167485
-0.00167419
-0.00142945
-0.000684992
4.70263e-05
-0.00033343
-0.00335472
-0.000789227
0.000814749
0.000882529
0.00449388
0.00142125
-0.00453534
-0.00644782
-0.00480252
-0.00768241
-0.00718808
-0.00571838
-0.00149698
-0.00280314
-0.00783542
-0.00915957
-0.00899631
-0.00460747
0.000303493
0.00127336
-0.00122939
-0.00164963
-0.00167436
-0.00167531
-0.00155516
0.00010613
0.000626148
0.0017546
0.00168721
0.000497321
0.00598943
0.00750783
-0.000808596
0.00208034
0.00319617
0.00467066
0.00262144
-0.00134798
-0.0128276
-0.00184157
-0.000961428
-0.00343185
-0.00943474
-0.0126965
-0.0119669
0.0051443
0.00998465
0.00760251
-0.00100585
-0.00168739
-0.00171018
-0.0014357
-0.00147933
-0.000915683
-0.00222438
-0.000538293
-0.00022252
-0.000137455
0.00824669
0.000874274
-0.0106951
-0.00696624
0.00229501
0.0117786
0.00807507
-0.000129839
-0.00586515
-0.00189284
-0.00538053
-0.00831934
-0.00918963
-0.0138736
-0.0065294
0.0141483
0.0151284
0.00977886
-0.000374018
-0.00197996
-0.001816
-0.00181485
-0.00201158
-0.00227644
-0.00373404
-0.00146716
-0.00307148
-0.00816334
-0.00535873
-0.00748874
-0.0108582
0.00486797
0.0146772
0.0147007
0.00878179
-0.000412754
0.000306937
-0.00605836
-0.000380228
-0.00883045
-0.00903912
-0.000837451
-0.00197341
0.00985484
0.02151
0.014665
0.00226539
-0.000494181
-0.00169753
-0.00225512
-0.00341144
-0.00468601
-0.00456883
-0.0034322
-0.00344582
-0.0124907
-0.00496442
-0.00537753
-0.00505675
0.00949096
0.0170171
0.0113921
-0.00576353
-0.0193882
-0.0176089
-0.00785858
-0.0124572
-0.00495108
-0.0037748
0.0139333
0.0041328
0.00741569
0.0193852
0.0157025
0.00226989
-0.00126899
-0.00167267
-0.00260238
-0.00398761
-0.00660044
-0.00486426
-0.00325944
0.00128
-0.00233373
0.000740774
0.00670714
0.0203952
0.015183
0.0155927
0.00248887
-0.000724201
-0.0107404
-0.00901146
-0.0162125
-0.0108503
-0.00138314
0.00852825
0.0104574
0.00599552
-0.00249381
0.00361327
0.0100815
0.000894164
-0.00167488
-0.00167377
-0.00209644
-0.00318571
-0.00653045
-0.00505768
0.000706142
0.0052411
0.00490587
0.0106198
0.00931842
0.0161769
0.0129677
0.00721427
0.00190988
0.0116754
0.00656211
0.00296489
-1.0257e-06
0.000840418
0.0100111
0.01102
0.00482433
-0.00157795
-0.00722448
8.3419e-06
0.00257126
0.00109517
-0.00162167
-0.00167461
-0.00142846
-0.00194781
-0.0050706
-0.00282971
0.00816633
0.0100927
0.0147235
0.0108184
0.0171617
0.00813752
-0.00274837
-0.00998385
0.00268753
0.0212908
0.00975621
0.00717768
0.0139856
0.0209189
0.0214806
0.0210477
0.017292
0.00299748
-0.00570808
-0.000204443
-0.000139843
-0.00140667
-0.00149303
-0.00167432
-0.000994209
-0.00150177
-0.00438149
-0.000930222
0.00663859
0.0113299
0.0204858
0.0203222
0.0153578
-0.00484736
-0.00223915
-0.00375316
0.00616869
0.0235225
0.0126574
0.00842006
0.00726183
0.0251636
0.0176853
0.0189204
0.0140905
0.0028193
0.000157851
0.00239762
0.000542213
-0.00163825
-0.00167279
-0.0016726
-0.00134158
-0.001013
-0.00313333
-0.000707915
-2.58339e-05
0.00573937
0.0130663
0.0139953
0.0125708
0.00103658
-0.00271095
0.000359985
0.00995435
0.0193488
0.0100573
0.0110508
0.0171318
0.0179598
0.0162821
0.0106265
0.00865964
0.00660469
0.00237976
0.00608283
-0.00150123
-0.00187891
-0.00167422
-0.00167333
-0.00165795
-0.00116879
-0.000988205
-0.000484866
-0.0033719
-0.00130792
0.0106489
0.013329
0.00846267
0.00469595
-0.00105407
-0.000961082
0.0211076
0.0154079
0.0108028
0.0104812
0.0184837
0.0156542
0.0119492
0.00478967
0.00750926
0.0017735
0.00606484
0.0105719
-0.000672586
-0.00326002
-0.00167758
-0.0016763
-0.0016745
-0.000568214
0.00278118
-0.000282771
-0.00106194
-0.000819792
0.0077011
0.00943094
0.00925645
0.00734993
0.00415329
0.0139693
0.0222882
0.0210871
0.0167299
0.016053
0.0143965
0.0125901
0.00760767
0.00593016
0.0119228
-0.000506285
0.00398878
0.00709716
-0.00186061
-0.00292757
-0.0016788
-0.00167424
-0.00167404
-0.00024008
0.0050314
0.00437632
0.00219263
0.00631704
0.0155584
0.0162021
0.00491441
0.00335072
-0.00272438
0.00383498
0.00531647
0.0131331
0.0113816
0.0120349
0.0147603
0.0099737
0.0120507
0.00922905
0.0135965
0.00320502
-7.75346e-06
0.000665761
-0.00521443
-0.00245877
-0.00149689
-0.00167446
-0.0016736
-0.000817662
0.00834645
0.0106579
0.00600262
0.00878141
0.013338
0.0169948
0.00820417
-0.00700888
-0.00632281
-0.013526
0.00628738
0.00717121
0.0156129
0.0196909
0.00314543
0.0156842
0.015474
0.00715562
0.00426066
0.000533307
0.000478742
-0.00775045
-0.00601889
-0.00174726
-0.00147181
-0.00167489
-0.00167519
0.00371819
0.0106098
0.0141315
0.00606249
0.00517648
0.00135956
0.00952864
-0.00443909
-0.0113815
-0.0122922
-0.00948176
0.0137646
0.0209272
0.0185693
0.00185455
-0.00217183
0.00547341
0.00922119
0.0032092
0.00481126
0.00669465
0.000914574
-0.00620237
-0.00458145
-0.00189286
-0.00155686
-0.00167488
-0.00167325
0.003199
0.00949772
0.00990848
0.00681399
-0.00420487
-0.00963438
0.00107409
-0.00980907
-0.0141761
-0.0140631
-0.00611906
0.00887156
0.0150184
0.0127254
0.00500901
-0.00535041
-0.00888849
0.000333564
0.000107919
0.00106198
0.00124157
-0.000566121
-0.00293021
-0.00397455
-0.00284526
-0.00167275
-0.00167306
-0.00167407
0.00115469
0.00193773
0.00729943
-0.000161431
-0.00821922
-0.0203542
-0.00899715
-0.0145337
-0.0122872
-0.00797076
0.00180927
0.0135014
0.0182928
0.0102193
-0.00389452
-0.00152761
-0.00278534
-0.00309972
-0.00346964
-0.0041393
-7.03354e-05
0.000111892
-0.00209605
-0.00331672
-0.00192432
-0.00167544
-0.00167424
-0.00167526
-9.219e-05
0.00156902
0.00732034
-0.000688943
-0.00909317
-0.0162664
-0.0226105
-0.0205327
-0.0117631
-0.00634835
-0.0070141
0.00239013
0.00324447
-0.00201285
-0.0072447
-0.00889543
-0.0047347
0.00219961
-0.00358589
-0.00409422
0.00209038
0.00018723
-0.00187451
-0.00222734
-0.00175958
-0.00167389
-0.00167429
-0.00167466
-0.00105981
0.000464276
0.00470277
0.00210593
-0.007252
-0.0130843
-0.00562343
-0.00147964
-0.00930824
-0.00748013
-0.0037834
0.00230559
0.00367681
0.00256336
-0.00504076
-0.00689881
6.73331e-05
0.00449815
0.00358867
0.00241785
-0.00029609
-0.000979937
-0.00232813
-0.00191131
-0.00169289
-0.00167487
-0.0016748
-0.00167545
-0.00167455
0.00023255
0.00285158
0.00213591
-0.0027756
-0.00550564
0.00579495
0.00595971
0.000674781
-0.00333919
0.00553431
0.00757256
0.00701131
0.00170253
0.00339998
0.00451301
0.00804948
0.00370118
0.00719647
0.00427104
0.000548727
-0.00180547
-0.00237878
-0.00178133
-0.00167402
-0.00167452
-0.00167364
-0.00167519
-0.00167323
-0.00155758
-0.000977474
-0.00250727
-0.00230478
-0.00438892
-0.00577389
-0.00720903
-0.0064573
-0.00685853
-0.000588581
-0.000695984
-0.00472371
-0.00172833
-0.000856631
0.000157887
0.000198259
0.00256491
0.0024318
0.00199157
0.00104006
-0.00284784
-0.00194444
-0.00167564
-0.00167421
-0.00167479
-0.00167342
-0.00167575
-0.00167385
-0.00169653
-0.00210914
-0.00333062
-0.00244701
-0.00432075
-0.0091058
-0.0106202
-0.0113716
-0.0112479
-0.0103818
-0.00845877
-0.00951209
-0.00770516
-0.00681619
-0.00193908
-0.00139766
-0.000943441
0.00100901
-0.00144984
-0.00156002
-0.00117615
-0.00167448
-0.00167485
-0.00167474
-0.00167504
-0.00167315
-0.00167247
-0.0016748
-0.00167518
-0.00167444
-0.00172662
-0.0017087
-0.00156783
-0.00163949
-0.00248113
-0.00297191
-0.00335415
-0.00467366
-0.00491947
-0.0039024
-0.00385344
-0.00378548
-0.0027981
-0.00345662
-0.00196967
-0.0013182
-0.00271145
-0.00231607
-0.00167591
-0.00167341
-0.00167495
-0.00167504
-0.00167492
-0.00265908
-0.00266088
-0.00265956
-0.00266129
-0.00266126
-0.00265913
-0.00266084
-0.00266219
-0.00266084
-0.00266077
-0.0026608
-0.00265961
-0.00266176
-0.00266018
-0.0026617
-0.00266145
-0.00266284
-0.00266086
-0.00266217
-0.00266232
-0.00265987
-0.00266185
-0.00265982
-0.00265917
-0.0026602
-0.00266051
-0.00266243
-0.00266033
-0.00266265
-0.00266044
-0.00266003
-0.00266046
-0.0026608
-0.00265952
-0.00266243
-0.00264003
-0.00248326
-0.00232017
-0.00222694
-0.00194622
-0.00235322
-0.00209882
-0.00133099
-0.0018919
-0.00213257
-0.00269366
-0.00270483
-0.00259334
-0.00241495
-0.00256594
-0.00263553
-0.00266049
-0.00266061
-0.00265841
-0.00266183
-0.00266039
-0.00266018
-0.00266116
-0.00266179
-0.00266183
-0.00262713
-0.00265009
-0.00263724
-0.00259979
-0.00221334
-0.000935084
-0.00132744
-0.00180021
0.000404311
0.000804069
0.0024071
0.00341143
0.00705948
0.00875497
0.00624147
0.00114553
0.00125505
0.000384801
-0.00140591
-0.00264978
-0.00266652
-0.00266291
-0.00266066
-0.00265967
-0.00266039
-0.0026604
-0.00266008
-0.00266133
-0.00265613
-0.0026062
-0.00260558
-0.0019492
-0.000127152
0.0024284
0.00502393
0.00689736
0.00256252
0.00794279
0.0100344
0.014318
0.0204343
0.0280712
0.0289988
0.0187817
0.0128847
0.00775718
0.00306783
-0.00319445
-0.00427627
-0.00266059
-0.00266215
-0.00266131
-0.00266146
-0.00265821
-0.00266242
-0.00261443
-0.00157914
-6.38345e-05
0.00179922
0.00350511
0.00185618
0.00151477
-0.000744216
-0.00210431
-0.00522275
-0.000328614
0.00713382
0.00637281
0.00278284
-0.00466145
-0.00837562
-0.0074993
-0.0061696
-0.00143815
6.26995e-05
-0.00161581
-0.00531097
-0.00279912
-0.0026605
-0.00266056
-0.00266072
-0.00266075
-0.00266
-0.00170086
0.00261313
0.00722073
0.0136479
0.0118762
-0.000655178
0.00470927
0.00142269
0.0118497
0.00621489
0.00234837
-0.00189495
0.00540836
-6.12178e-05
-0.0157665
-0.0228583
-0.013101
-0.00892786
-0.00593165
-0.00464723
-0.0040266
-0.00488243
-0.00568687
-0.00359773
-0.00267342
-0.0026609
-0.00266371
-0.00259565
-0.000392238
0.0059088
0.0078662
0.0156938
0.0108944
0.00189667
-0.00341129
-0.00560022
-0.00484388
-0.0120982
0.00610646
0.0014546
0.0091215
-0.0103677
-0.000944008
-0.00927516
-0.0179225
-0.0061331
-0.00126892
0.00412915
-0.00309012
-0.00989978
-0.00654667
-0.00259722
-0.00093803
-0.0027518
-0.00315585
-0.00231523
0.00227221
0.00933357
0.00318895
7.60941e-05
0.00133048
-0.0025331
-0.0110945
-0.0117617
-0.00838823
-0.00450522
0.00502569
0.0206055
0.00450877
-0.00758273
-0.00469977
0.00532195
0.00617106
-0.00962761
0.000994794
0.0110538
-0.00944132
-0.0187558
-0.0112341
-0.000855573
-0.00206506
-0.00303177
-0.0043255
-0.00421476
0.00367075
0.00766678
-0.00685756
-0.0121847
-0.00141788
-0.00952714
-0.0075541
0.00171179
-0.0133138
-0.0140748
0.00326689
0.0105356
0.011316
0.00768618
0.00448567
-0.00714277
0.00140215
0.00393018
-0.000755482
0.00363049
-0.00986878
-0.0283329
-0.0209892
-0.00389911
-0.00203048
-0.00272221
-0.0038347
-0.00528502
0.000466928
-0.00332216
-0.0129853
-0.0139996
-0.000997875
-0.0118915
-0.0125209
-0.0106267
-0.0441241
-0.0347855
-0.0116967
0.0314293
0.0353306
0.01911
0.00815479
-0.00308763
0.0020794
0.011054
0.00976594
0.00914014
0.0055332
-0.0178533
-0.0174765
-0.00539868
-0.0027961
-0.00265917
-0.00331947
-0.00420235
-0.00795207
-0.00838206
-0.00783504
-0.00559679
-0.00764666
-0.0136687
-0.0285368
-0.0384083
-0.0548019
-0.0462998
-0.00529977
0.037745
0.0461161
0.0322657
0.0183194
-0.000502556
0.00163712
0.00142931
0.012332
0.00549874
0.00483475
-0.00289562
-0.00919683
-0.00352632
-0.0026614
-0.00266244
-0.00333846
-0.00439149
-0.010169
-0.00979187
-0.00453413
-0.0111252
-0.010048
-0.0261523
-0.0124628
-0.0282626
-0.0547728
-0.0227312
0.0206332
0.0506116
0.0461579
0.0243509
0.0138081
0.00401739
0.000842293
0.00391111
0.000315053
-0.00361315
-0.00140351
0.00353864
-0.00277267
-0.00447755
-0.00264252
-0.00266163
-0.00351731
-0.00366749
-0.00807828
-0.00661339
-0.00422657
-0.0132765
-0.0171939
-0.0228395
-0.00805114
-0.0186066
-0.0317273
-0.0212059
0.0136091
0.032805
0.0434535
0.0382236
0.0215028
0.00491179
0.000693415
-0.0087989
-0.00130839
-0.017256
-0.00833066
0.00123036
-0.00246451
-0.00301492
-0.00259538
-0.00266076
-0.00331724
-0.00314807
-0.00362907
-0.00368507
-0.00620282
-0.0156088
-0.00901591
-0.00902944
-0.00310719
-0.0105645
-0.0216631
-0.0114192
0.0137232
0.0338098
0.0499809
0.0471561
0.0193747
0.0104885
0.00478121
0.00589025
-0.00111504
-0.0093108
-0.0112249
-0.00441468
-0.00179449
-0.00266872
-0.00266071
-0.00265979
-0.0029366
-0.00322067
-0.00393766
-0.00312412
-0.0106389
-0.016459
-0.00618388
0.000721269
-0.0067539
-0.00964958
0.00558776
0.00343633
0.0319773
0.0505371
0.0492984
0.0300543
0.0249574
0.0142228
0.00213915
0.000776114
0.0042593
-0.0105004
-0.0131166
-0.00559755
-0.00205647
-0.00226239
-0.00266096
-0.0026611
-0.00267422
-0.00308222
-0.00526264
-0.00319951
-0.00843729
-0.0104589
-0.0127321
-0.00738175
-0.00703063
0.00568975
0.021939
0.0251279
0.0450519
0.0430109
0.0352771
0.0404839
0.0210761
0.00399118
-0.0044566
-0.00719002
0.00411625
0.00474422
-0.0156552
-0.00187191
0.00032716
-0.000636565
-0.00268061
-0.00266053
-0.00266047
-0.00148284
-0.000253059
0.00307916
-0.00586564
0.00172048
-0.00579883
-0.0101544
-0.00924401
-0.00247771
0.0134459
0.0210137
0.0475281
0.0463845
0.0235176
0.0285367
0.0108668
-0.00404352
-0.00795583
-0.00876055
-0.00503255
-0.00314781
-0.00602877
-0.00223384
0.00179854
-0.00110385
-0.00269344
-0.00266146
-0.00265927
-0.000401176
0.00270492
0.00180109
-0.0053274
3.71074e-05
-0.00372835
0.000863917
0.00733567
0.000497293
-0.00873329
0.0272119
0.0473244
0.0394287
0.0177503
0.00309992
-0.0120222
-0.00957287
-0.00106498
-0.00331385
-0.0103647
-0.00397376
-0.000764075
-0.000401048
0.000481228
-0.00109458
-0.0024944
-0.0026588
-0.00266113
-0.00159328
0.0067048
0.00141507
-0.00249445
-0.00196429
-0.00911206
-0.00229611
0.0201612
0.0185385
0.0126306
0.0387533
0.0355901
0.0289406
0.0214621
0.000813379
-0.0130425
-0.014145
0.00586464
-0.00713437
-0.00965304
-0.00127237
0.00257682
0.00140411
-0.00216571
-0.00248458
-0.00260804
-0.00266169
-0.00266198
-0.00575592
0.00366167
0.0029817
0.0142453
0.000727396
-0.00187437
0.00498245
0.0193527
0.0195529
0.0177943
0.0294842
0.0226736
0.0149393
0.00114571
-0.00319242
-0.0168186
-0.0207992
-0.00247526
-0.0075088
-0.0130874
-0.00494588
-0.00447041
-0.00269852
-0.00227347
-0.00262945
-0.00265531
-0.00266135
-0.00266061
-0.00358914
0.00757515
0.00979417
0.0143532
0.0125304
0.0126994
0.0187712
0.00835864
0.00666647
0.0061742
0.019064
-0.000371836
0.00165675
0.00224786
-0.0098273
-0.0161012
0.00909246
0.00801472
0.00296062
0.00662166
0.000414879
-0.00923885
-0.00258576
-0.00296954
-0.00301416
-0.00266098
-0.00265802
-0.00265954
-0.00169002
0.0104771
0.00837229
0.00327937
0.00582819
0.013983
0.011027
-0.00115417
-0.00252323
-0.00857653
0.00312496
-0.000865871
-0.0029269
-0.00695067
-0.00774427
0.00139778
0.0025469
-0.00423107
-0.00202779
-0.00646752
-0.00910342
-0.0108009
-0.00696724
-0.00500115
-0.00348832
-0.00266045
-0.00265964
-0.0026633
-0.00248881
0.00450094
0.0100701
0.00310388
-0.00122362
-0.000706687
0.0141346
-0.0112673
-0.0113291
-0.0290029
-0.0224165
-0.0099314
-0.0145944
-0.0131153
-0.00732857
0.00651426
-0.00898698
-0.00618015
-0.00537743
-0.0127042
-0.0120471
-0.00824601
-0.0038341
-0.00391617
-0.00308715
-0.00266147
-0.0026611
-0.00265915
-0.00269665
-0.00107932
0.00626686
0.00616704
0.0045432
0.00504151
0.000832686
-0.00579227
-0.014352
-0.0162345
-0.0180725
-0.00646995
-0.0182091
-0.0100452
0.00097613
-0.00269887
-0.0013749
-0.00324394
-0.0116806
-0.00678939
-0.00568122
-0.00201845
-0.00235331
-0.00261788
-0.00259066
-0.0026606
-0.00266019
-0.00266127
-0.00266128
-0.00188675
0.000977888
-0.000721908
0.00605737
0.00647682
0.00164314
-0.00467102
-0.0107729
-0.00932076
-0.00605203
0.00819495
-0.0100669
-0.0126011
-0.00224234
-0.00799593
-0.00779738
-0.0093637
-0.00423811
-0.00451165
-0.00299315
-0.000253097
-0.00215783
-0.00262968
-0.00265878
-0.00266133
-0.0026603
-0.00266142
-0.00266208
-0.00261646
-0.00217634
-0.000831712
-0.0016643
-0.00105381
-0.00271853
-0.00948735
-0.00488013
0.00109191
0.00125137
-0.00376867
-0.00570836
-0.00405142
0.00359827
0.00407189
0.00925823
0.00584034
0.00934429
0.00512616
0.00151195
-0.00123178
-0.0024067
-0.00266076
-0.00266034
-0.00265979
-0.00266139
-0.00266138
-0.00266146
-0.00265088
-0.00257379
-0.00162765
-0.00209742
-0.00293023
-0.00253761
0.00135897
2.29081e-06
0.00160604
0.000812422
-0.000515528
0.00472409
0.00423655
0.000685299
0.00298184
0.00177693
-0.00163175
0.00190319
-0.000705495
-0.00185026
-0.00235857
-0.00266145
-0.00266059
-0.00265992
-0.00266022
-0.00266124
-0.00266084
-0.00266052
-0.00266159
-0.00266134
-0.00283649
-0.00286036
-0.00272464
-0.00282013
-0.00320803
-0.00490675
-0.00464226
-0.00249242
-0.00289397
-0.00243004
0.000654893
-0.000232569
-0.00161994
-0.00117132
-0.00168364
-0.00236718
-0.00252136
-0.00256739
-0.00266016
-0.00265993
-0.00266155
-0.00266128
-0.00266133
8.18797e-05
8.55364e-05
8.35754e-05
8.25315e-05
8.33742e-05
8.43461e-05
8.48662e-05
8.36035e-05
8.30845e-05
8.33069e-05
8.28988e-05
8.32091e-05
8.48957e-05
8.31404e-05
8.39326e-05
8.47998e-05
8.29152e-05
8.45918e-05
8.16716e-05
8.32786e-05
8.32169e-05
8.33665e-05
8.134e-05
8.18533e-05
8.37691e-05
8.31807e-05
8.31177e-05
8.37859e-05
8.31699e-05
8.37833e-05
8.58562e-05
8.36506e-05
8.4937e-05
8.21687e-05
8.40549e-05
0.000136868
0.000296254
0.000408916
0.000553171
0.00137551
0.000699323
0.00061334
0.000923991
0.000895122
-0.000537804
0.000453691
0.000799365
0.000312078
0.00027278
0.000251547
0.000172814
8.30733e-05
8.21662e-05
8.51029e-05
8.46146e-05
7.99569e-05
8.49049e-05
8.19128e-05
8.17501e-05
8.24638e-05
0.00011054
9.43988e-05
0.000132982
0.000107522
0.000438949
0.00187339
0.00118292
0.00144266
0.00107163
0.00191938
0.00514317
0.00645013
0.00902781
0.0121078
0.00920953
0.00565119
0.00397589
0.00249416
0.000962416
-0.000614885
-0.00023474
8.43065e-05
8.38854e-05
8.30438e-05
8.3794e-05
8.38859e-05
8.40288e-05
8.40227e-05
8.85738e-05
-0.000205252
-0.000532471
-0.000366647
0.00378415
0.00545829
0.00464873
0.00221415
0.0016492
0.00306797
0.00526935
0.00343674
0.0101409
0.0127593
0.0110826
0.00875638
0.00371467
0.00472082
0.00375753
0.00021676
3.82306e-05
8.3986e-05
8.23047e-05
8.26513e-05
8.11815e-05
8.43259e-05
8.30904e-05
0.000223524
0.000494185
0.000260126
-0.000717793
-0.00234441
-0.000502175
0.00300779
-0.00192221
-0.000212844
-0.00136596
-1.28219e-05
0.00840548
-0.00211391
0.00866795
0.00597314
0.00223291
0.00696549
0.00523166
0.00209729
0.00332132
0.002168
0.0010148
0.000878406
8.37208e-05
8.17376e-05
8.38332e-05
8.4061e-05
-1.16399e-05
0.000200047
-0.000193964
-0.00142675
-0.0046067
-0.00687238
-0.0060702
-0.00370456
-0.000671775
0.00102486
0.000945289
-0.00101198
0.0151445
0.00750925
0.00422322
0.0030958
0.00817669
0.00670354
0.00737863
0.00407891
0.00255346
0.00109116
0.00411728
0.00334578
0.00120422
8.4433e-05
8.30005e-05
8.16245e-05
8.74637e-05
1.81738e-05
-0.00213305
-0.00241367
-0.00549923
-0.00913317
-0.00442351
-0.00656276
-0.00663198
0.00209627
-0.000612266
0.00377397
0.0111025
0.00829203
0.00796248
0.00860398
0.00466807
0.00380679
0.001103
-0.00346344
-0.00151059
0.00310105
0.00904379
0.00344726
0.00179195
0.00103605
8.09824e-05
0.000214408
0.000620237
-0.000716242
-0.00331155
-0.00310975
-0.00123952
-0.00388234
-0.00632899
-0.00634571
0.00165543
0.00104789
0.00259194
0.00953053
0.00534515
0.011579
0.00150058
0.00517627
-0.00112507
-0.002331
-0.00195377
-0.00563296
-0.0139679
-0.000276177
0.00668416
0.00231092
0.00217793
0.000631873
7.2855e-05
0.000587929
0.00127379
-0.000164041
-0.0059118
-0.00121782
0.00266802
1.74642e-05
0.00200509
0.00413452
-0.00529275
-0.00473213
-0.000667922
0.000609597
-6.76563e-05
0.00470027
-0.00434649
-0.00499904
-0.00661026
0.00104695
-0.00827327
-0.0105124
-0.0121474
-0.00356059
0.00766372
0.00623052
0.00117067
-0.000173362
8.28775e-05
0.000398127
0.00150699
0.000489479
-0.00061864
0.00290491
0.000113858
-0.00646573
-0.00161054
-0.00998086
-0.00543541
-0.00293679
-0.00324105
-0.0121645
-0.00840062
-0.00878639
-0.00530459
-0.00211631
-0.00898644
-0.00643912
-0.00843566
-0.0112364
-0.0126651
-0.00314827
0.00402629
0.00317556
0.000293744
-1.12787e-06
8.19327e-05
-0.000407787
0.00268743
0.005386
0.00564136
0.0027073
-0.00465278
-0.00492888
-0.00143217
-0.00440508
0.0050092
0.0018129
-0.00494068
-0.0044112
-0.00822709
-0.00595399
-0.00987471
-0.0180908
-0.0144836
-0.00762668
0.00162717
-0.00650236
-0.0104824
-0.00310228
-0.00408175
0.00230039
0.00126776
8.3933e-05
8.30072e-05
0.000209707
0.00277774
0.00720873
0.00592617
-0.00273851
-0.00447135
-0.00275464
0.00998738
0.000703481
-0.00111269
-0.00423034
-6.19898e-05
0.00125003
-0.005596
0.0040029
-0.00489264
-0.0150971
-0.0149289
-0.00983291
-0.00261284
0.000668204
-0.00263178
-0.00277143
-0.00225301
0.00140412
0.00103643
0.000105246
8.36887e-05
0.000575437
0.00260887
0.00492434
0.00378057
-0.000651561
-0.00176197
-0.00194235
0.00102159
0.00125289
3.31912e-05
-0.00573026
-0.00635737
-0.00749723
-0.000157708
0.0126406
0.00489658
-0.00955069
-0.01073
0.00176389
0.00779161
0.00794981
0.00729251
0.00228632
0.00216384
0.00116791
-0.000157184
0.000156854
8.21042e-05
0.000836262
0.00267461
0.00190611
0.0023678
0.00258202
2.08631e-05
0.00287552
0.00963719
0.0148846
0.00294959
-0.00100947
0.00394076
0.00796763
0.00480654
0.0137118
-0.0047435
-0.010226
0.00351136
0.00830392
0.00722997
0.0125221
0.00636277
0.00226284
0.0044064
0.00301992
5.72466e-05
8.21777e-05
8.24787e-05
0.00043551
0.00114181
0.000809226
-0.00165225
-0.00389659
-0.00163906
0.0015869
0.0120381
0.0106767
0.00375721
0.0016889
0.00724334
0.00736573
0.0135116
0.00510467
-0.000391187
-0.00288799
0.00268035
0.00688302
0.00815755
0.0124236
0.00963695
0.00809069
0.0104432
0.00518164
-0.000301619
8.41214e-05
8.28396e-05
0.000103095
0.000619386
0.00117522
-0.00235163
-0.000811578
0.00318446
0.00375673
0.00756059
0.00149451
0.0124415
0.0118151
0.0192863
0.00827544
0.0117715
-0.00160514
-0.00775369
0.00182582
0.00731163
0.00634461
0.00693381
0.00909273
0.00841769
0.0103703
0.00711938
0.00148716
-0.00227236
7.56268e-05
8.34778e-05
8.25202e-05
0.000460164
0.00185422
0.00465399
0.00452727
0.006604
0.00548064
0.0090263
0.0103827
0.00686874
0.0113125
0.0144459
0.0187474
0.00564779
0.00142776
-0.00217314
-0.00641427
-0.00415469
-0.0081942
0.00197498
0.00132247
0.00182873
0.0034754
0.000302949
-0.00263107
-0.00223151
6.93239e-05
8.37507e-05
8.32816e-05
0.000427198
0.00199883
0.00335817
0.00352949
0.00490816
0.0034534
0.00377214
0.00179396
-0.00122104
0.00910337
0.00963007
0.00797104
-0.00082617
-0.00242323
-0.00494533
-0.00472034
-0.00723981
-0.000930828
0.00683877
-0.000887796
-0.00286502
0.000838127
-0.000992784
-0.00130616
-0.00138005
0.000241416
8.42212e-05
8.247e-05
0.000915549
0.000684354
0.00245069
0.0049448
0.00360926
0.00225337
-0.00211858
-0.000185957
-0.00285993
0.00111805
-0.000459399
-0.00645707
0.00267507
-0.00118302
0.00475239
-0.00450549
0.00390596
0.00582409
0.00116448
-0.000653252
-0.0024994
-0.00122343
-0.00456046
-0.00280976
0.000121761
-0.000485875
8.42861e-05
8.46666e-05
0.00383351
0.00492991
0.000513223
-0.00186367
0.00849669
0.00791819
0.00306413
0.00297722
-0.00142507
0.00762042
0.00702107
-0.00322512
0.00193342
-6.85439e-05
0.00297719
0.00257264
0.00318744
0.00171592
-0.00454365
-0.00161797
0.00293882
1.66499e-05
-0.00584336
-0.00226964
-1.16181e-05
-0.000187096
8.34551e-05
8.22041e-05
0.00254767
0.00314978
0.00221001
0.00251409
0.0067581
0.0056643
0.00406717
0.00492716
0.0100492
0.00508092
0.00819935
0.00463842
0.00551668
0.00837536
0.00693796
0.0072454
-0.00390462
0.000293723
-0.0011251
-0.00848307
-0.00440201
-0.000997166
-0.00346751
-0.000987775
-0.000361338
8.57188e-05
8.37941e-05
8.50169e-05
0.000607004
-0.00324966
-0.00260408
0.000224743
0.000469619
-0.000162358
0.00381129
0.00302386
-0.00202276
0.00225058
0.0140608
0.00995679
0.0114334
-0.00194227
-0.0029087
0.00302198
0.00148726
0.00327569
-0.00235379
-0.00982951
-0.00595804
-0.000952376
-0.00165589
-0.00364716
-0.000508798
8.17669e-05
8.42978e-05
8.25259e-05
0.000278227
-0.00161657
-0.00546312
-0.0052349
-0.00362505
-0.00267274
-0.00230052
-0.00713764
-0.00142838
-0.00562904
0.00636437
0.00606571
0.00172484
0.00299804
0.00554851
-0.00362436
-0.00391902
-0.000912453
-0.00634407
-0.0034482
-0.00203408
-0.00262062
-0.0016852
-0.00207797
-0.000142726
8.38908e-05
8.43359e-05
8.36359e-05
0.000274246
0.00047581
-0.00408566
-0.00371915
-0.00783957
-0.00351705
0.000296933
-0.00732825
-0.00665159
-0.00398442
-0.00650064
-0.000140302
0.00168774
-0.000504851
-0.00169778
-0.000736683
-0.00326751
-0.00594261
0.00018337
0.00286301
-0.00214988
-0.00122261
-0.000424268
0.000155363
-6.55019e-05
8.56908e-05
8.45047e-05
8.38168e-05
8.40944e-05
-0.00144326
-0.00521665
-0.00448587
-0.00763074
-0.00242297
-0.00201561
-0.00513359
-0.00345033
0.00226797
8.14098e-05
-0.0031057
0.00123902
0.00825824
0.00505736
0.00825562
0.000395569
7.37413e-05
0.0027159
0.00185515
-0.00348106
-0.00126067
-0.000537473
-6.18962e-05
8.56797e-05
8.41397e-05
8.11152e-05
8.41695e-05
8.27536e-05
-1.6363e-05
-0.000809269
0.00369431
0.00394186
0.00948543
0.000535898
-0.00292088
-9.50919e-05
0.00173125
0.00267357
0.00268767
0.00330947
0.00278367
0.0104263
0.0103747
0.00426303
0.00475747
0.00169063
0.000351795
-0.00161651
-0.000741956
-0.000118212
8.34128e-05
8.27869e-05
8.35117e-05
8.2424e-05
8.31212e-05
8.30952e-05
0.00018998
0.00106915
0.00277415
0.00186642
0.00293939
0.00167085
-0.000629544
-7.37791e-05
0.00355249
0.00736567
0.00834253
0.0045364
0.00237344
0.0084619
0.00673254
0.00352881
0.00259664
0.00119521
0.00226998
0.000545281
8.57706e-05
8.23592e-05
8.2307e-05
8.18755e-05
8.36503e-05
8.14411e-05
8.36675e-05
8.38962e-05
8.513e-05
8.3895e-05
0.000322003
0.000657207
0.00127586
0.000833287
0.00028353
0.000525571
0.000831787
0.00140711
0.00160385
0.00138385
0.000467982
0.000942082
0.00139164
-0.00026922
7.11863e-05
0.000407533
0.0012796
0.00088613
8.50419e-05
8.24362e-05
8.14797e-05
8.27999e-05
8.22965e-05
-0.0103455
-0.0103445
-0.0103442
-0.0103442
-0.0103437
-0.0103434
-0.0103438
-0.0103437
-0.0103426
-0.0103455
-0.0103421
-0.0103448
-0.0103412
-0.0103429
-0.0103442
-0.0103425
-0.0103438
-0.0103438
-0.010342
-0.0103446
-0.0103432
-0.0103426
-0.0103455
-0.0103437
-0.0103417
-0.0103439
-0.0103397
-0.0103432
-0.0103402
-0.0103419
-0.0103439
-0.0103426
-0.0103441
-0.0103438
-0.0103427
-0.0114951
-0.0147555
-0.0168157
-0.0138832
-0.0114995
-0.0108775
-0.0115458
-0.0120168
-0.0104412
-0.00222447
-0.0113785
-0.0130837
-0.0118982
-0.012452
-0.0111942
-0.0106145
-0.0103438
-0.0103429
-0.0103442
-0.0103427
-0.0103428
-0.0103438
-0.0103428
-0.0103441
-0.0103414
-0.0103567
-0.0104117
-0.0106476
-0.011709
-0.0173073
-0.0171675
-0.0157473
-0.0139211
-0.0067303
-0.00805826
-0.0230527
-0.0252616
-0.0181927
-0.0282459
-0.0323678
-0.0300952
-0.02145
-0.0176687
-0.0133888
-0.0103671
-0.0103474
-0.010342
-0.0103451
-0.0103426
-0.0103418
-0.0103448
-0.0103439
-0.0103431
-0.010346
-0.00909586
-0.00665069
-0.00555027
-0.00950194
-0.00475109
-0.00687969
-0.00607461
0.000120797
0.00526538
-0.020911
-0.0336121
-0.0429657
-0.050185
-0.0722942
-0.0723336
-0.055539
-0.0366994
-0.0210052
-0.00836697
-0.00489572
-0.0103408
-0.0103439
-0.0103435
-0.0103421
-0.0103429
-0.0103417
-0.010359
-0.0103195
-0.00919567
-0.00822017
-0.00131819
0.00209915
0.00817149
0.000794999
0.0148786
0.0318885
0.0188571
0.00392095
-0.00557441
-0.013765
-0.0089152
-0.0306223
-0.0553118
-0.0601758
-0.034837
-0.0274365
-0.0189999
-0.000441721
-0.00920501
-0.0103431
-0.0103432
-0.0103427
-0.0103449
-0.0103251
-0.0104733
-0.0114798
-0.00932623
-0.00707387
0.00579758
0.0108458
0.00828454
0.00710461
0.0162373
0.0149956
0.00603697
0.0192727
0.0127366
0.0158872
0.00698452
-0.0118078
-0.0258021
-0.0200547
-0.00866475
-0.0114788
-0.0150394
-0.00838554
-0.00885562
-0.0103633
-0.0103233
-0.0103428
-0.0103436
-0.0103802
-0.0100323
-0.00894646
-0.00353815
-0.00632368
0.0130333
0.0160787
0.00839935
0.0232746
0.0147188
0.0170074
0.016059
0.0178599
0.019162
0.0286912
0.00671693
0.00894362
0.0243812
0.0277648
0.0334824
0.00901128
-0.00349085
-0.00236598
